/*

Author: Jordan Ott
Date: 02/27/2017
Adapted for DeepTraffic simulation at http://selfdrivingcars.mit.edu/deeptrafficjs/

*/

//<![CDATA[

lanesSide = 4;
patchesAhead = 50;
patchesBehind = 20;
trainIterations = 50000;

var num_inputs = (lanesSide * 2 + 1) * (patchesAhead + patchesBehind);
var num_actions = 5;
var temporal_window = 0;
var network_size = num_inputs * temporal_window + num_actions * temporal_window + num_inputs;

var layer_defs = [];
layer_defs.push({
    type: 'input',
    out_sx: 1,
    out_sy: 1,
    out_depth: network_size
});
layer_defs.push({
    type: 'fc',
    num_neurons: 40,
    activation: 'relu'
});
layer_defs.push({
    type: 'fc',
    num_neurons: 50,
    activation: 'relu'
});
layer_defs.push({
    type: 'fc',
    num_neurons: 50,
    activation: 'relu'
});
layer_defs.push({
    type: 'fc',
    num_neurons: 20,
    activation: 'relu'
});
layer_defs.push({
    type: 'regression',
    num_neurons: num_actions
});

var tdtrainer_options = {
    learning_rate: 0.001,
    momentum: 0.0,
    batch_size: 128,
    l2_decay: 0.01
};

var opt = {};
opt.temporal_window = temporal_window;
opt.experience_size = 30000;
opt.start_learn_threshold = 5000;
opt.gamma = 0.91;
opt.learning_steps_total = 10000;
opt.learning_steps_burnin = 1000;
opt.epsilon_min = 0.0;
opt.epsilon_test_time = 0.0;
opt.layer_defs = layer_defs;
opt.tdtrainer_options = tdtrainer_options;

brain = new deepqlearn.Brain(num_inputs, num_actions, opt);

learn = function (state, lastReward) {
    brain.backward(lastReward);
    var action = brain.forward(state);

    draw_net();
    draw_stats();

    return action;
}

//]]>
    
/*###########*/
if (brain) {
brain.value_net.fromJSON({"layers":[{"out_depth":630,"out_sx":1,"out_sy":1,"layer_type":"input"},{"out_depth":40,"out_sx":1,"out_sy":1,"layer_type":"fc","num_inputs":630,"l1_decay_mul":0,"l2_decay_mul":1,"filters":[{"sx":1,"sy":1,"depth":630,"w":{"0":-0.021080794611207692,"1":0.016290077624769885,"2":-0.10326818432159215,"3":-0.024068160130800712,"4":-0.019598228717838992,"5":-0.029722866826851827,"6":-0.053021943636341926,"7":-0.022165103843497243,"8":-0.05646997526748943,"9":-0.019082346538353404,"10":0.022073920865358743,"11":0.037516360011039515,"12":0.059009568627665404,"13":-0.056731205440848614,"14":-0.0032860882317743163,"15":0.04376672832180992,"16":-0.002923488634907881,"17":0.017151674246536748,"18":-0.08972683657223617,"19":0.016970772585541954,"20":-0.03544000995072674,"21":0.04665840741558147,"22":-0.03402772864135817,"23":0.017164217791960684,"24":0.07042339982728411,"25":0.01052717373444959,"26":-0.006455644463705359,"27":-0.030981290391828883,"28":-0.03361127553890156,"29":-0.04077136436983355,"30":-0.05349499634012069,"31":-0.056792799364839955,"32":0.04619950175699256,"33":-0.012731216721260936,"34":-0.019915136161444347,"35":0.04359696874613056,"36":0.003117363640939317,"37":-0.003963475506428022,"38":0.02301459116137185,"39":-0.0571318123808195,"40":0.017111786967750564,"41":-0.09095870885008167,"42":-0.011735504281395885,"43":0.03415091558247142,"44":-0.0019148973411676534,"45":-0.021022566161371825,"46":-0.011159531080710498,"47":-0.01502961504021768,"48":0.02912333053147605,"49":-0.011606609012440892,"50":0.028741577169310046,"51":0.02798577665118561,"52":0.027007012429723795,"53":-0.005855522192078034,"54":-0.017715346338150844,"55":-0.10263161214537762,"56":0.006191764586753532,"57":0.03309503218051358,"58":0.00567467506968435,"59":0.028232386636718954,"60":0.04493620040488014,"61":-0.031098892244278316,"62":-0.0238905516082955,"63":0.015064325022796839,"64":-0.04386934528973727,"65":0.0815680242663006,"66":0.041886784077867244,"67":-0.000023458117103070694,"68":0.02898728719170249,"69":0.03401253045075787,"70":0.002712204691038738,"71":-0.07248585811305824,"72":-0.003838715673554571,"73":0.02473511894613279,"74":-0.0035612476021437615,"75":0.08021549213213909,"76":-0.022732543696719315,"77":0.014001870445536406,"78":0.051751721826288476,"79":0.004030159123153047,"80":-0.016523960462256543,"81":-0.02295729330509371,"82":-0.05929430076432975,"83":-0.007157177010193007,"84":-0.03875848073240548,"85":0.04090339110276485,"86":0.0670109755952823,"87":-0.032015526145708316,"88":-0.026993139704362675,"89":-0.019041899224510245,"90":-0.006490001592350667,"91":0.09591042284717599,"92":0.04269675184103643,"93":0.029911789192006544,"94":0.001559982785046784,"95":0.058366880436185035,"96":0.04456028868937296,"97":-0.02861560774912216,"98":0.055883212020308055,"99":-0.019066810892003728,"100":0.008968670809255019,"101":0.019590470177691763,"102":0.011341510664273217,"103":0.031676566131788784,"104":0.00547163575711857,"105":-0.05210665626184125,"106":-0.001618953483383493,"107":-0.057796881542945176,"108":0.035310457944216306,"109":0.017050624200585836,"110":0.010924904351553114,"111":-0.010158156498050566,"112":0.029676958607053935,"113":-0.02341921964239691,"114":-0.032720173816139134,"115":-0.02075127869313564,"116":-0.04107402893281957,"117":-0.006426375166579778,"118":0.034627941493591524,"119":0.04345373232158301,"120":-0.05737042492243531,"121":-0.04179668321476055,"122":-0.04873247252407131,"123":-0.028990951026888107,"124":0.04713025231756347,"125":0.02582500493094869,"126":0.012255904825635686,"127":0.04244633253375268,"128":-0.01886734680415273,"129":0.01644207481877827,"130":0.0017173879101554529,"131":-0.03318915120805527,"132":0.0489457396799368,"133":0.009196736113365842,"134":0.014385975519008219,"135":-0.050892625945134606,"136":0.05296354450360934,"137":-0.009028843576400315,"138":0.027420085147563104,"139":0.020216067128161402,"140":0.04999489543887914,"141":0.025459271094134747,"142":0.013531651670803013,"143":-0.047796255582293695,"144":-0.010421801214331377,"145":-0.029401272888591973,"146":-0.06520766058523716,"147":0.022056910482090006,"148":-0.03333154210470276,"149":-0.04719510466657041,"150":-0.011665114249488203,"151":-0.02424516507647352,"152":0.0226837408137403,"153":0.01014551691708147,"154":-0.048690038345506254,"155":0.06396411851785005,"156":0.007007614237440693,"157":-0.037085358193646785,"158":0.024063443471179287,"159":0.023548496099475732,"160":0.0222126699900267,"161":0.042344872244381215,"162":-0.02950286691184792,"163":-0.02305082395062706,"164":0.05784984200140818,"165":-0.025164665322241746,"166":0.0163357343047319,"167":0.06915053256863138,"168":-0.02467179178812035,"169":-0.056151841280791835,"170":-0.01518853025123971,"171":-0.0594448305506398,"172":-0.0015005202606001237,"173":0.06881574968639168,"174":-0.10473801616782805,"175":0.017344952622671328,"176":-0.014966929576372292,"177":0.0035358865632979315,"178":-0.04274882299698666,"179":0.02588965770789836,"180":0.09311173442743022,"181":-0.014524428763965013,"182":-0.010993501920937737,"183":-0.03260158874825424,"184":0.04111332493434648,"185":-0.03806724988918633,"186":-0.05231509330314011,"187":-0.02753670621874662,"188":0.028254034188849038,"189":0.03854951154892285,"190":0.009219175327119784,"191":0.05193207650582158,"192":0.011955172675606038,"193":0.01272609901646582,"194":-0.0614434690470832,"195":0.06936870682907399,"196":0.02153797017608585,"197":-0.09452042700097392,"198":-0.08343626441804365,"199":-0.027317570763249845,"200":0.019261930274620087,"201":-0.025985590086499265,"202":-0.017507427022542064,"203":-0.06321150846644745,"204":0.004083464512941943,"205":-0.040741726655567544,"206":-0.04794058224272708,"207":-0.003403268774572041,"208":0.0024668073095588878,"209":-0.05159883635412109,"210":-0.011626668519135672,"211":0.01843863588366563,"212":0.021633720823029917,"213":0.05666877046278849,"214":0.01730021828550521,"215":0.018877523817564076,"216":0.018371281900995892,"217":-0.006529859024585831,"218":0.009748369328280843,"219":0.026138896654040244,"220":0.05805757893856425,"221":0.049902449557164046,"222":0.037334656428285505,"223":-0.021673553020731606,"224":-0.026526011152626223,"225":0.04526592350982831,"226":-0.004275819950623235,"227":-0.09956907286904125,"228":-0.1020377102921139,"229":0.0005621443717376535,"230":-0.025586291709908254,"231":-0.0061286826268718555,"232":0.0681967801961408,"233":-0.02238655896421244,"234":-0.06908162483867279,"235":0.053148164926629424,"236":0.017731024995650064,"237":0.06126597207623719,"238":-0.040495076695207445,"239":-0.017990410914839522,"240":0.00481900443788488,"241":0.01965021487275053,"242":0.08777462049435614,"243":0.038386761294600155,"244":0.04609121700252631,"245":0.039195901784297764,"246":0.027432424863864498,"247":-0.05839416245015873,"248":0.039414202194740386,"249":0.07450061374979099,"250":0.034885648179533164,"251":-0.017581754516704205,"252":0.004317858000710386,"253":-0.07841100194348241,"254":-0.07052510666502644,"255":0.053812344560631234,"256":-0.03388956518047557,"257":0.021301393625820893,"258":0.0046357905415686735,"259":-0.03663161082718617,"260":0.06198661633837169,"261":0.0009665132880861604,"262":0.028959307048098615,"263":-0.054907186720259724,"264":0.051432622813685526,"265":0.04045235428152373,"266":0.021109228977610597,"267":0.05141338578431448,"268":-0.03358437354156367,"269":-0.004537885275290805,"270":0.05267815769089415,"271":-0.0009189872481761727,"272":-0.012012681218647112,"273":-0.06286390904555535,"274":-0.0604189123710467,"275":0.045042019505904675,"276":-0.005245187302089899,"277":-0.043425431216479675,"278":-0.019704859153401078,"279":-0.050009590807805496,"280":0.04309175992148433,"281":-0.11500515284965837,"282":0.028772940909196146,"283":0.05893197802037479,"284":-0.04779877773785364,"285":-0.005549854951851449,"286":0.041300678804375136,"287":0.023178214749113957,"288":-0.006271873350147378,"289":0.01968137264496062,"290":0.031993203688668294,"291":-0.019882446862885258,"292":-0.006316606705749886,"293":-0.03681976362466717,"294":0.06401455790976959,"295":-0.03132266037231055,"296":-0.0677274307860434,"297":0.004390991408453509,"298":0.02248844266378985,"299":0.06842410025375645,"300":0.05784447874843051,"301":-0.004020556314659328,"302":0.06263873402837225,"303":0.1521660186901151,"304":-0.11810500449638839,"305":-0.027183812855893937,"306":-0.0343850882193017,"307":-0.041081834256478024,"308":-0.04312202099890538,"309":-0.023676502642865218,"310":0.028801161314069876,"311":-0.029022511132787723,"312":0.07322355587002183,"313":0.0429462602312264,"314":-0.016321229962632626,"315":0.018953296602285688,"316":-0.006621549300249906,"317":-0.049950009726494916,"318":-0.02424874071764289,"319":0.009390184456368729,"320":-0.01567991946214104,"321":0.05488254897059293,"322":-0.03507286331908333,"323":0.004337017993074235,"324":0.02799973155585889,"325":-0.017029087573234982,"326":0.10550496951413035,"327":0.07592259124365998,"328":-0.00644191536684411,"329":-0.029494278054242186,"330":0.02056388641207491,"331":-0.03196329162671852,"332":-0.010867092282177929,"333":-0.06975085542090767,"334":-0.004684789047445931,"335":-0.0010439782027851286,"336":-0.06928786737466283,"337":-0.03485653359007441,"338":-0.06592860424787203,"339":-0.013656765408466633,"340":-0.02928887840813143,"341":0.021663791419915233,"342":-0.022418116938152204,"343":0.03006708261523703,"344":0.05808721130512163,"345":0.06323054751441608,"346":0.05862220395901257,"347":0.07632773110413082,"348":-0.000532081074971113,"349":0.01781005781698596,"350":-0.030967944906700753,"351":-0.0051583047276396385,"352":-0.016126682210606785,"353":0.05782487226842758,"354":-0.050045051207895264,"355":0.03858153396832772,"356":-0.00933791873621358,"357":0.008200625824984304,"358":-0.028356824151752256,"359":-0.001058413504242097,"360":0.012602662465174956,"361":0.012322194205729142,"362":-0.035192497810840606,"363":-0.04318123752930819,"364":-0.06759842599931133,"365":0.06089321103153506,"366":0.0016820277870481268,"367":-0.035425547116448595,"368":0.010198798563621353,"369":0.003771359440377647,"370":-0.07462356303583854,"371":-0.09875859827916211,"372":-0.0037408635583929028,"373":-0.07440723427554041,"374":0.04477529132859024,"375":-0.04251701562575438,"376":0.05517636173073694,"377":-0.0007956287348243689,"378":-0.018766943850425963,"379":-0.06741245821170921,"380":0.004331153948780632,"381":0.016467294659169192,"382":-0.023326570353595595,"383":0.06417973921357152,"384":0.045652755057919235,"385":0.013290414446681066,"386":-0.07385217655369183,"387":0.04841723894826123,"388":0.013469355040257728,"389":0.03442269679798628,"390":0.014359870304522862,"391":-0.013210704333476025,"392":0.00005053767277366097,"393":0.018587513430476283,"394":0.0074536212714806,"395":-0.005024314309563862,"396":-0.06215921751097623,"397":0.0030451980228666047,"398":-0.04040595905666876,"399":-0.030219536624965637,"400":0.04053838282348144,"401":0.07882812343298924,"402":-0.012638595039419491,"403":0.023779427021865095,"404":-0.0025054560183006497,"405":0.008753996100312507,"406":0.021927002231867863,"407":0.016055449518848287,"408":0.05833555843034143,"409":0.021370893414090816,"410":0.04263694073022128,"411":-0.006403944227272473,"412":0.060909918635092396,"413":-0.02255628688259647,"414":0.0008059943231915512,"415":-0.030960077324980982,"416":-0.039170471091771894,"417":0.046512823252464336,"418":0.001779846011688401,"419":-0.038793571266289156,"420":0.03789303270518302,"421":0.01482173837477267,"422":-0.043680964791227156,"423":0.010916571291321108,"424":-0.10237650166985494,"425":0.03485568972305615,"426":-0.014456480864478692,"427":-0.014526357205757217,"428":0.01962478846686935,"429":-0.029379075714553917,"430":0.01822852597181175,"431":-0.03109729395863083,"432":-0.0037073347273923526,"433":-0.004610041306008447,"434":0.047825167848265036,"435":-0.012321649036610814,"436":-0.06282272016978406,"437":0.03024350752452,"438":0.008890368757971973,"439":-0.006738814470980142,"440":-0.03002967803734402,"441":0.029763889388511027,"442":0.01659954326055151,"443":0.034917941535542986,"444":0.020535562583160957,"445":0.031164212528725917,"446":0.014535963329501543,"447":0.011179067236360859,"448":0.02650751058140755,"449":-0.055369336946366005,"450":-0.028241031874420768,"451":0.010664446951219514,"452":-0.0372855355379757,"453":-0.03328099616594599,"454":-0.07369839754079911,"455":0.10496864541717013,"456":0.00523914652556477,"457":-0.07964977501404842,"458":0.01663434260403606,"459":0.00987373235089173,"460":0.003030290438937257,"461":0.02150889024093675,"462":0.04070989552893205,"463":-0.1611651596182298,"464":0.018882604905669894,"465":0.10865455611118167,"466":-0.0038291622881539145,"467":0.02054405144336897,"468":0.03430103897633341,"469":-0.03442385928630099,"470":-0.040709702441004435,"471":0.02054133523439893,"472":-0.10200809755929831,"473":0.024197321331248172,"474":0.007028788335254845,"475":0.04853169657979889,"476":-0.024494999798912925,"477":-0.00006194070750151905,"478":-0.007748606103831026,"479":0.03245792855338374,"480":-0.01919678718764068,"481":-0.10127857355516891,"482":0.0011242106538350727,"483":-0.024692751897003703,"484":-0.008645039861000155,"485":0.08726804267636243,"486":-0.007132392933790475,"487":0.08091419092770466,"488":-0.04904148332146373,"489":-0.018207423843110783,"490":-0.06772254290500576,"491":0.012187647366721769,"492":-0.039420090069130824,"493":0.011438433270236125,"494":0.030386533546102205,"495":-0.019889409131724593,"496":0.014627903331695226,"497":-0.042295626342121743,"498":0.021075885588061578,"499":-0.04383391441586988,"500":-0.04704123203109859,"501":0.010802886039797179,"502":0.015306229346937646,"503":0.007035140272957204,"504":0.0043732428885079585,"505":0.03914864846752571,"506":-0.079276149269057,"507":0.007808401324647225,"508":0.02440690081896989,"509":-0.044583549963031356,"510":-0.013151737795769754,"511":0.008450289743970416,"512":0.049651503454642025,"513":-0.009757817324846669,"514":0.04922676015077253,"515":-0.02504900981570541,"516":0.04338181010501209,"517":-0.06136351149527862,"518":0.01738514599041003,"519":0.0654161750633323,"520":-0.08680344645597445,"521":0.029987627423552148,"522":0.09832720376940617,"523":-0.027069500933252305,"524":0.015565353417056598,"525":0.007766555080234541,"526":-0.06328589329668044,"527":-0.042891633364816266,"528":0.008146232550405315,"529":0.1155196106124686,"530":-0.09795607324494707,"531":0.00009098503710776959,"532":0.012811899125473107,"533":-0.08718570518349651,"534":-0.010232626970850577,"535":0.03149196072225077,"536":-0.020126525811766494,"537":0.010188961132696149,"538":-0.012715186120643448,"539":0.04900779818531016,"540":0.007676922893485207,"541":-0.0191403740469481,"542":0.03239163148352753,"543":0.07640908931407199,"544":-0.011816384364507332,"545":-0.029867676488627946,"546":-0.0018392885772709352,"547":0.00018531147202085265,"548":0.05415872449407712,"549":-0.056279266820259924,"550":-0.08604953306720818,"551":-0.026291538644704158,"552":-0.01971252886415346,"553":0.011398953938527967,"554":-0.019660611338930618,"555":-0.07154763472387342,"556":-0.01371295425937282,"557":-0.00046644324166548003,"558":0.03960710935528974,"559":0.04269926487293545,"560":-0.007155244537828742,"561":-0.039784713472262395,"562":0.044033612768466145,"563":0.04261697441630777,"564":0.020465353761976543,"565":0.006633073260893916,"566":-0.024497748423148363,"567":-0.009273865137839201,"568":-0.007660515641495362,"569":-0.03526421107680795,"570":0.045637514354287104,"571":0.029183987519463325,"572":0.05483963317691329,"573":0.02283464771580045,"574":-0.032020369261656585,"575":-0.028849975209974534,"576":-0.014172180810377924,"577":0.007961779637151077,"578":0.06322049366149687,"579":0.01267756591662675,"580":-0.020020082049675043,"581":-0.047190181883277935,"582":0.025779224697343207,"583":0.009871840739050664,"584":0.023876318612670994,"585":-0.012891241394628864,"586":0.001971086004544627,"587":-0.023377584515481616,"588":-0.0006695068246062465,"589":-0.04967366242222418,"590":-0.02813046177332782,"591":0.00024974921733701385,"592":-0.007938180100210064,"593":0.0012044850262837347,"594":-0.0870587021227805,"595":-0.010983786746561088,"596":0.0033288700914297534,"597":-0.07196847585281865,"598":0.02125891769673183,"599":-0.051456156243436926,"600":-0.02731032039872187,"601":-0.020596297902084088,"602":-0.052070433077437084,"603":0.0012018496997156117,"604":-0.04284477000432631,"605":0.0023345130559565834,"606":-0.027853625146197096,"607":-0.03236757217864822,"608":-0.020329653897693367,"609":-0.040495172248770174,"610":-0.009647735891841099,"611":0.019750528027684695,"612":-0.011656285407102208,"613":-0.04006372799812217,"614":0.0351927153289789,"615":0.020301597203040974,"616":0.030334970379476744,"617":-0.07223339167181923,"618":-0.001764167747750348,"619":-0.009241942720524234,"620":0.07461311805859645,"621":-0.02035297014899447,"622":-0.00367636140508668,"623":0.035198427534211124,"624":0.042632406658657473,"625":-0.02086202938108352,"626":0.015756329512312997,"627":0.06005242306375697,"628":0.005015386162853971,"629":0.07246142049325241}},{"sx":1,"sy":1,"depth":630,"w":{"0":0.028524200199065788,"1":-0.02913187026311986,"2":-0.013588308069734377,"3":0.025021188953349996,"4":-0.028911607387129837,"5":-0.02050509295124803,"6":0.03822490589002665,"7":-0.01117866580123494,"8":0.06461864514341213,"9":0.03468101341574968,"10":-0.010860012813345364,"11":-0.024297095830206346,"12":-0.005583028218224814,"13":0.04322096790618418,"14":-0.020211484489864713,"15":-0.07312566560412843,"16":0.016641537973698443,"17":0.04491396834344866,"18":-0.036649008522724846,"19":-0.022647825941778256,"20":0.010948738420126695,"21":0.05785199863737414,"22":0.04891701483932318,"23":0.02901384808084695,"24":-0.03954751729601064,"25":-0.04815402331493069,"26":0.04996960968889163,"27":0.038046376671684874,"28":0.041603657965479324,"29":-0.01205539540539581,"30":-0.0017183907478842352,"31":0.010023943537218598,"32":0.06342333344855161,"33":-0.046458129001595724,"34":-0.0381008318277578,"35":-0.02527814868258449,"36":0.02510514558409055,"37":-0.011045058721109977,"38":0.012453624769719463,"39":0.09420797716490878,"40":-0.0012501945195753442,"41":-0.027770901843637345,"42":0.07106239503697796,"43":0.04045444655267843,"44":0.008183587269900474,"45":0.0818902130130483,"46":0.00570347039821641,"47":-0.013347365707346057,"48":0.013670421491123684,"49":0.003998360773034298,"50":0.03576057333409183,"51":0.07515900993244806,"52":-0.03691982049855643,"53":-0.0028938747146018623,"54":-0.012609901575732833,"55":0.020766389041281315,"56":-0.054379584836076855,"57":-0.02158292593807256,"58":-0.01137555499421279,"59":-0.04153210306980891,"60":-0.03154428267352578,"61":0.07144255974951483,"62":0.01099856772819367,"63":-0.03015018998657653,"64":-0.020302005212373152,"65":-0.0216445904642433,"66":0.005698797969886019,"67":-0.02197961997449362,"68":0.001956578911884627,"69":0.010513466244225993,"70":-0.00411708440594473,"71":0.0007875557839862318,"72":0.044575847804503035,"73":-0.021313025109545494,"74":0.013013248043675953,"75":0.020740861873324072,"76":0.039966824835713365,"77":-0.02256462145770744,"78":0.018391184521203793,"79":-0.04666919053268613,"80":0.041025513469979534,"81":-0.006070740280472232,"82":-0.020007684355260315,"83":0.0210129660548321,"84":-0.024040364568121673,"85":-0.017982899669936794,"86":0.035254964165345536,"87":0.07309021304974234,"88":-0.001986554644236021,"89":-0.005467105486385177,"90":0.06528628388584262,"91":-0.0020522517020755706,"92":0.045984226110269755,"93":0.014243532349322487,"94":-0.014052083236703141,"95":0.024831689473657333,"96":-0.029019237006531362,"97":-0.06766452256470898,"98":0.030496608864386106,"99":-0.019512893728357197,"100":0.016143850648989693,"101":-0.031817534355745206,"102":-0.07786145197891223,"103":0.02110996633451675,"104":-0.009256597499696,"105":0.02670079567188526,"106":-0.018752708688493522,"107":-0.010142697480215535,"108":-0.03175733669464399,"109":-0.02978823775840185,"110":0.055543617056023176,"111":0.03126045952794015,"112":-0.039029639510727895,"113":-0.010664552083391609,"114":-0.020785842120339734,"115":-0.008073783687830351,"116":-0.004430342899235985,"117":-0.011410864070467501,"118":-0.059585833591346664,"119":-0.03788463855592823,"120":-0.010047989587315702,"121":-0.024362801304121363,"122":0.02037161536244393,"123":0.020297795973172043,"124":-0.07123678376289304,"125":0.0036676695416915893,"126":0.009097682338966549,"127":0.059216070016257984,"128":0.025866181592558532,"129":0.008770976718560268,"130":0.03690611732227337,"131":-0.042182055710325135,"132":-0.021947035299536777,"133":0.034731017535392525,"134":-0.007244442746111616,"135":-0.00812008411746805,"136":0.03543327558320072,"137":-0.06130784190362082,"138":0.049311766638032654,"139":0.011723249597958913,"140":-0.004499103058199141,"141":0.016801556491271376,"142":-0.01449126159626103,"143":-0.03924893468712325,"144":-0.0117457286758569,"145":-0.047161770219003,"146":0.009610651821928311,"147":-0.03995609249035937,"148":-0.04643599948341741,"149":0.036193271973380056,"150":-0.06777832471963108,"151":-0.013285410014438214,"152":0.020911088876744397,"153":-0.02076991515485861,"154":0.0860274871496311,"155":-0.01285471499324995,"156":0.018105121221693617,"157":0.04006389584509383,"158":0.008771194132139885,"159":0.013748354803035061,"160":0.025473854732006054,"161":0.0020765598412798626,"162":0.003198109254657921,"163":-0.004859621956110859,"164":0.07466137326001598,"165":0.04140323157207651,"166":0.0011804877441854854,"167":0.004749156655031937,"168":-0.05431420910748346,"169":0.009409097122803259,"170":-0.006348324754642668,"171":0.0158992260194696,"172":-0.019167526039327733,"173":-0.021745543082042636,"174":0.007605981053233488,"175":0.003929079696860664,"176":0.01710587724898456,"177":0.031054988757713276,"178":-0.039508565979482456,"179":-0.06886026723258248,"180":-0.0020694660329235275,"181":0.03349830645183768,"182":-0.066851757612767,"183":-0.025625195219915936,"184":-0.03559108295105247,"185":-0.027996191650279185,"186":-0.02626015458957743,"187":0.043954807022606124,"188":0.01585136148002391,"189":0.01209656026792813,"190":-0.0075217422233931535,"191":-0.03133697922498003,"192":-0.01072730417452464,"193":0.006849115520154074,"194":-0.00981935864136796,"195":-0.04534746270947279,"196":-0.022509761221993756,"197":0.04683036516714681,"198":0.01978995102615316,"199":0.0479222438960808,"200":0.0562515918871383,"201":0.07182529988227969,"202":0.04428248423706453,"203":0.018990613445023067,"204":0.005974555184223637,"205":0.050113086214477784,"206":0.019042975492083742,"207":0.031357186711804805,"208":-0.04262836786176958,"209":-0.030440502323381458,"210":0.026434337938351947,"211":-0.042805594072789374,"212":-0.0951501483536983,"213":-0.002442906923959579,"214":0.02171135190606755,"215":0.03566099209880825,"216":0.04951592387682885,"217":0.023095589179702614,"218":0.007715448114157434,"219":0.0050640246834279794,"220":0.015171504386692774,"221":-0.07922975029402657,"222":-0.015820601624093465,"223":-0.024606044176406484,"224":-0.00820574910548243,"225":-0.010193733431640713,"226":0.06504852224772008,"227":0.04828283134711864,"228":-0.017509642352001507,"229":-0.005251884405722959,"230":-0.04315123920400546,"231":-0.02440682781002038,"232":-0.012888967978491187,"233":-0.06045418272678927,"234":-0.012414704296183096,"235":-0.015506740432619107,"236":0.05203127094946601,"237":0.00006522721362082771,"238":0.009374649554290362,"239":0.010572971332388638,"240":-0.05891038951725643,"241":0.03672147427491966,"242":-0.0827087047914457,"243":0.012419268591282593,"244":0.004433018612328915,"245":0.050997247755699505,"246":0.05460960450529256,"247":0.03289640173040238,"248":-0.05234752160380442,"249":-0.021251616095573918,"250":0.05992217715760163,"251":0.05719203372974349,"252":-0.02407651283310275,"253":-0.068430633315695,"254":-0.007115582276570964,"255":0.087768120070654,"256":-0.00674390933430148,"257":-0.09351958808841598,"258":-0.03420923484350646,"259":0.0045846665670289865,"260":-0.050113905601863996,"261":0.05422814866891175,"262":0.030575010911859515,"263":0.06081698229058943,"264":-0.0057877145801335135,"265":-0.025300132919843593,"266":-0.0749075622378938,"267":-0.019815245899082547,"268":0.00796403809498967,"269":0.017643670357512194,"270":0.056780801436248356,"271":0.022484159051256482,"272":0.014519614193871107,"273":0.05185001496974196,"274":0.0447540851314881,"275":-0.05979291800098375,"276":-0.05130123791666499,"277":0.004134725288611242,"278":0.022463847499152905,"279":-0.032529242574215154,"280":-0.02464034495175906,"281":0.09404956723345678,"282":0.01334500744722872,"283":0.0449756735998305,"284":-0.0659058756136232,"285":-0.0027069950514459792,"286":-0.011507120468832161,"287":-0.009215729317367775,"288":-0.010701135575056597,"289":0.07245134589516244,"290":-0.02057140528199966,"291":0.1600518733022148,"292":-0.01868734541978646,"293":-0.12419143471552735,"294":0.02837514782186662,"295":-0.028634712624441092,"296":0.014991014491671447,"297":-0.018002078381820955,"298":-0.024182181132955265,"299":-0.00490250741589027,"300":0.044270747627822224,"301":0.02258392706693897,"302":-0.11240473149135426,"303":-0.04002012629349035,"304":-0.09416651829782789,"305":0.027499400353050974,"306":0.005910887008921651,"307":0.012269536649493082,"308":0.037894438357583375,"309":0.018616676310592956,"310":0.0324695595409896,"311":-0.09979232005468487,"312":0.03386692081900052,"313":0.029070683641626155,"314":-0.020118517913243598,"315":0.04262505487080133,"316":-0.010288451275929991,"317":0.0692265518581877,"318":0.08244745781920063,"319":-0.023690814061645377,"320":-0.15640139069763245,"321":-0.00015387514961089611,"322":0.029517489073944827,"323":-0.009391443557621695,"324":-0.04144791233420731,"325":0.0037155382913937603,"326":-0.0035741594983804384,"327":-0.0028936446188484294,"328":0.06959543072121108,"329":-0.10912328997500657,"330":-0.07744587157197698,"331":-0.03555376220965214,"332":0.027844168803138274,"333":-0.02637936123747748,"334":0.006789682148566099,"335":-0.001024361621244018,"336":0.09084782870581662,"337":0.02796555895720484,"338":-0.06328047755854604,"339":0.06084496660439472,"340":0.0018095216727998082,"341":0.030050236772900387,"342":-0.016688407818120858,"343":0.00609638597848256,"344":-0.02406980279164353,"345":0.11402739781522317,"346":0.03305101138015119,"347":-0.08772853469510146,"348":-0.03366264092427677,"349":-0.09733576317707678,"350":-0.08410214055536973,"351":-0.09874837592558687,"352":-0.02389218163977426,"353":0.0351916230796424,"354":0.0006605816216330207,"355":-0.06813992295819793,"356":-0.12667792586277624,"357":-0.03314906525530441,"358":0.10475782743817037,"359":0.004997681901557738,"360":-0.008062638850280978,"361":0.0036970396111764073,"362":0.06335976623199423,"363":0.09479760763577418,"364":-0.05405519800793093,"365":-0.14763742444553815,"366":-0.007357756835369817,"367":-0.002818024113998373,"368":-0.01988152827056473,"369":0.00594425727526439,"370":0.0170178163764718,"371":0.044660177180271717,"372":0.13646728157112603,"373":0.0670533006224469,"374":-0.13090452907150643,"375":0.019604170470138415,"376":0.013269664653207714,"377":-0.02735207703656133,"378":0.020783273616568256,"379":0.0754500141635676,"380":0.0197484784497017,"381":0.11047727562156276,"382":-0.06836003394468537,"383":-0.14167039910912524,"384":-0.03297479851347751,"385":0.0011831336426103931,"386":0.031868967160193516,"387":0.01269077947869639,"388":-0.027725714651198632,"389":0.026746078766273756,"390":0.16493817195664065,"391":-0.10265443326175766,"392":-0.1568128508943901,"393":0.02790343128190654,"394":0.04196785049052852,"395":0.008073289511687572,"396":-0.03979317032679899,"397":-0.026080435195227313,"398":0.011765123310394735,"399":0.16013526597092262,"400":-0.003699452277607539,"401":-0.20561030231890506,"402":0.03270263215443046,"403":-0.0003528618660753511,"404":0.03899505699192801,"405":-0.006887210978516723,"406":-0.06440359092283923,"407":0.051638034644741766,"408":0.19273418365804365,"409":-0.05636046222858333,"410":-0.21499313850571408,"411":0.05352844241460847,"412":0.00038891370114851144,"413":0.02369875616590114,"414":-0.05952840774041672,"415":-0.03308720134974007,"416":-0.010655137216336564,"417":0.21620959661305078,"418":-0.10295700680451376,"419":-0.1008537126210732,"420":0.047082554549732,"421":0.017141199224304602,"422":-0.05254640782615574,"423":-0.0055775419404679154,"424":0.035351816381492304,"425":-0.01569338002503826,"426":0.10554698626649403,"427":-0.037132979248459624,"428":-0.15709073749494842,"429":-0.0037449551142743113,"430":-0.02416881107068819,"431":0.06543542313282305,"432":-0.006942481459266411,"433":0.007141104338160945,"434":0.09139327280415606,"435":0.18400800959543076,"436":-0.028583707249401773,"437":-0.14072774504347904,"438":0.04831934221420549,"439":0.017243546802929985,"440":-0.033348609414282956,"441":0.05893574874785286,"442":-0.00755369146104239,"443":-0.0054836493871722805,"444":0.18365233149643004,"445":0.011756286710907246,"446":-0.16271049884838926,"447":-0.021320357486881943,"448":0.0070541853596698114,"449":-0.07112545640149287,"450":-0.05468665373666562,"451":-0.018405041556229094,"452":0.0018744825125791456,"453":0.21343107594143745,"454":-0.017492563351643987,"455":-0.17980410894398938,"456":-0.01286276381644047,"457":0.05369036902199836,"458":0.0417513017374726,"459":-0.04203242563769667,"460":0.03635074229975913,"461":-0.05460422079476232,"462":0.05951110014514232,"463":0.01625342575968159,"464":-0.039554810720349776,"465":-0.038245860519479966,"466":-0.033137791751804174,"467":-0.035876091795456054,"468":-0.0016977307002592383,"469":-0.017372969159764395,"470":-0.03821602165510688,"471":0.06357939092445972,"472":-0.0009466694530769761,"473":-0.07297398019226135,"474":0.03172058266570371,"475":-0.016496576095826998,"476":0.027826354421212996,"477":0.013904629079214649,"478":-0.027803420558338156,"479":-0.031569600763820774,"480":0.013874794352794387,"481":0.06288594718483291,"482":-0.11675146648362932,"483":0.014142091702350697,"484":0.02547389596321643,"485":0.02271855292055361,"486":-0.03375174137326282,"487":0.050263671059076476,"488":-0.05131200162506855,"489":0.15608107201124108,"490":-0.023523511609502157,"491":0.01182417812011956,"492":0.005819445312508592,"493":-0.012024940759017153,"494":-0.01275502988237642,"495":-0.004707379976783998,"496":0.026625665037251313,"497":0.024844948797415178,"498":0.04688363508280579,"499":-0.03201799517141195,"500":-0.0004483227995095751,"501":-0.004340244703966334,"502":-0.07940955233713735,"503":0.020163832756492955,"504":-0.042215126411387145,"505":-0.027292278310303855,"506":-0.03676237515049641,"507":-0.04096538780856264,"508":0.004133029962668847,"509":0.005013347449102731,"510":-0.002443035936267859,"511":-0.0014855338814128692,"512":0.04059301146019443,"513":-0.026353006357537515,"514":0.037986656176469506,"515":-0.010680330620546564,"516":-0.045949783335395046,"517":0.021442616278381413,"518":0.024576411893159008,"519":0.04104510946960908,"520":0.05780015152139961,"521":0.019708205777200286,"522":0.003035961298950828,"523":0.024393159488283727,"524":-0.07255785484057906,"525":-0.041693724215340525,"526":0.025453305986249765,"527":0.02152148611424988,"528":0.0017686645543576248,"529":0.03295096899999209,"530":0.04933582921539649,"531":-0.02459296119650829,"532":0.06349178329155061,"533":0.01968507822683865,"534":0.045862198327958945,"535":0.015201938588806143,"536":-0.03328545117385852,"537":0.008670485732345547,"538":-0.028947639947626547,"539":-0.06614428418140177,"540":-0.03879951563185352,"541":0.013234830153305354,"542":-0.0025191434961064686,"543":0.008519229952034977,"544":0.004758192254293769,"545":0.017000689240341215,"546":0.026069220203928694,"547":-0.0029202685924316378,"548":0.009775122536188762,"549":-0.03613426088576362,"550":0.08848230936901774,"551":-0.028314068604974187,"552":-0.025409126463652065,"553":0.013027205431103705,"554":0.03380329478902068,"555":0.013465115774077165,"556":0.0018800301954166475,"557":-0.029473542692084,"558":-0.04262540073941882,"559":0.03848817551829546,"560":-0.02275948438679506,"561":-0.04907492455821421,"562":-0.07280949292605332,"563":-0.015369081586267567,"564":-0.018766146635098964,"565":-0.02203935092706339,"566":0.048507367203128225,"567":0.03663533185564408,"568":0.01171051498575466,"569":-0.02647420942213986,"570":-0.008441875726298355,"571":-0.012448956591249652,"572":0.047968051839322234,"573":-0.04476415369172054,"574":0.0014530809078438884,"575":-0.015326691945354022,"576":0.03840853319473876,"577":-0.09726104596418175,"578":-0.004685367021351968,"579":0.0223006914271308,"580":-0.006870919838249469,"581":-0.005320144907575515,"582":0.047962704115337464,"583":-0.046244212400370445,"584":-0.01832642761507057,"585":-0.023307795505543745,"586":0.010108022273198685,"587":-0.0330189136059499,"588":0.04046512189393203,"589":-0.01054939198272743,"590":-0.034412952071190106,"591":-0.0003992564808322915,"592":0.05364620947065803,"593":-0.015073029212465627,"594":0.05739946629390146,"595":-0.0666794957530214,"596":0.04857895427613831,"597":0.0030990781266334476,"598":-0.028200193794900293,"599":0.0014245392380517253,"600":-0.02956586538499323,"601":-0.05462297928999061,"602":-0.045103652960768945,"603":-0.06136119121128394,"604":0.01347677698970486,"605":-0.07446516621852639,"606":-0.056008217179875586,"607":-0.02021688657441192,"608":0.05402465886594898,"609":0.0486133343827754,"610":-0.010214776868145982,"611":0.06664643123783301,"612":-0.01910264475763324,"613":-0.036126197454165634,"614":0.055089737463693146,"615":-0.0328545950213247,"616":0.03151832968380397,"617":-0.016779528840576565,"618":-0.047347088713002035,"619":-0.015139320456606922,"620":0.0023655418996536095,"621":-0.015865038212786807,"622":0.1022207980937598,"623":0.03399948281892042,"624":0.061226342742330714,"625":-0.04176058847054288,"626":0.005232404923291814,"627":0.0184286622955413,"628":-0.010051512445008461,"629":0.0332328588546312}},{"sx":1,"sy":1,"depth":630,"w":{"0":-0.07540197331317793,"1":-0.040012437760175816,"2":-0.011094556152786154,"3":-0.05422340976127132,"4":-0.047454115618260045,"5":-0.04603445817304618,"6":-0.025888393868361545,"7":-0.05700508038393485,"8":-0.044760434328014256,"9":0.01627524397121144,"10":-0.017733137214359422,"11":0.03670032943913225,"12":-0.022959664429627817,"13":0.02809495333443137,"14":-0.05963402453621672,"15":0.05824640670021889,"16":0.013437590677316424,"17":-0.006601292470851526,"18":0.03269926757056773,"19":-0.015561533137213424,"20":0.03572328790550899,"21":-0.012202662354922728,"22":0.04906387117834471,"23":0.014358957006747159,"24":-0.050207821036958526,"25":-0.08248830469288546,"26":-0.07245825362150629,"27":0.015026529681091303,"28":0.029926813968218852,"29":-0.003694487713569014,"30":-0.011330826335781441,"31":-0.037566491053466024,"32":-0.02928851508529287,"33":-0.013937345956114516,"34":-0.041637112236567374,"35":-0.035138994138352746,"36":-0.053069079028560055,"37":-0.10229390994645687,"38":0.05839921167624726,"39":-0.022958798904581676,"40":-0.018999352029665004,"41":-0.010097116591121601,"42":0.06510728785627679,"43":-0.0059266086690867095,"44":-0.0405359961369417,"45":-0.03324680361734519,"46":-0.029762565982461985,"47":-0.022543242816963842,"48":0.000902128205690393,"49":-0.05581313561224625,"50":0.02966674044184195,"51":-0.049450112206585746,"52":-0.025446523893272996,"53":-0.03378084066473434,"54":0.0127474460908684,"55":0.018874134842732523,"56":0.028951489098304962,"57":-0.020939764396123977,"58":-0.008495440816042317,"59":0.021537885748516835,"60":0.039970275895707515,"61":0.07174245417994618,"62":-0.00513650983243139,"63":-0.06689318095506748,"64":-0.021009208659778393,"65":-0.08363811810216996,"66":-0.010790018847870857,"67":-0.010995147206098364,"68":0.03639331505118281,"69":0.06977064693722687,"70":-0.06784453776139567,"71":-0.0029692729682538168,"72":-0.030972539689462772,"73":0.011000578804686703,"74":0.06651601671102106,"75":0.025103583289822075,"76":-0.003584202906863482,"77":-0.01488663030450578,"78":-0.053661561753638246,"79":-0.018866229900763583,"80":-0.06187046813099358,"81":-0.004723038799505214,"82":-0.010244009847118945,"83":0.05914530677377629,"84":-0.05247568981580869,"85":0.02255430147457971,"86":-0.04493709127448729,"87":-0.03772163532767873,"88":-0.010035086595376809,"89":-0.047147454500487664,"90":-0.011023170369041182,"91":-0.038709134977362065,"92":0.06469185209612276,"93":-0.08392882714116853,"94":0.049596098456354196,"95":0.03829336566559256,"96":0.042422890525923185,"97":-0.03843850073602981,"98":-0.006671877154310782,"99":-0.05844544864502292,"100":0.004886963168940208,"101":-0.02417419862512421,"102":0.03450789343797087,"103":-0.032456965852042406,"104":0.10319808011685076,"105":0.0410815944428027,"106":0.01191992902286363,"107":-0.04116952463958359,"108":-0.03398396578057998,"109":0.028790765835946964,"110":-0.02111389700750047,"111":0.024962521704826976,"112":-0.013848291039114372,"113":-0.019959628958635234,"114":-0.004974913246392795,"115":-0.0005364133004375611,"116":-0.1135582636732536,"117":0.003053679855629547,"118":-0.050621498306996804,"119":0.012746187776838174,"120":-0.021057666364060732,"121":-0.011256876287089872,"122":-0.013764479050289116,"123":-0.053220994138338036,"124":-0.043607673482507874,"125":-0.049120910456667104,"126":0.014282925661483627,"127":0.003081575516595644,"128":0.0004181638814280915,"129":-0.003256625754855326,"130":-0.041233957916793774,"131":0.011762904086883035,"132":-0.02832343569283443,"133":-0.10049854654614399,"134":0.018410399414311586,"135":-0.0651830242421405,"136":-0.04975813758004128,"137":-0.037267001787514596,"138":0.05241307727708391,"139":0.013988322233221457,"140":-0.04906873031229891,"141":-0.06487345012160514,"142":-0.0017132684410495628,"143":0.02596726172720117,"144":0.057937638432512144,"145":0.008137622144596264,"146":-0.023436109030889326,"147":0.03442972606061832,"148":-0.007836428116373483,"149":-0.028944360184931323,"150":0.054635607453707435,"151":-0.04591948818177431,"152":0.00892880856290838,"153":-0.059188873892994875,"154":-0.0710152602729289,"155":0.017827693722538177,"156":0.01108302019699482,"157":0.007580424958864701,"158":0.03417576951079632,"159":-0.0003699780913490994,"160":-0.07603371148982654,"161":-0.029339265273635437,"162":-0.08095994235365361,"163":-0.06896505645206105,"164":0.031135005903003197,"165":-0.011460244953538234,"166":-0.0036025082438676343,"167":0.11259401893316931,"168":0.04337098383868949,"169":0.016240604235412702,"170":-0.007916031366982863,"171":-0.006399914440489335,"172":0.004741386829933562,"173":-0.01712752892885517,"174":0.08104550746066982,"175":0.01706105536356004,"176":0.06675067937734601,"177":0.01696143057759834,"178":0.013499602106972687,"179":-0.036666619574842525,"180":-0.02843710672808996,"181":-0.028032478807154274,"182":-0.03187371795424498,"183":-0.05927423274902179,"184":0.046330511876835546,"185":0.012603304555758237,"186":0.037603058081744085,"187":-0.017365336807005027,"188":-0.01815337339572222,"189":-0.027022744229379704,"190":0.03204414298347052,"191":-0.04368510256863099,"192":0.03795576995927077,"193":0.047942557601927734,"194":0.004166228758772881,"195":-0.05745822793582161,"196":-0.013224561368586489,"197":-0.0756178491145494,"198":-0.011039768583572643,"199":0.017376146380427095,"200":0.033179720024549775,"201":-0.007284186136564392,"202":-0.05677813554280658,"203":0.07244584056687538,"204":-0.05813887602118011,"205":-0.016108559074495335,"206":-0.0026865386446577938,"207":0.0011193168931900362,"208":-0.08216662924348743,"209":0.004062947349085826,"210":0.038817987560495384,"211":0.036141862962499445,"212":0.04996778115936054,"213":-0.006353423147688949,"214":-0.025158091832139247,"215":-0.09345664019727576,"216":-0.027039474897516638,"217":0.04436086204418927,"218":0.030044578641767936,"219":-0.05832819018294591,"220":0.002121510793551804,"221":0.010718245935031455,"222":-0.01641541214078082,"223":0.015021315998850126,"224":-0.07282625353663734,"225":-0.07479240345049963,"226":-0.03691263827246794,"227":0.05971254667249178,"228":-0.016441545833414607,"229":0.012323208729978209,"230":0.10246013521601972,"231":0.03450968548469667,"232":0.02624948097797461,"233":0.014337561445874794,"234":-0.054877390967679,"235":-0.06911763960616672,"236":0.014957641036351364,"237":0.05574861313611095,"238":0.11296964016397995,"239":0.09126082218819345,"240":0.07703956158283339,"241":-0.04811071166511733,"242":0.004604102858317445,"243":0.03733039718720458,"244":-0.015597519445060284,"245":-0.022071838908338883,"246":0.056871559882627716,"247":0.056155062134195244,"248":0.025110945377405335,"249":-0.0027960440916874776,"250":-0.015112008685750938,"251":-0.022327639448088427,"252":-0.011362547102196283,"253":-0.020177246926080316,"254":-0.018842469843461572,"255":0.04019467257253954,"256":0.07565526110277339,"257":0.00044937889360579456,"258":0.12098002350723018,"259":-0.04120674960023936,"260":-0.02117527615234027,"261":-0.026663419764579612,"262":0.01194115596868698,"263":0.05369088524919771,"264":0.07160708055049976,"265":0.031074734854845475,"266":0.12038661880246734,"267":0.01297979585297721,"268":-0.006748288625528349,"269":-0.0051480012219074205,"270":-0.03487253526089417,"271":0.00466795763463821,"272":-0.033240341182217775,"273":0.1153777966059187,"274":0.024619122607919725,"275":0.09978025220396727,"276":0.034012855112986864,"277":-0.06290046381916245,"278":-0.005942008613961225,"279":0.019072955320771433,"280":-0.0935034573755493,"281":0.05907588873830258,"282":0.03671922620453297,"283":0.05923965402552538,"284":0.11048865848708446,"285":0.020434950616841738,"286":-0.03186998328211213,"287":0.06320731532921338,"288":-0.03577979310218373,"289":0.02277786789321083,"290":0.028550355437458423,"291":0.09564415422793118,"292":0.0692339085978979,"293":0.025879059682150884,"294":0.06297502907909715,"295":-0.018101664796158195,"296":0.004897768414759702,"297":-0.051358571565301686,"298":-0.09598860084286319,"299":0.048196151790674255,"300":0.07536142101170304,"301":0.03505587420859599,"302":0.10634974488017253,"303":0.09884266770532717,"304":0.01171190316421544,"305":-0.12727246350709523,"306":0.03615300305624247,"307":-0.051322012594112495,"308":0.02889264691100207,"309":0.1468128703624628,"310":0.022612322509778328,"311":0.13550310720010525,"312":0.0006778286433294235,"313":-0.02990181333235676,"314":-0.03428201111592585,"315":-0.010854557061366697,"316":-0.01109656445893064,"317":-0.0073033706002776,"318":0.10632244356070629,"319":0.1117801938202868,"320":0.049193722673517966,"321":0.017112548010087585,"322":-0.005428956895295898,"323":-0.055824155025210036,"324":-0.017929434840899976,"325":0.05639187769917931,"326":0.02023676701355876,"327":0.05652503695470315,"328":0.060756119734770186,"329":0.04441583261092157,"330":-0.058689879256519875,"331":-0.11691864521335658,"332":-0.06334041738061903,"333":-0.05063899325439531,"334":0.003220755678900046,"335":-0.013067411824770904,"336":0.017555797456497792,"337":0.12985717568584315,"338":0.044657679614768575,"339":-0.009454560617328923,"340":0.03765990078297214,"341":0.03640140814885776,"342":-0.01893274717927658,"343":-0.05025045552518511,"344":0.03554564230477258,"345":0.05005393119756828,"346":0.04061173699510899,"347":0.138658035753548,"348":-0.02200972697109363,"349":0.046339678331566464,"350":-0.15885003206117024,"351":-0.03920464469268756,"352":0.06568714824757,"353":0.015993811888353412,"354":0.06887795716177142,"355":0.0975513174904723,"356":0.08359193435941048,"357":0.13467039171942308,"358":0.01720808910742096,"359":-0.0248720876946973,"360":-0.0361156251359003,"361":-0.046541725110405,"362":0.0587289234053037,"363":0.009321266019316732,"364":0.11742991647503451,"365":0.1209822609475225,"366":0.014463978517296514,"367":0.03585767543890201,"368":0.005262746945904027,"369":-0.07038983517434762,"370":-0.01754908593042042,"371":-0.006494367586668856,"372":-0.01344870287377243,"373":0.10732944740603133,"374":0.1275088777513011,"375":-0.010639999192784425,"376":-0.0014038211564236167,"377":0.0041684161871911995,"378":0.045667920337041354,"379":-0.0009930586981974426,"380":0.010735696031818306,"381":0.0738281925884214,"382":0.2105756037498672,"383":0.16266014956059263,"384":-0.013495897064485745,"385":-0.05639387008193129,"386":-0.018509352809292046,"387":-0.07777421423169471,"388":0.021746628068140667,"389":-0.05643559473687032,"390":0.1057888870058952,"391":0.2721225439845697,"392":0.12064413622883334,"393":-0.0263880813201371,"394":0.01763717742469098,"395":0.036884725687208186,"396":0.022221743339779085,"397":0.001125273458021876,"398":0.03828157494932212,"399":0.1618382477321972,"400":0.21864916192506062,"401":0.15429111745633078,"402":-0.0037593565681910434,"403":0.03982310233457134,"404":0.00857543969129652,"405":-0.029191142293004797,"406":0.020817206508201267,"407":-0.026226380494344722,"408":0.14164547347482886,"409":0.13148371834931197,"410":0.125431688276281,"411":-0.02297236475949076,"412":0.004896222405149114,"413":-0.02889492282327265,"414":-0.0779703051881506,"415":-0.03149173326418888,"416":0.013650057398212815,"417":0.04719048428443595,"418":-0.001674702528477474,"419":0.0572159622769107,"420":0.04528465993640654,"421":-0.017188954898511348,"422":-0.011977082654872982,"423":0.047665509217120726,"424":-0.07456543416951017,"425":0.008169714681663276,"426":0.05521329727464518,"427":-0.10658600665986097,"428":0.0812093447479186,"429":-0.022081121161653203,"430":0.017392549024737598,"431":0.042579656889382096,"432":-0.009242552366011994,"433":0.030715430206809297,"434":-0.005952217431797282,"435":0.1026178949725477,"436":-0.00416822350659993,"437":0.06442639595666287,"438":0.038468879800330084,"439":-0.06011836851168446,"440":0.005482277170123908,"441":-0.02024085131916454,"442":0.04155546285475904,"443":0.006185920244214729,"444":-0.007179297240914422,"445":-0.007648098328199166,"446":0.031488504398598315,"447":-0.03799017637172781,"448":0.02625182709796143,"449":-0.010077286895473665,"450":-0.0049456095285007745,"451":-0.060597472582981086,"452":-0.03318647857186511,"453":0.09183177058416203,"454":0.05921209634439922,"455":0.10031372572993712,"456":-0.044071037584882185,"457":0.002137293743249766,"458":0.04492164073712005,"459":-0.05913199571889394,"460":-0.003617762880149951,"461":-0.0033358341585950375,"462":0.11278496281900038,"463":-0.022461728976080432,"464":0.043317302555973075,"465":-0.03646647464662901,"466":-0.01131557142070523,"467":0.028269534205048668,"468":-0.014349332117121012,"469":-0.0963171385160045,"470":0.02974478069025063,"471":0.01920613553883625,"472":0.06875789473524917,"473":0.0383467105930385,"474":-0.015356809097545951,"475":-0.012100002299433577,"476":-0.05652235195299706,"477":-0.08574157992943045,"478":-0.0076982152234049885,"479":-0.012871324645488803,"480":-0.05310705467047275,"481":0.017577930180697598,"482":-0.00248433080676422,"483":0.0188774701398234,"484":-0.04064232268547284,"485":-0.018687833045327007,"486":-0.047541519954776824,"487":0.02635495614169383,"488":-0.07098654425768997,"489":0.06534102889647747,"490":0.033963819809417296,"491":0.05002497878045343,"492":-0.059646227025782664,"493":0.01510665947658671,"494":-0.01249918497316412,"495":-0.016154903887939928,"496":-0.012784600920289775,"497":-0.004780620971428354,"498":-0.021509482877313597,"499":-0.02833364380864977,"500":0.05132240269999826,"501":-0.018593256175175824,"502":-0.09327685004397586,"503":-0.05146153202311182,"504":-0.03700767229597746,"505":-0.015215055502440608,"506":0.011163928916311697,"507":-0.0571599281428109,"508":-0.05258060837748201,"509":-0.01637979472263785,"510":0.01687222767739177,"511":-0.037674379404484926,"512":-0.042504922527222544,"513":-0.054496962537026426,"514":0.05472488710305704,"515":-0.04108704351920015,"516":-0.008038413557069064,"517":-0.0208160971997318,"518":0.016618911159474947,"519":-0.022173717183072112,"520":-0.0019190669647455116,"521":0.08019191681684737,"522":-0.004720100323391841,"523":-0.06527789478748537,"524":-0.051657527253123635,"525":-0.017123163894980985,"526":0.015699107692972752,"527":-0.13230694686006989,"528":-0.022578203285403272,"529":-0.019982058104992602,"530":0.026183824904727288,"531":-0.05234722313704585,"532":-0.0023167492765468383,"533":-0.061218610383886644,"534":-0.021789674475727237,"535":-0.02842858388975884,"536":0.09166129533988904,"537":-0.05395350194263241,"538":-0.02246716792135465,"539":-0.07256137208270681,"540":-0.05907357256927061,"541":-0.07098082842706269,"542":-0.03025847159294532,"543":0.0839842376433148,"544":-0.04159712825275804,"545":-0.00600038736332972,"546":-0.009829787079237581,"547":-0.021927615562901515,"548":0.031677565137275196,"549":-0.084415582854387,"550":-0.05340379256323842,"551":0.058032602255510664,"552":-0.08008465516372143,"553":-0.030479466832735915,"554":-0.007080458668310146,"555":0.03974052506514727,"556":-0.010479851761897044,"557":0.026950822021040547,"558":-0.01081325866684724,"559":-0.0869920725739833,"560":0.027469461269314915,"561":-0.052236629461165425,"562":-0.03956337292150535,"563":-0.045755928761071554,"564":-0.020091472587690222,"565":-0.02199864815283203,"566":0.0017369779017081227,"567":-0.03960741516889192,"568":0.008472957525015642,"569":0.023082190584116286,"570":0.016236514510676838,"571":-0.0382738694143631,"572":0.05693525336422953,"573":0.02142453429060456,"574":-0.06069603388312439,"575":0.054332950311289395,"576":-0.021274952424142377,"577":-0.02828124420269118,"578":-0.032076194184922524,"579":-0.07387573764260487,"580":0.002619049369859293,"581":-0.009221499777911191,"582":0.08165337371728461,"583":0.03635532627057482,"584":-0.012232687997234426,"585":-0.008609444792728734,"586":-0.02937185596971908,"587":0.01760934715712517,"588":0.030125842462891222,"589":0.06220526413598403,"590":0.058565456303066046,"591":0.0024465665040150943,"592":-0.011626813914904919,"593":-0.0010560304186310497,"594":-0.02553624365929654,"595":0.024498549212322585,"596":-0.013533968505202103,"597":-0.03876859194709448,"598":-0.0493856198416464,"599":-0.03513174479350686,"600":0.04107910748631267,"601":0.020048137440642995,"602":-0.05745405508222603,"603":-0.07041430324950568,"604":-0.023249759977613232,"605":0.0019050676157086406,"606":-0.010276475306397179,"607":-0.06209277521064603,"608":0.036370127763195335,"609":-0.033295910307455184,"610":-0.07903887641592823,"611":0.015260813584773165,"612":0.07609991390929646,"613":0.0038572222686777107,"614":-0.08256901893628862,"615":-0.01751275095418508,"616":-0.07209612010376686,"617":0.08341563012881173,"618":-0.06227931809637879,"619":0.10956391895746204,"620":0.06884398822083344,"621":0.04946763622627723,"622":0.015798211335320694,"623":0.06620676020188875,"624":-0.0038080963712775347,"625":-0.013870585014382385,"626":-0.01410803135774764,"627":0.02350998294208179,"628":0.04917599331761493,"629":0.01886307700562296}},{"sx":1,"sy":1,"depth":630,"w":{"0":0.05161279687204374,"1":-0.019087069215488178,"2":0.024044626347293162,"3":-0.012105215894489008,"4":-0.08002801454431588,"5":-0.0027899762388247534,"6":0.10198551876966233,"7":-0.0022939811217340326,"8":-0.059292537698064675,"9":-0.005489038635637398,"10":-0.03911180447200645,"11":-0.057581995937041164,"12":-0.04623097212523756,"13":-0.021578612133324123,"14":-0.009506042984812281,"15":0.018993953157126722,"16":0.0058691776770283,"17":-0.049319543975558135,"18":0.008866495337645056,"19":-0.08306533612488723,"20":-0.12079757149055408,"21":0.025951200195069517,"22":-0.023182875317641065,"23":-0.023181870627494754,"24":0.032271692449074844,"25":-0.030501149468119704,"26":-0.05373891933590852,"27":0.05055033337287516,"28":0.04721275785714117,"29":-0.012575801956730323,"30":-0.0029518340348765335,"31":-0.006301878420182735,"32":0.06933214783552356,"33":0.09337928651872913,"34":0.030136992280453252,"35":0.021694022724794863,"36":0.019173821141233883,"37":0.059619465015688045,"38":-0.012321494211182239,"39":0.05244789885865084,"40":0.022472526409682062,"41":0.0630343490662016,"42":0.0290109955077986,"43":-0.021142540163894368,"44":-0.017517731217259448,"45":-0.05463012595293804,"46":0.00414073294532237,"47":-0.025778487302689095,"48":0.03756968007708742,"49":0.04807908969659984,"50":-0.005908632382572911,"51":0.00353489324391554,"52":0.013164086540552972,"53":0.014717232950145572,"54":0.04259005273632113,"55":0.06262479592792257,"56":0.051481944957401465,"57":-0.04119968168113384,"58":0.001347437448536879,"59":0.05515844976931644,"60":0.00035240582459829554,"61":0.048634344371320276,"62":-0.016196614980813092,"63":-0.003976213185760615,"64":0.027125130688465834,"65":0.0029150465908220685,"66":-0.012389597095825728,"67":-0.017707868746000402,"68":0.008764943018704483,"69":-0.01802137170954259,"70":0.02043017221786906,"71":0.02342111202445599,"72":0.07913716038361755,"73":-0.033770195422089394,"74":-0.007274603748928288,"75":-0.001576450221247144,"76":0.006849146458583489,"77":0.01036845493566402,"78":0.014002602497422335,"79":-0.024183223931910827,"80":0.026694186491791387,"81":-0.09242547564566074,"82":-0.056657260041985145,"83":0.04915390794564742,"84":0.031655969048667444,"85":0.05116778916314831,"86":0.0008181080313209211,"87":0.00010473468449073218,"88":0.05133067107615928,"89":-0.022555112285814256,"90":-0.049945779018689095,"91":-0.013977289131504282,"92":0.005084027537119862,"93":-0.02806558719594005,"94":0.016935391910495482,"95":0.0596208631041829,"96":0.049227959458890753,"97":-0.013993472373494619,"98":-0.030117337037231365,"99":-0.09081111711965831,"100":-0.00042631280004534945,"101":-0.0033298867080910105,"102":-0.008537679990234498,"103":0.017310606738346137,"104":-0.006263015334154654,"105":0.02654986367763598,"106":0.019179167969450843,"107":-0.03512824517763552,"108":0.03344549958039096,"109":0.09158625363262189,"110":0.011468724733622291,"111":0.04269391245954951,"112":0.030334772480811956,"113":0.0011629188583323195,"114":-0.003343893470793628,"115":-0.03024641834585496,"116":0.05675067728229551,"117":-0.031645900089581167,"118":-0.006851783536478422,"119":0.04781689563200099,"120":0.01641606361588669,"121":-0.013234787820754603,"122":0.0420652383311646,"123":-0.015279820175475965,"124":-0.05472207346117639,"125":0.028466656980118518,"126":0.031329943855836796,"127":0.031279185797307194,"128":0.029612152016460433,"129":-0.044239122281422454,"130":0.015142399945232704,"131":0.04023182029255377,"132":0.0004926187757321265,"133":-0.058582068281378706,"134":0.029298364850442127,"135":0.036249316026418905,"136":-0.039016487834475526,"137":-0.03837086395723543,"138":0.034518341006907705,"139":0.04516730900742748,"140":-0.017757262304565626,"141":-0.027963837184253496,"142":0.008361117211808532,"143":0.008399880268335219,"144":-0.02167856832998253,"145":-0.05847800132170591,"146":-0.00582382680785246,"147":0.07047981165072845,"148":0.09100301514821958,"149":-0.044011621802020784,"150":0.026636995099507215,"151":0.05504341773344953,"152":0.015531756047896346,"153":0.005789831105270747,"154":0.009989017081870895,"155":-0.01775357452185156,"156":0.06818159020653755,"157":-0.049072836608215875,"158":0.00019908268082959068,"159":-0.052796088157307144,"160":-0.045400113424137446,"161":0.03249261810383753,"162":0.07088443752065894,"163":-0.02978004213484082,"164":0.07923265723791109,"165":-0.012763619324063669,"166":0.03907340717928135,"167":-0.024979553106149393,"168":-0.04503849482436035,"169":-0.035106823957910524,"170":-0.029267471742902697,"171":0.015512010856548568,"172":-0.041746342386236875,"173":0.028012655008470333,"174":0.008289667835264445,"175":0.03574612295957954,"176":-0.048497347031392364,"177":-0.06659123094578634,"178":0.06822667448332535,"179":0.028848078098294223,"180":0.034890063849790716,"181":0.019321908847349707,"182":0.05208375925966034,"183":-0.026467440802536973,"184":-0.0037950821718329476,"185":0.000061732491450479,"186":0.03752788643372496,"187":0.07007104229552376,"188":0.04072247772275133,"189":-0.01412360897807194,"190":0.017491944086216505,"191":0.05177186447611143,"192":0.046698329736763716,"193":0.04454350164793403,"194":0.03623666756886549,"195":-0.0005603359892547557,"196":0.0003405945890955244,"197":0.058534346149377796,"198":-0.007281295463599962,"199":-0.03846809915912608,"200":-0.0036820220489947255,"201":-0.018899271177509988,"202":-0.021267901906005287,"203":-0.07889241480933117,"204":-0.02810917183998577,"205":0.028157899091231474,"206":0.06953173940375261,"207":0.06144917411049861,"208":-0.010092454303194368,"209":-0.022875756429381798,"210":0.0001343398814249172,"211":0.027286040586027533,"212":0.06128541233678853,"213":-0.015810104657171573,"214":0.02934222682604719,"215":0.011242823636386364,"216":0.04609139544754213,"217":0.014622842661188235,"218":-0.032174033907081484,"219":0.0009127234451621327,"220":-0.04775593513638454,"221":-0.0343222310606135,"222":-0.032345087673071454,"223":0.012899194357727729,"224":-0.02702299856746155,"225":-0.09697021267252608,"226":-0.016695798568342978,"227":0.008569040267284195,"228":0.03703345250170015,"229":0.16518018909953447,"230":0.0811223999512742,"231":-0.027714105316973953,"232":0.06657054055825044,"233":-0.007715657393697329,"234":0.011352356118857812,"235":0.0133626676581495,"236":0.06676901710796557,"237":0.0573103685911357,"238":0.15330765178524375,"239":-0.0007142834274308518,"240":0.0717021966601076,"241":0.05234401402510451,"242":-0.010852432185180049,"243":-0.04050029654365675,"244":-0.030067042781746326,"245":-0.021275709438696368,"246":0.05432290523764778,"247":0.0443473843656551,"248":-0.04347561016528579,"249":-0.03780148006150585,"250":0.03620586069080331,"251":-0.004211073555147042,"252":-0.035158969743202206,"253":0.02979537300388392,"254":0.021440366164676334,"255":0.014522564134746148,"256":0.044752410010682836,"257":0.05777758906748788,"258":-0.007104906926967768,"259":0.03356824362338141,"260":0.05984822950164675,"261":-0.059317732326600786,"262":0.00874383910896523,"263":-0.04991237634691279,"264":0.02772316786489777,"265":0.06546435280192908,"266":0.01004303315873964,"267":0.005640675769297692,"268":-0.009887079033965011,"269":-0.01518501531479382,"270":-0.06349479072745116,"271":-0.003673750936204819,"272":-0.013088130691806794,"273":0.038733429348766134,"274":0.11680651712692343,"275":-0.025217509381907654,"276":0.09160772132981553,"277":-0.007435113109168407,"278":-0.008221680488976552,"279":-0.03569684493336026,"280":0.018605663076287225,"281":-0.050330210903012096,"282":0.09653241799115059,"283":0.06283516898251007,"284":0.04331039735519805,"285":-0.011949826615931098,"286":-0.018815492380205027,"287":-0.01675929429676653,"288":-0.05155236296729508,"289":0.08028044735847817,"290":-0.039646671126185626,"291":-0.005710057831245205,"292":0.07434565531982133,"293":0.01745715419683656,"294":0.05694726651597396,"295":-0.010968966314006807,"296":-0.08373825478471704,"297":0.06616121440570533,"298":0.06279069283667275,"299":-0.0990651968112447,"300":-0.022784547455883552,"301":0.04157562619480725,"302":-0.02296591564567785,"303":0.056691780867468365,"304":-0.05497375666511469,"305":-0.04109904281107742,"306":-0.010661643327515362,"307":-0.04208774026762901,"308":0.05112175422192073,"309":-0.009295021238593236,"310":0.034278368946531204,"311":0.012623197548582963,"312":-0.013222859637438591,"313":-0.004518669680254057,"314":-0.04226561056277248,"315":0.041390225890051674,"316":0.02873148227931493,"317":-0.003582391497397789,"318":0.009835692904238033,"319":0.07633734242933009,"320":-0.02203269875673603,"321":0.05273525632824091,"322":-0.01640426662140586,"323":0.006598628272674332,"324":-0.004723255595826613,"325":-0.07130137510848457,"326":-0.0724667707249718,"327":0.021227040679365965,"328":0.13849383017671196,"329":0.010159171239401021,"330":0.0728072999638795,"331":-0.04915419064302832,"332":-0.014167145859948662,"333":-0.0025979862440066014,"334":-0.00019122019945799645,"335":0.008324317223334342,"336":0.04411417298915759,"337":0.14900010436548872,"338":-0.025395911810981827,"339":0.0024183619889098893,"340":-0.06392265039369574,"341":0.02655980478329471,"342":0.07160672235225422,"343":0.03409944664786966,"344":-0.07180527738563487,"345":-0.08876381765199602,"346":0.17967734346603487,"347":0.008950599163587855,"348":0.0031233357379725035,"349":-0.027278903455210658,"350":-0.08127968585619577,"351":-0.01172622097659497,"352":-0.05274112571149975,"353":0.012704001477821887,"354":-0.017217308334824266,"355":0.2086767925556783,"356":0.03796217883300269,"357":0.03445386899804534,"358":0.015522383816665552,"359":0.007511398395205495,"360":0.015812403723236064,"361":0.0031648125356035354,"362":-0.04305465159309391,"363":0.04809914179996557,"364":0.10110717463448982,"365":0.059954227554374746,"366":0.032373687109636944,"367":0.013433485363288169,"368":0.02880660168516058,"369":0.06197164262445683,"370":0.032317579277212224,"371":0.07719395101297495,"372":0.06467372249734075,"373":0.15366165951567154,"374":-0.015217516156472401,"375":-0.02061471046547822,"376":-0.014285014296396841,"377":0.057324560698072895,"378":0.03308196653776657,"379":0.015601882561110822,"380":-0.03630850086885645,"381":-0.07819444844717426,"382":0.014219480017164932,"383":-0.057270993252891936,"384":-0.005999474287534874,"385":0.024033201002276277,"386":0.016601855597759806,"387":-0.07159784576621923,"388":-0.11832249576082803,"389":0.010915594196293005,"390":-0.019798217621642234,"391":-0.005986478858879414,"392":0.048383200316176614,"393":0.010357207180926767,"394":-0.005443806238927648,"395":-0.00940374313355499,"396":-0.02671326171687469,"397":-0.05542109544793717,"398":-0.009619286724175221,"399":0.06827366444015362,"400":-0.0032333959827378334,"401":-0.05918145993946457,"402":-0.061473015925171265,"403":0.030243070976446795,"404":0.01677278400648376,"405":-0.0116571593136424,"406":-0.05081137445745885,"407":-0.06200894128138331,"408":0.06542093722690867,"409":0.047291514597174115,"410":-0.08543064133494518,"411":-0.03574297962216319,"412":-0.06731196044497799,"413":0.13105502538818953,"414":-0.03098121570816835,"415":0.03339966848397499,"416":-0.028254668393199053,"417":-0.013114622494392937,"418":0.12632733912031383,"419":0.018579634706320423,"420":-0.10675317924778023,"421":0.04070721937396281,"422":-0.0202240431104883,"423":0.03726467696827377,"424":-0.024796813024457538,"425":-0.03906033230974703,"426":-0.12961607038280992,"427":0.12710859700990568,"428":-0.14123590020857835,"429":-0.055859675643358156,"430":-0.008009584620690072,"431":-0.024641755483060974,"432":0.09874947605605591,"433":0.0048124956160063665,"434":0.0033441217396998468,"435":-0.13745273642507172,"436":0.009224947757204916,"437":-0.1507174346737086,"438":-0.12482850162781063,"439":0.024413668927650678,"440":-0.035926794121123505,"441":0.03320996768749673,"442":0.05450768534424868,"443":-0.03444254941872223,"444":-0.061765941360349096,"445":0.03996669198776849,"446":-0.13348347014446746,"447":-0.031128217541703872,"448":-0.001957923019491505,"449":0.03384603230340684,"450":0.07276613327786513,"451":-0.005861499912125034,"452":0.004449888142543088,"453":-0.053921334416515025,"454":-0.09799949622037622,"455":-0.09861923610176701,"456":-0.04640053922815912,"457":0.0005613091257430215,"458":0.006943322026269624,"459":-0.07076418926591742,"460":0.004426566139366074,"461":-0.03403993000825106,"462":-0.018711716792051955,"463":-0.18094501252127665,"464":-0.1142493952464636,"465":-0.01284710501090499,"466":0.02800062497620193,"467":-0.009057785092578065,"468":0.008561880247769684,"469":-0.006795222682626467,"470":0.03548337755139098,"471":-0.07486559453060129,"472":-0.17782765177713197,"473":-0.14413191629383443,"474":0.007061874510093545,"475":0.09582275459875322,"476":0.016378320932096974,"477":0.02963754190707444,"478":0.042927721470026665,"479":-0.06640151118653888,"480":-0.08083999454097554,"481":-0.10152586606096478,"482":-0.10431840271987165,"483":0.024645273894945068,"484":0.04618682902410002,"485":0.05436552352624684,"486":-0.024562786583618965,"487":-0.006078363994721858,"488":0.03305951474630683,"489":-0.04634287074604579,"490":-0.10147180282205408,"491":-0.13247440648313957,"492":-0.018054972139717605,"493":-0.037596409611296726,"494":-0.015159512641605954,"495":0.0069851122711518466,"496":0.005374880219645827,"497":-0.05321468997037291,"498":-0.014708901361032166,"499":-0.03554477418380195,"500":-0.05956567682197588,"501":0.04435758869815042,"502":0.012713588799880604,"503":-0.031766094220327105,"504":0.0467877799250907,"505":0.010700243149607859,"506":-0.07091271595751569,"507":0.037444369573983595,"508":0.02900501788636576,"509":-0.0625273880996553,"510":-0.018564249410093984,"511":0.01613616918309348,"512":-0.011208930143724802,"513":-0.008458802219900478,"514":0.09814884246407457,"515":0.03893980683784066,"516":0.028632748971941697,"517":0.026285879351540416,"518":-0.11517431919376102,"519":0.06277254119083481,"520":0.012297608400577392,"521":-0.007131410942727444,"522":-0.011944645999747094,"523":-0.045999031200187654,"524":0.014001618588084758,"525":-0.02641946167226441,"526":-0.0517447535780385,"527":0.0012110440801662474,"528":0.0031817647467988304,"529":0.022080097460602677,"530":-0.011735254171344089,"531":-0.0007043914922570657,"532":-0.06654188426986275,"533":-0.042479513836406656,"534":0.0212028851369752,"535":0.012187284561358466,"536":-0.05153329587603935,"537":0.050941563089602473,"538":0.06210120225174177,"539":0.004832002905782229,"540":0.013529720907284767,"541":-0.03094930691629262,"542":-0.004071419670971722,"543":-0.004986996671597226,"544":-0.0010560303918596076,"545":0.07480606946879668,"546":-0.003125113657601544,"547":0.07409115186997259,"548":0.037996619903775654,"549":-0.03777544206074483,"550":-0.013324524629732682,"551":-0.028049656252918838,"552":0.0679337050946941,"553":-0.045215557538923576,"554":-0.08335114993860818,"555":0.047118085139975625,"556":0.023550381355371356,"557":0.06784231594271475,"558":0.04431905237873678,"559":0.013205603514325339,"560":-0.04159237074765309,"561":0.008288982336191806,"562":0.015411999811534863,"563":0.08553339807626453,"564":-0.055655884897155186,"565":0.05734966455237145,"566":-0.026085731585695344,"567":0.0720742228661834,"568":0.02791571038958945,"569":-0.014283093587123563,"570":-0.03840289142757747,"571":-0.01704875307134485,"572":0.06499896960036945,"573":0.05561672628287065,"574":0.03649105198831079,"575":0.06160908952353909,"576":0.047591056661487406,"577":0.04742642307018785,"578":0.036998334745954466,"579":0.005382155726500668,"580":0.029825096059109792,"581":0.025463072893831366,"582":-0.062294858119488115,"583":-0.049615182133949796,"584":0.010065201840226265,"585":0.05409619683331192,"586":0.04092791501453491,"587":0.008548150885615918,"588":0.05534117905936579,"589":-0.000726825037395966,"590":0.073510995617394,"591":-0.03521969121245539,"592":0.047537855673028144,"593":0.0009701893555062915,"594":0.027055946952772348,"595":0.06301398299878097,"596":0.038216620050731565,"597":0.10796310341867693,"598":-0.04625500180113026,"599":0.06124256180899823,"600":-0.005130197778933024,"601":-0.03207593591730669,"602":0.022018479264218155,"603":0.013240127602819425,"604":0.05225980181932086,"605":-0.03728509768660536,"606":0.05227125563999968,"607":-0.01373692563043724,"608":0.014287755998806728,"609":-0.026727990264831195,"610":0.009232428326242647,"611":-0.02038099535616989,"612":-0.03127993910318974,"613":0.00803895756542996,"614":-0.02291155314423963,"615":-0.018011561643708752,"616":0.08469524764308412,"617":0.04111499744050169,"618":-0.016685454228297068,"619":0.03176546113180435,"620":0.04921882268599962,"621":0.009744766636994667,"622":0.0684109092972602,"623":0.02535644869769203,"624":-0.06419419943521883,"625":-0.024572847988338104,"626":0.008101752767131591,"627":0.01084480328688604,"628":-0.018866345037323935,"629":0.01914205411517244}},{"sx":1,"sy":1,"depth":630,"w":{"0":0.005718131587413527,"1":-0.02319233003401416,"2":-0.0074375763280726545,"3":-0.034919266161273464,"4":-0.018927503487222698,"5":0.041656277014978316,"6":0.02720334142116426,"7":-0.02205470268367135,"8":0.02162488391951449,"9":0.028694606211637216,"10":0.03972300542538548,"11":0.008443399941766624,"12":0.010784486317734739,"13":-0.04777547524039913,"14":0.05322328642104159,"15":-0.01976141900292803,"16":-0.0129124567576066,"17":0.055431772514268486,"18":0.0598927939177751,"19":-0.002707088737123362,"20":-0.01620499508010335,"21":-0.005604319365537726,"22":-0.03012959867186552,"23":-0.055386904847175795,"24":-0.07211758785319466,"25":0.03208767190261659,"26":0.029999297223998942,"27":0.028516624683200837,"28":-0.03514030214841605,"29":0.004988060371209309,"30":0.04076642119760772,"31":0.020693358620229533,"32":-0.05047893874328849,"33":-0.007383463893885654,"34":-0.006338039980298968,"35":0.020582240219486986,"36":-0.007454758705289657,"37":0.008883384195465987,"38":0.052008581299974294,"39":0.04146522854504603,"40":0.019398047780159255,"41":0.07895602675831183,"42":-0.014902623038833142,"43":-0.05283841428164142,"44":0.03452705774403553,"45":0.01438454371704551,"46":-0.051011029899857875,"47":-0.022217364315203898,"48":0.00460788767324427,"49":-0.020483656261329315,"50":-0.006844923944045513,"51":0.010352459928141702,"52":0.0167547310359998,"53":0.07134582247343148,"54":-0.008466275143241837,"55":0.00615634410900624,"56":0.0030049293913694446,"57":-0.023196934486474034,"58":0.015197209532008418,"59":0.048485405275978444,"60":-0.005786340153362608,"61":-0.07988127845617071,"62":0.014994826922114204,"63":-0.028553817657728086,"64":-0.0012793016938449997,"65":-0.03303341226976343,"66":0.0001396529919894227,"67":0.038119686248743664,"68":-0.005886416605627002,"69":0.045856287745867454,"70":-0.015594549292483792,"71":0.022063396357431816,"72":-0.0725624817369927,"73":0.018954516402449446,"74":-0.030418146494050613,"75":0.0009853590620309937,"76":0.038950632368988755,"77":0.05434425136450086,"78":-0.07007962556780896,"79":-0.04431993359874951,"80":0.006929485726782322,"81":-0.0760149274968984,"82":0.05404007881756342,"83":0.0362916309384444,"84":0.010045969230842314,"85":-0.003267163789727639,"86":-0.001183437161711628,"87":0.015742011354168386,"88":-0.03064375418769044,"89":-0.09991209140889414,"90":0.013990118580033175,"91":-0.06428933958036445,"92":0.036635471396300356,"93":-0.08020024363949806,"94":0.05468124696960637,"95":-0.06800291977630053,"96":0.022293883647429822,"97":0.02388836120437535,"98":-0.07762723736680563,"99":0.05409651267246338,"100":0.0685391749128058,"101":-0.044422175868284425,"102":-0.01628840729777341,"103":0.0017894076988782149,"104":0.007124176244150951,"105":-0.01330983270522142,"106":0.049150300619368655,"107":-0.001691233181688406,"108":0.03921305685964346,"109":-0.017397365707831593,"110":0.04859121368899048,"111":0.012570668041974669,"112":0.015209025254360586,"113":0.04576897715133994,"114":-0.016079999123672112,"115":0.035366817104063204,"116":0.04181306563204848,"117":-0.021182570993011882,"118":-0.00792891611023727,"119":0.05972312574227444,"120":-0.05023270635585643,"121":-0.08154326866337723,"122":-0.007840015687445008,"123":0.041221976611754585,"124":-0.03523609927050555,"125":-0.009035318074289204,"126":0.059312977403449894,"127":0.03610333855624032,"128":-0.08881875247979429,"129":0.014209458950215569,"130":0.06434865033178037,"131":-0.06597750202417559,"132":0.044528927213823497,"133":0.07155578555916331,"134":0.030218011734383002,"135":-0.03321730830492298,"136":0.03376103250444948,"137":0.037395474978740476,"138":-0.012204665816290745,"139":0.004090438571975065,"140":0.07654953130765058,"141":-0.05496929189873099,"142":-0.08217883903482046,"143":0.01223446644970352,"144":0.038508304298376414,"145":-0.08296418839597437,"146":0.00014418592091044444,"147":0.0340430014946675,"148":0.03316099483583102,"149":0.03418920412942248,"150":-0.0027798199086515344,"151":0.02543242493523284,"152":0.008709671236246419,"153":0.0454458427787184,"154":-0.02634670061306572,"155":-0.02634948347443449,"156":-0.050086465888621326,"157":0.09613578315513387,"158":-0.0029725913163593616,"159":0.010877134102395618,"160":0.03974560718528522,"161":-0.010207771703027568,"162":-0.05251285370138439,"163":0.02504322212985715,"164":0.04495881394773335,"165":-0.03998277317051302,"166":0.0018390976872866827,"167":0.0028756972777117507,"168":-0.0393539256768856,"169":-0.026556158931550826,"170":0.0015154642305306892,"171":-0.01804815677352444,"172":0.008176250109272686,"173":0.06447038829447467,"174":-0.007828350167007147,"175":-0.00484809605355776,"176":0.01935248846324362,"177":0.0011482405076989005,"178":0.031305165780443525,"179":-0.026115093972966703,"180":0.018035581217664357,"181":-0.04586277810467294,"182":0.02637398464495315,"183":0.00050021568562946,"184":0.03532666968928833,"185":0.03581805062652521,"186":-0.041879408612078034,"187":-0.02134107811498472,"188":0.02431205943554877,"189":0.023279880355221216,"190":-0.018062119289722397,"191":0.02942436699720776,"192":0.0496105222252142,"193":0.10443237444360681,"194":0.008728282025588117,"195":0.020658245611460246,"196":-0.022471869423365865,"197":-0.008598863596063565,"198":0.011723972642526627,"199":0.03666302751260674,"200":-0.013929054471543384,"201":-0.02711155318796497,"202":0.0031511906189371913,"203":-0.041216579022274484,"204":0.00976888902733355,"205":-0.004425634082855783,"206":-0.0717283485070617,"207":-0.026614079002120532,"208":0.10416055324808177,"209":0.07454404330680546,"210":-0.017800285566272722,"211":0.016284003145835536,"212":-0.0018722511467316502,"213":-0.0525214921233195,"214":-0.02033140946823217,"215":0.001498502097348349,"216":0.03647423090185308,"217":-0.006921000488997095,"218":-0.0028887608749663322,"219":0.10868085858802794,"220":0.044655539412120554,"221":-0.04424743769332317,"222":-0.046012640581241014,"223":0.047084803948554015,"224":-0.017794853125889937,"225":-0.06234205022230642,"226":0.007355582692167341,"227":0.05887812026315428,"228":0.00019230172482894114,"229":0.018303323621815533,"230":0.042183282553159965,"231":0.002565144816407237,"232":-0.016507648271232304,"233":-0.018994528591957337,"234":0.03455885200323434,"235":-0.02553489488449495,"236":-0.02439542325157487,"237":0.0616036007537601,"238":0.058461239180844574,"239":-0.032965973537119185,"240":0.06312570578511946,"241":0.04332591525977643,"242":0.06789677573373878,"243":-0.018475747000295684,"244":0.0268775697270398,"245":0.04644941628147287,"246":-0.047735798515718894,"247":0.02216440915816702,"248":-0.04210565029571454,"249":-0.07891377018605854,"250":0.05028522067687447,"251":-0.031118172766100436,"252":-0.018345040524132807,"253":-0.022034497425427894,"254":0.003671069669232635,"255":0.0672232046295604,"256":0.10263004451970459,"257":-0.00008820451310168081,"258":-0.01645212032060105,"259":-0.02964456002018362,"260":0.01617187344883896,"261":-0.059284880228211045,"262":-0.04009413524974386,"263":0.022114915038094388,"264":0.039376448437765284,"265":0.04004655284143973,"266":0.04951915879545462,"267":0.051187777854877645,"268":0.02592369268967307,"269":-0.022921140159372078,"270":0.035628479500592815,"271":0.06262440856904608,"272":-0.0004920226920816822,"273":0.08899846420411986,"274":0.030576529458316928,"275":0.026158494986903515,"276":0.02913424782386197,"277":-0.012876099412056731,"278":-0.013400807086771169,"279":-0.08014956852378956,"280":0.03354080585494545,"281":0.016962287441631984,"282":0.07174043134871494,"283":0.09080546476001995,"284":0.02346652480670965,"285":0.02751125858574243,"286":-0.009839597891163607,"287":-0.012140628866057455,"288":0.10650626284958035,"289":0.010171445122603862,"290":0.03609744481111253,"291":0.04952384637585301,"292":0.055116282092166076,"293":-0.003407711461914308,"294":0.05918394221084313,"295":0.02594316449213506,"296":0.009161198938720345,"297":-0.02426322854119535,"298":-0.07497678393814503,"299":-0.037252013137520745,"300":-0.06624927794846487,"301":0.06825204555751527,"302":0.007207400228053832,"303":0.04197204909529677,"304":-0.01188714755647591,"305":0.042117364913514935,"306":0.02820795502810267,"307":0.031295131410793306,"308":0.004400259098339972,"309":0.035273897574393205,"310":0.030846229550501755,"311":0.005012735172679006,"312":-0.002843763796275103,"313":-0.0412843543338376,"314":0.03927239125238938,"315":-0.0698863408142506,"316":-0.013652103227822631,"317":-0.012614233028556904,"318":-0.08456705904625081,"319":0.08767794613687852,"320":0.023584630536725684,"321":0.03277370386118446,"322":0.0166723547664009,"323":-0.001655372710079096,"324":-0.02866894555448149,"325":0.013713815013148438,"326":0.016557340040662522,"327":0.027878989020482255,"328":0.12184618393147711,"329":0.05952149282258739,"330":0.04330599451344273,"331":-0.003069664534005292,"332":0.04124848625432374,"333":0.004655896694386657,"334":0.08291586374001222,"335":-0.012071482191793844,"336":0.03584276634945789,"337":0.08748860280380537,"338":-0.04273095019547385,"339":-0.01534637517041532,"340":-0.026369204603313316,"341":0.005300257551422605,"342":-0.023330603942397218,"343":-0.028350375841822404,"344":0.025206626780107006,"345":-0.005579674910423095,"346":0.15611742120135985,"347":-0.042414222137213006,"348":0.02312232332956803,"349":-0.0003410527985350137,"350":-0.07016307472942504,"351":-0.023129058619280895,"352":-0.04837588647341363,"353":0.011411780605262916,"354":0.08021889408328158,"355":0.1224096008743813,"356":0.04284370985279754,"357":0.05366648851905547,"358":-0.013208872254252072,"359":0.021886774470077926,"360":-0.0021691854867580927,"361":0.02786021128342372,"362":-0.01126074281710726,"363":0.04131135143506896,"364":0.10532685973596971,"365":0.11001508925988457,"366":-0.001832027398162077,"367":0.0852416076713552,"368":-0.0035205791128154187,"369":0.05036724866783498,"370":0.018789871647769203,"371":0.001385655740495756,"372":-0.04552874758680897,"373":0.07830515314765188,"374":0.02877108923327709,"375":-0.04131867601968037,"376":0.018865427006830377,"377":0.06743594931490597,"378":-0.010905884618847832,"379":-0.0005596497041481148,"380":0.00890239089968649,"381":-0.0438776473517293,"382":0.18332308373977724,"383":-0.02802230418484426,"384":0.06904637635487608,"385":0.016985294514602938,"386":0.02275819938879928,"387":-0.033335201682845046,"388":-0.036846988565780156,"389":-0.04635280779160559,"390":0.06357702002541256,"391":-0.022562819418731707,"392":0.09519397571433816,"393":0.002121690679373371,"394":0.011209725785561859,"395":0.029971596988765444,"396":0.009264247929303991,"397":-0.040840081012924925,"398":-0.0478354372347994,"399":-0.010529692165288426,"400":-0.02884769921669778,"401":0.058149109791266154,"402":0.10215483501419838,"403":-0.01831372219879766,"404":0.08142956860230667,"405":-0.02706573358649278,"406":0.014200221738366724,"407":0.0035854766914000724,"408":0.045497839665716897,"409":0.01406554978836663,"410":-0.08111796750425258,"411":0.042379450144000824,"412":-0.04317945342276112,"413":0.013128203762076143,"414":0.039414824057645764,"415":-0.041423895448016564,"416":-0.002539763043209944,"417":0.028816409117919082,"418":-0.07833907234655876,"419":-0.0075690087916494755,"420":-0.002470763953963543,"421":0.008371659440551304,"422":-0.011287539279967933,"423":-0.029013860263736292,"424":0.05438375034065318,"425":-0.036856042713703116,"426":-0.016279230829792584,"427":0.1219783291090203,"428":-0.13765078163879513,"429":-0.0377980084791469,"430":-0.028256122649729844,"431":0.021875025356264576,"432":0.024819938462909797,"433":0.026760437476970732,"434":0.021777556318240444,"435":-0.12731395465933013,"436":0.05456705250872543,"437":-0.08948789083059887,"438":0.06594062944086954,"439":-0.010726938501664016,"440":0.03148595488002912,"441":-0.013202543694543616,"442":0.007904998836207844,"443":-0.039432798674455156,"444":-0.12674597458318143,"445":0.031044987056065308,"446":-0.011787354252256995,"447":-0.028260247804019943,"448":-0.060508845730927505,"449":-0.015689965190829654,"450":-0.011005006856131067,"451":0.0021254256609288566,"452":-0.02398561724176715,"453":-0.08275495267892947,"454":-0.15892445504341682,"455":-0.1646689198152011,"456":0.009613205224994419,"457":-0.022415286815309268,"458":0.015002243993499784,"459":-0.025561270565579254,"460":-0.04955226644287199,"461":0.05087747712848981,"462":-0.03394019775470956,"463":-0.10357659238968013,"464":-0.17157136326356623,"465":0.04269513832473174,"466":-0.0010382684183667856,"467":-0.061330837597679135,"468":0.005360552489522289,"469":-0.05457082043002575,"470":-0.08062865256756797,"471":-0.0750314980410788,"472":-0.13515627570058164,"473":-0.08107919378792343,"474":0.006320206024609136,"475":-0.0709110974041938,"476":-0.04139022892067617,"477":-0.042909199901052394,"478":-0.07490020827983897,"479":-0.045255452309159075,"480":-0.08557216022188369,"481":-0.06298768861339543,"482":-0.027351152694139805,"483":-0.022782883827686437,"484":0.030876335494924686,"485":0.004002224444123542,"486":0.006172209443321704,"487":-0.029096951148778773,"488":-0.024947126550110246,"489":-0.08789790639880678,"490":0.013952930694140797,"491":-0.09266947452921315,"492":-0.03981866244916078,"493":0.040597207998543564,"494":-0.025022520845758383,"495":0.05818359882697048,"496":0.021648407180453605,"497":0.056108269237895726,"498":-0.08147541188710532,"499":-0.002760969085839074,"500":-0.0867148910819333,"501":-0.0028796441193576577,"502":-0.02614670753642437,"503":0.006002385454419101,"504":0.03801538961742222,"505":-0.01642443992133682,"506":-0.05295010823455554,"507":-0.0176935337351066,"508":-0.012818448314785647,"509":0.009294954752681968,"510":-0.008530334475186778,"511":0.025124314178053005,"512":-0.00032514513820621594,"513":-0.06952804533559596,"514":-0.024604341472621163,"515":-0.04616078474557497,"516":-0.02247337258738438,"517":0.036869765696913366,"518":-0.11803886344337186,"519":0.07771277145805597,"520":-0.03075351422321376,"521":-0.12236384574628198,"522":0.005575197829114815,"523":0.020255698018685465,"524":0.014297875030745328,"525":-0.033014970861660504,"526":-0.008001544876233906,"527":-0.0010819824515133055,"528":-0.027647051427387475,"529":0.016703143975611425,"530":-0.0021131092580579263,"531":-0.07675837564608527,"532":-0.043096201190934755,"533":0.03142304668123049,"534":0.03487262431041063,"535":-0.05197961148960224,"536":-0.02079921487347021,"537":0.0004642985240759717,"538":0.017804301489585554,"539":-0.014155729585056542,"540":0.046999003932322966,"541":0.07008307356731576,"542":0.023737217857667622,"543":-0.006257022903690219,"544":0.004381700789532092,"545":-0.03915624238233045,"546":0.007868537817655818,"547":-0.029335001117761914,"548":-0.008123233916052124,"549":0.022800134342694903,"550":0.04981806850735824,"551":0.004576686906879491,"552":-0.022047193605133047,"553":-0.0412877000050167,"554":-0.06474817202893363,"555":0.0014766646915086836,"556":-0.035051991540733206,"557":0.00795340853222059,"558":-0.008055827495140938,"559":-0.05180359285212599,"560":0.041982292645791355,"561":-0.008058632838016253,"562":0.0632512624791014,"563":-0.06435794676052485,"564":-0.04958346857130911,"565":0.020487579067124933,"566":-0.03601241574888209,"567":0.015379481734492816,"568":0.005317269545491185,"569":0.004000280527350576,"570":0.009255367660698337,"571":-0.03280373519853589,"572":0.05862297134632662,"573":0.003784476312434938,"574":-0.07757083866353517,"575":-0.012972364520898208,"576":0.043502514860364994,"577":0.006884372287983613,"578":-0.04705958138744048,"579":0.03624514275306123,"580":0.0042947293874280226,"581":-0.023234375408350896,"582":-0.006084606290166763,"583":-0.03863543270113825,"584":0.007726491720264783,"585":-0.011148650686513906,"586":0.06239215926917315,"587":0.04922280426352643,"588":-0.026034155100370073,"589":-0.13508342872154686,"590":0.03796186235979369,"591":0.06257452729360359,"592":0.011870591639182469,"593":0.06714425067710358,"594":0.03975608678715134,"595":-0.05009357291546887,"596":0.040674760295715914,"597":0.002171025675231851,"598":0.0299914280170977,"599":0.05795194341565555,"600":-0.021251091102705507,"601":0.039496673651343635,"602":-0.05372377175455767,"603":0.027449073617284513,"604":-0.016700460323067517,"605":-0.011439922576285932,"606":0.01447175709191968,"607":0.023217681724467386,"608":0.04944447154346184,"609":0.016382805779719945,"610":-0.014525550851219123,"611":0.015422191613037607,"612":-0.02827560340301657,"613":0.029921065689074898,"614":0.03590773561129725,"615":0.03244103479994252,"616":-0.012519636599599092,"617":-0.04069749340021185,"618":0.011865602496357552,"619":-0.024555336655839186,"620":-0.005141931762219962,"621":-0.021359447357840535,"622":-0.019457122840505034,"623":0.040161393257195345,"624":-0.01576869547973069,"625":0.00924601342882717,"626":0.013941471778690867,"627":0.041020300110723135,"628":0.052274859464031716,"629":-0.05305204992045195}},{"sx":1,"sy":1,"depth":630,"w":{"0":0.04227671669442261,"1":-0.013146843393117969,"2":0.046014978297833894,"3":0.030793619106661698,"4":-0.011930557461662977,"5":-0.015692066162717885,"6":0.08268565912559894,"7":-0.036646182421622354,"8":-0.010911870250887645,"9":-0.05994915714320835,"10":0.07061963190210933,"11":-0.007527300059177155,"12":0.040957312968930355,"13":0.09539175168431871,"14":-0.007196702272042346,"15":-0.006157197933134105,"16":0.04367718933847411,"17":0.06341964425322354,"18":-0.041993959328350136,"19":0.02755658974800538,"20":-0.004923498532154264,"21":0.05141809001877049,"22":0.031809761845730554,"23":-0.01179770758732528,"24":0.0814975008268261,"25":0.02749176631875197,"26":0.01083698596746452,"27":0.0858404257401253,"28":0.05112034486651625,"29":-0.006040007359261757,"30":0.0555791896229831,"31":-0.017849946333725476,"32":-0.04299975122205701,"33":-0.052604136016809744,"34":0.06804627847264169,"35":0.022547408110260014,"36":-0.00007929126369617055,"37":-0.00967648475744049,"38":0.012750880441338142,"39":0.024173793769079317,"40":0.04109376989043954,"41":0.0410519555017315,"42":0.04262125379680572,"43":-0.02354797935491104,"44":0.025469799341262044,"45":0.005794561833331543,"46":-0.02444688809048889,"47":0.06716747674842438,"48":-0.0030915685748327,"49":-0.006887622664728006,"50":0.07744186932544966,"51":-0.016655734842069288,"52":-0.04398073169611441,"53":0.0672733844736758,"54":-0.006586631523737488,"55":0.004812051902510479,"56":-0.003999611309564262,"57":-0.011081305846414284,"58":-0.01136196348068832,"59":-0.03761782638226892,"60":-0.07521877805925463,"61":-0.03324530056713819,"62":-0.06421142912221088,"63":0.040730159053778144,"64":0.03007812751174264,"65":-0.07171177760399533,"66":-0.010710027297788801,"67":-0.0004932608304339719,"68":0.06956350656890513,"69":-0.09354952517134621,"70":-0.03935173800980612,"71":-0.07487857900103179,"72":0.05956848104819457,"73":-0.05374306594114449,"74":0.0026197753667617438,"75":-0.07797574384963091,"76":-0.0015107520449413746,"77":-0.04178585379508205,"78":0.023993120139489003,"79":-0.0052108938912465595,"80":0.018858764520211003,"81":-0.0287316753055818,"82":0.007003550542618334,"83":0.028548440284101445,"84":0.014075334221178019,"85":0.01729259294498235,"86":0.0356676409461203,"87":-0.06676952184222187,"88":0.04322162330750481,"89":-0.030037237029943605,"90":0.015943981831551886,"91":0.03495712446072219,"92":-0.05624878849294796,"93":-0.01637513466333278,"94":-0.05334956366993997,"95":-0.01761559877906186,"96":-0.059342111052395584,"97":0.06409870536301034,"98":0.027720651961529622,"99":0.02604419805201576,"100":0.02069852381975829,"101":0.039118816952963126,"102":-0.005390841807349063,"103":0.04806497833453194,"104":-0.06023968880255527,"105":0.0008231473477352193,"106":-0.04614716281366553,"107":-0.10035517671357563,"108":-0.039790867548957026,"109":0.040315774308220635,"110":0.0040089356384172496,"111":0.0234732321824787,"112":-0.02679581946579204,"113":0.029418892117814302,"114":-0.02551679213316101,"115":-0.010227750517902362,"116":0.05426007359407044,"117":-0.0005450778934750676,"118":-0.05100721820017127,"119":-0.054644607632517064,"120":-0.02754321369238361,"121":0.015121635622860126,"122":0.030834302842992982,"123":0.029125190194180032,"124":-0.003615261115053268,"125":-0.019231762157992764,"126":-0.02505965032959667,"127":0.031153856524789258,"128":0.0032854606581754673,"129":-0.04700114063517026,"130":0.02907695062128536,"131":0.03040023533097277,"132":-0.008133369597743034,"133":-0.03769068152066848,"134":-0.020744608094324518,"135":0.04795525085630792,"136":-0.061547866836732155,"137":0.020107511038775637,"138":-0.046929486579735086,"139":0.005634044867394303,"140":0.027319340268085024,"141":-0.057688568935442316,"142":0.04466376088316016,"143":-0.025328894361165446,"144":-0.04652123579429965,"145":-0.0033975922709448434,"146":0.02448335993675322,"147":-0.015227055774977799,"148":0.009979392463992626,"149":0.009980667511922805,"150":0.03352342612683861,"151":0.03250252702814016,"152":-0.03166934400641534,"153":-0.052434606283937965,"154":0.005715677557909692,"155":-0.015479109077763594,"156":0.0684135653793471,"157":0.056092012849494985,"158":0.024642177773689884,"159":-0.07795038905418299,"160":0.029557124424050056,"161":0.04909288361544934,"162":0.014334979322584535,"163":0.01445813625970982,"164":0.0020050110786705004,"165":0.00024550332592751,"166":-0.014786724088579624,"167":-0.038536813525274445,"168":0.010323315727373454,"169":0.04511191678462216,"170":-0.025802944461695843,"171":-0.0354881281199495,"172":0.007435817981717938,"173":-0.003176067839504486,"174":-0.0017841339539667127,"175":0.06650931637640457,"176":-0.0012267842026473768,"177":-0.08159331226110797,"178":-0.01966842478798986,"179":0.08753397874158952,"180":-0.01470629370625657,"181":0.018672077513610007,"182":0.05366253196476458,"183":0.006334858931124313,"184":-0.018714728068761833,"185":0.018829090087660424,"186":-0.04202489085249312,"187":0.08064834124924145,"188":0.015885972931670815,"189":0.04411332031711619,"190":0.016335125038641044,"191":-0.025409951876923083,"192":-0.029712604090339195,"193":0.023221106907630115,"194":0.02367983326973084,"195":0.019379434534328527,"196":-0.04499946160627529,"197":0.01802264549208387,"198":0.07092591139472759,"199":0.021322900027763988,"200":0.012615842603128315,"201":-0.024740298522712374,"202":0.028256977019060527,"203":-0.043218110170635586,"204":0.048991216178816605,"205":0.017619540814544452,"206":-0.05302560544191595,"207":-0.0012762160040970987,"208":-0.010969699712860876,"209":-0.01318506454152194,"210":-0.02016379825660268,"211":-0.019243704119891198,"212":0.005825470193610547,"213":-0.017897537926892314,"214":-0.015409743255548844,"215":-0.008496809219879109,"216":-0.0013665568937617967,"217":-0.006920611821331604,"218":-0.02020391691644136,"219":-0.06211250788489774,"220":-0.05036226634726617,"221":-0.010392343358522333,"222":-0.07928261459288181,"223":0.02182973949448707,"224":-0.06057284075955257,"225":0.07086466182056764,"226":-0.003841519904127723,"227":0.023267527022320877,"228":0.011828880233153819,"229":-0.03616531458692289,"230":-0.05895197735454629,"231":-0.024840280644874552,"232":-0.015465770633643272,"233":-0.0006122870990328796,"234":0.07345842136111963,"235":-0.03291238582336752,"236":0.0573912639297746,"237":-0.015030968394087827,"238":-0.09216330246329868,"239":-0.014579643633495606,"240":0.026537631654436424,"241":-0.0677957077027198,"242":0.0023522583861389995,"243":-0.08788948169030242,"244":-0.05767070874776491,"245":-0.006670345080927179,"246":0.02667764007112692,"247":-0.08840996979122434,"248":-0.02147123715153122,"249":0.05048607851475087,"250":-0.021443910770899174,"251":0.06430251320393228,"252":0.003847796295322502,"253":0.02763168647591048,"254":-0.042155119964422935,"255":-0.06238183466176663,"256":0.050801157148306825,"257":-0.0393095707328793,"258":-0.019606627941001906,"259":-0.012753088925532053,"260":0.05327376673973825,"261":0.061120663038065993,"262":-0.027221036322929444,"263":0.004095917312673418,"264":-0.05962652771568118,"265":0.013452502223737398,"266":-0.07061013048681382,"267":-0.029481577485035864,"268":0.03602267594095228,"269":0.055770957941068074,"270":-0.004559881633775082,"271":-0.002329161269845479,"272":0.022969170843094557,"273":-0.03044325811031895,"274":-0.010323211037976484,"275":-0.08249152842015037,"276":-0.04553770354711691,"277":-0.03162726301400014,"278":-0.027530647754143895,"279":0.022348553909766627,"280":0.019180376189401063,"281":-0.04734004753888722,"282":0.012858276152120622,"283":0.05217127072133698,"284":0.02030844756432675,"285":-0.01212088462025286,"286":-0.08776246518794133,"287":0.009407827962560237,"288":0.017285882625820148,"289":-0.039290002432474956,"290":-0.0030313715158825343,"291":-0.01177563067858775,"292":-0.04101868058022796,"293":-0.011291179619183165,"294":0.0009012590377384652,"295":-0.0932150855093802,"296":0.041973654457169995,"297":-0.07996887709385932,"298":0.12097181798300587,"299":-0.0391711264167188,"300":0.028334245338804628,"301":-0.08701387069650085,"302":-0.028597302423003776,"303":0.004287054022041546,"304":-0.0035309325751875908,"305":-0.02970688672698559,"306":0.011949108846163108,"307":-0.02851994459567801,"308":0.0016225505811562672,"309":0.020672996076816264,"310":-0.007169982359307942,"311":-0.003390105989100979,"312":-0.06470348419693504,"313":-0.06117166264909272,"314":-0.0036705093275405842,"315":-0.005547919581883217,"316":0.021473931566847248,"317":0.05878055227187627,"318":0.06691849167380103,"319":0.023358428288378478,"320":-0.0038437642866037272,"321":-0.004184498538161565,"322":-0.0036001038054357883,"323":0.01982918322402391,"324":0.011348339548568342,"325":-0.050066290298439,"326":0.015788196525111115,"327":-0.004862547768267399,"328":-0.0393959746243597,"329":-0.018964520151611902,"330":-0.0755642283508354,"331":0.04911523717407075,"332":0.012900841348914083,"333":0.003556516802414806,"334":-0.02108928338503079,"335":0.012312014123932973,"336":-0.03917013269781722,"337":0.009840414755127992,"338":-0.09601773020560377,"339":0.05911547155160553,"340":0.12536739790148052,"341":-0.00581443471415329,"342":0.058500612491597485,"343":0.0009353490768940293,"344":-0.012080019111271977,"345":0.014436191854023374,"346":0.058593322227605174,"347":0.029785592894809705,"348":0.015023096995575577,"349":-0.007592915499508814,"350":-0.008184608661166942,"351":0.06910671876326148,"352":-0.012259725404021045,"353":-0.004576365331412881,"354":-0.03582909925576916,"355":-0.0369933176244041,"356":0.040265342934498134,"357":-0.0062308083415483,"358":0.02896575356212554,"359":0.011491296627675878,"360":0.024772690277954385,"361":0.0786735307177739,"362":-0.04051366716292652,"363":0.01780813870858251,"364":0.01440748385885734,"365":0.07392776543158837,"366":-0.015556537863732883,"367":0.07519205169171188,"368":0.034406124334849034,"369":-0.01455667513690259,"370":-0.02714377761018617,"371":-0.09061930209847285,"372":0.041389603549752414,"373":0.10182880564356435,"374":-0.07649055169970888,"375":-0.06122693262725738,"376":0.06410192948936186,"377":0.022069403885463856,"378":-0.06526148405664486,"379":-0.03687929690479993,"380":0.0397409763532224,"381":-0.03150376819237376,"382":0.08668631178259842,"383":-0.0034111316697141326,"384":0.05445691079092504,"385":0.01744991939282383,"386":0.015611201424388021,"387":0.050828196691563146,"388":0.0470355863504371,"389":-0.07738225498194168,"390":-0.03052290286981627,"391":-0.030155059373016185,"392":-0.06678540280224796,"393":0.0067980929103225365,"394":0.00023372167648663474,"395":0.037350320589923755,"396":0.07341819421789353,"397":0.0715077781777872,"398":0.0038290474175740443,"399":0.04199292269140378,"400":0.06247159273651202,"401":0.00003241593392202621,"402":-0.04810292595675032,"403":0.06184838927215714,"404":-0.006936205701169896,"405":0.060012779543918864,"406":-0.05074128312417426,"407":-0.030655903282657125,"408":0.011759410036990749,"409":-0.0593223030468475,"410":-0.05989796941350528,"411":0.02253957094827385,"412":-0.028325399379278058,"413":-0.03489728464223822,"414":-0.02028617981756168,"415":0.04173918280867373,"416":-0.07060626423906671,"417":-0.06871387459166506,"418":-0.05440034818453637,"419":0.05467714729904578,"420":0.050082681824986416,"421":0.05856064652020565,"422":0.0270431830182712,"423":0.0044604659600803315,"424":-0.1231143291334226,"425":-0.036058713524660474,"426":-0.03698155548876705,"427":0.0703508985932441,"428":-0.03328838885107642,"429":0.011946126698915939,"430":0.00416874440266391,"431":-0.03028826028957918,"432":0.010333834913454954,"433":-0.006921293849272972,"434":0.017223748000754442,"435":0.004373493550782504,"436":0.08681720656106029,"437":-0.0720477833145648,"438":-0.02945990390156958,"439":-0.014247555873136614,"440":0.10145162528105849,"441":-0.02116157303106829,"442":-0.043071401964861575,"443":-0.09446531801393356,"444":0.03162837557351086,"445":-0.08231978590269855,"446":-0.017434809595705834,"447":0.02678652647104455,"448":0.003281017684522737,"449":0.005986315474758142,"450":0.04588888335995782,"451":0.006078641003984703,"452":0.043919811819658296,"453":-0.06007172488523806,"454":0.003226527067569884,"455":0.054092165039828735,"456":0.01387902757707418,"457":-0.040070697639817854,"458":-0.023259086269868653,"459":0.005905009376985876,"460":-0.004105798201335884,"461":-0.040824372063067285,"462":0.03800363805498454,"463":0.02290680032134513,"464":-0.0647909199195848,"465":-0.04207878572528089,"466":-0.08026745843404316,"467":-0.004354368767806757,"468":0.016346977443266516,"469":-0.046952806753384514,"470":0.01806450900667022,"471":-0.014108912633317526,"472":0.10904968921887484,"473":0.008492273987620562,"474":0.03397822772991069,"475":0.01566641542237474,"476":0.001688872191855133,"477":-0.038615168915659984,"478":0.04652618624961244,"479":0.00907096724256219,"480":0.019864821600319296,"481":0.023608366746360923,"482":-0.025947422458770485,"483":0.008759294231328667,"484":-0.03739848887394892,"485":-0.049139015167471475,"486":0.04422891445245297,"487":-0.008544245186876414,"488":-0.015844119067900304,"489":-0.014214749340142935,"490":0.03514424525364826,"491":0.007006291326210658,"492":-0.045652199443705826,"493":0.0760401833739659,"494":0.03611171850533605,