/*

Author: Jordan Ott
Date: 02/27/2017
Adapted for DeepTraffic simulation at http://selfdrivingcars.mit.edu/deeptrafficjs/

*/

//<![CDATA[

lanesSide = 5;
patchesAhead = 50;
patchesBehind = 20;
trainIterations = 100000;

var num_inputs = (lanesSide * 2 + 1) * (patchesAhead + patchesBehind);
var num_actions = 5;
var temporal_window = 0;
var network_size = num_inputs * temporal_window + num_actions * temporal_window + num_inputs;

var layer_defs = [];
layer_defs.push({
   type: 'input',
   out_sx: 1,
   out_sy: 1,
   out_depth: network_size
});
layer_defs.push({
   type: 'fc',
   num_neurons: 40,
   activation: 'relu'
});
layer_defs.push({
   type: 'fc',
   num_neurons: 50,
   activation: 'relu'
});
layer_defs.push({
   type: 'fc',
   num_neurons: 50,
   activation: 'relu'
});
layer_defs.push({
   type: 'fc',
   num_neurons: 50,
   activation: 'relu'
});
layer_defs.push({
   type: 'fc',
   num_neurons: 20,
   activation: 'relu'
});
layer_defs.push({
   type: 'regression',
   num_neurons: num_actions
});

var tdtrainer_options = {
   learning_rate: 0.001,
   momentum: 0.0,
   batch_size: 128,
   l2_decay: 0.01
};

var opt = {};
opt.temporal_window = temporal_window;
opt.experience_size = 30000;
opt.start_learn_threshold = 5000;
opt.gamma = 0.91;
opt.learning_steps_total = 10000;
opt.learning_steps_burnin = 1000;
opt.epsilon_min = 0.0;
opt.epsilon_test_time = 0.0;
opt.layer_defs = layer_defs;
opt.tdtrainer_options = tdtrainer_options;

brain = new deepqlearn.Brain(num_inputs, num_actions, opt);

learn = function (state, lastReward) {
   brain.backward(lastReward);
   var action = brain.forward(state);

   draw_net();
   draw_stats();

   return action;
}

//]]>
/*###########*/
if (brain) {
brain.value_net.fromJSON({"layers":[{"out_depth":770,"out_sx":1,"out_sy":1,"layer_type":"input"},{"out_depth":40,"out_sx":1,"out_sy":1,"layer_type":"fc","num_inputs":770,"l1_decay_mul":0,"l2_decay_mul":1,"filters":[{"sx":1,"sy":1,"depth":770,"w":{"0":-0.01751779792549876,"1":-0.016404567463478525,"2":-0.008812241049469403,"3":-0.041157023703928604,"4":-0.0007503730796778368,"5":-0.016098623778040184,"6":-0.003969247382000485,"7":-0.02223024670269326,"8":-0.0804597893903296,"9":-0.022931664708865516,"10":-0.0554027589356763,"11":-0.036143298009636206,"12":-0.040311379307237404,"13":0.021218945080536938,"14":-0.056655963605247335,"15":-0.018130925914763993,"16":-0.038779022291534064,"17":0.019614426221631363,"18":-0.009617761678861657,"19":0.004523125759109689,"20":-0.02960073305864373,"21":-0.051043652584690236,"22":0.01090760216003871,"23":0.030889219056116055,"24":-0.025389747253184304,"25":0.012115432497881069,"26":0.031141316312109146,"27":0.038741076537948976,"28":-0.027274643344049727,"29":0.01851369954091893,"30":0.005919982421398903,"31":0.009005530433279313,"32":-0.026977429364551844,"33":-0.024630040988651965,"34":0.010880042845095033,"35":-0.0033711359590658393,"36":-0.046522043582510435,"37":-0.0010322609359333748,"38":-0.023659317419357197,"39":-0.0767375700477556,"40":-0.03690943911574195,"41":-0.06006111029972888,"42":-0.0030886982718139728,"43":0.01310905197844895,"44":-0.002681797411267023,"45":-0.01911064780535813,"46":0.01658735902296622,"47":0.015328006603562604,"48":0.06188308163849414,"49":0.0629877210285602,"50":-0.03393445489058531,"51":0.03486595576771444,"52":-0.01619370733934906,"53":0.019958938049906165,"54":0.012853422576976822,"55":0.012479376154016425,"56":-0.05358150551929861,"57":-0.020322856903711353,"58":0.0005134042987916258,"59":-0.017119278995086938,"60":0.0068107488174627496,"61":-0.029891144117298617,"62":-0.010703968039790155,"63":-0.03721123663384069,"64":-0.09765234728837884,"65":0.052624672623986124,"66":0.003275879825771086,"67":-0.023939665636812248,"68":0.02157907428168284,"69":-0.02700994410725028,"70":-0.04490124189087352,"71":0.032978840632434156,"72":0.0061016817287312475,"73":0.00755715176893172,"74":-0.014060999074938341,"75":-0.014148040101327943,"76":-0.001119368721863122,"77":-0.027553903933831187,"78":0.04325106679526544,"79":0.0023654461535842753,"80":0.04260977084303287,"81":-0.030341060830091134,"82":0.03638640556377407,"83":0.02417535960129324,"84":0.02202361833438747,"85":-0.03231323175772288,"86":0.001541445862366125,"87":-0.05916807438797112,"88":0.04275504223158137,"89":-0.03928978813455477,"90":-0.039290313441147924,"91":-0.0631960858731267,"92":-0.023530939405160257,"93":-0.03919043214060336,"94":-0.025196685740738026,"95":0.02088132316234346,"96":-0.008872826202674088,"97":-0.016207483047610455,"98":0.009567117270356335,"99":0.09457653481742624,"100":-0.031044233312864815,"101":0.039801753585396074,"102":-0.03978625863974564,"103":0.015013526967000116,"104":-0.011563370522646622,"105":-0.03351336443968184,"106":0.04517063411727674,"107":-0.03150603481071695,"108":-0.052099829633400506,"109":0.011358833334404732,"110":-0.022797285705473604,"111":-0.04394084101621885,"112":-0.07859506991675401,"113":-0.000417581533393223,"114":-0.02023921091673616,"115":0.022969607900606544,"116":0.0017572282097323443,"117":0.06113463462041892,"118":-0.001891510561204618,"119":-0.014143434252699075,"120":0.006798053894977184,"121":-0.011499998244700122,"122":0.03550039180832994,"123":0.07793117251252883,"124":0.026615372369835508,"125":0.040896938242085935,"126":0.016749077484271048,"127":0.03436095178548478,"128":0.02736571894371728,"129":0.016096833357911615,"130":-0.06167840074517629,"131":0.0237670461456388,"132":0.026141860257129182,"133":-0.009365586879672226,"134":0.030691414418198674,"135":-0.025428725042228695,"136":0.002482187338356586,"137":0.07355727036021704,"138":-0.007312155081882449,"139":0.009188456199719103,"140":-0.05200144500122179,"141":-0.07015004036939289,"142":0.02864520304646353,"143":0.025793476880684542,"144":-0.042071756264090175,"145":0.04282361476985363,"146":-0.013129084888296083,"147":-0.009891299350630618,"148":0.007236334975358105,"149":0.06082880921791326,"150":0.037119890330448935,"151":-0.04947683211624503,"152":0.017689898125202982,"153":0.002647608857875862,"154":0.02913399191184965,"155":-0.011458598600344427,"156":0.002188848650504729,"157":-0.02900266123703992,"158":0.058223075222636776,"159":0.02563199858492878,"160":0.0026130842266019884,"161":0.027855554406977883,"162":-0.022771138575405605,"163":-0.019669821849586537,"164":0.044908392185241425,"165":-0.02155644426466631,"166":-0.0497018983454064,"167":0.0012317885939488898,"168":-0.0018400915369866742,"169":-0.04193003488963611,"170":-0.05133100814895894,"171":0.008235690431513747,"172":-0.0035405012961023104,"173":0.053325571185203445,"174":0.0016444418346974392,"175":0.03567792101337681,"176":0.014923480148994785,"177":0.06180621012460652,"178":-0.01678417577021561,"179":0.041391963612950715,"180":0.0028968656991198963,"181":0.056692824764515135,"182":-0.0682405813684827,"183":0.01655321570629628,"184":0.03811740589798484,"185":-0.010156767374623905,"186":-0.0728251158771254,"187":-0.05774682931151519,"188":-0.02594360344617865,"189":-0.03907492989120843,"190":-0.01958336327273552,"191":-0.0068914775305766,"192":0.1321815397179664,"193":-0.001913758726605849,"194":0.06667760440242367,"195":0.02482591491791971,"196":-0.019667374225552117,"197":-0.05033087679966862,"198":-0.0751260353556071,"199":0.015917254890854705,"200":-0.05318062556657679,"201":0.04073298390483109,"202":-0.006650958795458487,"203":0.05592366971951714,"204":-0.05777946932838055,"205":-0.00695356711644531,"206":-0.034215691582828237,"207":0.07073330967364332,"208":-0.031088892369491535,"209":0.04124368030114615,"210":0.014277554890363768,"211":-0.04412477064997127,"212":-0.03448424216709291,"213":-0.006767459961947298,"214":0.06332300456542808,"215":-0.024375561464882907,"216":0.007251590038196955,"217":-0.018152982528679366,"218":-0.017331313099612892,"219":0.05373361608706014,"220":-0.021014953243616102,"221":0.002586795900477953,"222":0.027993591788141384,"223":0.00882846823531482,"224":0.04054502630347659,"225":0.10712290163373284,"226":-0.007275401217198102,"227":0.07344856085683914,"228":-0.013841008976855146,"229":0.028102396265448932,"230":0.030377660739613472,"231":-0.016416910619879266,"232":0.009942775589452467,"233":-0.015232168734464655,"234":0.02605141001178506,"235":-0.012937011676446205,"236":0.048543345032243904,"237":-0.04110037968675224,"238":0.07661011120109716,"239":-0.04757450457215765,"240":0.01437791136763681,"241":-0.016488542533391975,"242":-0.01074596899772668,"243":-0.02848724184856589,"244":-0.03561793282179151,"245":0.07183019314687443,"246":-0.0022119895450665654,"247":-0.0028365217534793564,"248":0.03998103633614773,"249":0.082599849438124,"250":-0.0406609799876822,"251":0.01175488494205691,"252":0.0024271621147433815,"253":-0.014529687686371858,"254":0.04031771600032635,"255":0.010711266021071204,"256":0.03279354097906636,"257":-0.011871973535727103,"258":0.030233703449569597,"259":0.04123712118854434,"260":0.0008133870167185382,"261":0.012436638199073912,"262":0.08804501673957721,"263":-0.035038000362768065,"264":0.0185640714949501,"265":0.04834620555718818,"266":0.015149976167821289,"267":0.016923682316419907,"268":0.09015720831612394,"269":-0.008995914792524188,"270":0.007131284132672386,"271":-0.04561965601299891,"272":-0.03176646675029448,"273":-0.03230432161446941,"274":0.0019136741899046447,"275":0.05457099036530327,"276":-0.0055799555584501725,"277":0.06300824790219924,"278":0.06642666308475514,"279":0.09339719251280613,"280":0.06570675714787931,"281":0.030702238535904192,"282":0.029390480658968775,"283":0.01946046462365527,"284":0.11420099203243791,"285":0.046659327325668756,"286":-0.010065702584776187,"287":0.0021400492082426763,"288":-0.0068909658008112955,"289":0.09314271394363433,"290":0.05895231258180281,"291":0.009271668685515908,"292":0.030092702510080855,"293":0.038109399759355414,"294":0.021657190210303663,"295":-0.05061809172755377,"296":-0.006661442150587454,"297":0.03377472124945763,"298":-0.004919917946045575,"299":0.05204477520070227,"300":0.007897385487121813,"301":0.027990385749637345,"302":0.04087408578073313,"303":0.008544655006067506,"304":0.059079678072046,"305":0.003564543431346116,"306":-0.0039592673271940165,"307":-0.058212314317731405,"308":-0.002043520950512208,"309":0.003644417990955993,"310":-0.04600566054716951,"311":0.08661355546482953,"312":0.030636855614306544,"313":0.0759898677063989,"314":0.12250074242242881,"315":-0.06501614730508111,"316":0.060992572658360084,"317":0.02800319221902454,"318":0.04371920303913207,"319":-0.03842703418869993,"320":-0.031871078165084395,"321":0.01344364734119524,"322":0.013398468299093833,"323":0.09816800550282179,"324":0.04486017000755635,"325":0.07278950865227794,"326":0.009465861085240133,"327":0.013787070889258284,"328":0.07704635159134429,"329":-0.01684250216019607,"330":-0.033250725496638385,"331":-0.005489480394732666,"332":0.0009991111080819674,"333":-0.011800967957025444,"334":0.04310516754274863,"335":0.06330183829367088,"336":0.022412533954512214,"337":-0.017708867171330373,"338":0.041195372242152646,"339":-0.028351923574868328,"340":0.013627363050982116,"341":0.0418611517525044,"342":0.017170018533799465,"343":0.006072473203562832,"344":0.016677626831803252,"345":0.06849711379536455,"346":0.11566603631300072,"347":0.01634207627915647,"348":0.013892406903429381,"349":0.05776403955286775,"350":0.01162908705655831,"351":-0.032963245397209615,"352":-0.03411689850344018,"353":0.02915348071502306,"354":-0.037725552140642764,"355":0.06675504321680235,"356":0.05997632751839347,"357":0.08351680911440264,"358":0.02120072060064108,"359":0.00732411391864793,"360":-0.04458443085511095,"361":-0.018322050417511854,"362":0.010632304193942484,"363":0.09453823409286845,"364":0.01439873394658439,"365":0.01393476983341165,"366":0.046245891473409115,"367":0.03118027245378498,"368":0.06158456593887105,"369":-0.03851714470233039,"370":-0.0037833225068074437,"371":-0.005840656070165684,"372":-0.03893902631778685,"373":0.015568378639502906,"374":0.037713584857042945,"375":0.05751289199918131,"376":-0.012390812033228164,"377":0.06752911505123081,"378":0.043660590539635315,"379":0.05898665781694276,"380":0.08384498304228734,"381":0.04548902004556903,"382":-0.042652259721548846,"383":-0.04485578230210818,"384":0.06418821719139177,"385":0.048998104313531736,"386":-0.02669602297224246,"387":0.035488494471901416,"388":0.04557903573159886,"389":0.1603345913600579,"390":0.10599107611673986,"391":0.02228428644405462,"392":0.04345853486578763,"393":-0.02748746268374136,"394":0.03234256833203394,"395":-0.014626145143633341,"396":-0.019554241813330476,"397":-0.012903804403271086,"398":0.007612465064752417,"399":-0.002297573230525615,"400":0.05466489509946215,"401":0.12088358029134645,"402":0.07806307977363416,"403":0.015435952672891926,"404":0.02318669637968856,"405":0.025609761867291084,"406":0.014215940556555765,"407":0.042196439750808216,"408":0.005964935172699389,"409":-0.09119030725238568,"410":0.03992482634731903,"411":0.09681775869264697,"412":0.13219106427543373,"413":0.07452285710581528,"414":-0.034532619175238026,"415":0.0659234178972611,"416":-0.0657306069788729,"417":-0.05779320730247127,"418":0.08223776035355412,"419":0.011456577735614605,"420":-0.01821194285443352,"421":0.03928432068824595,"422":0.09491845601891477,"423":0.13488357953630142,"424":0.04715111199156011,"425":0.05591615952213953,"426":-0.025573984905208364,"427":-0.03630662779373009,"428":-0.005579262280485507,"429":0.06240065078750991,"430":-0.0010736602054956695,"431":-0.04665415512372742,"432":0.035164811909137755,"433":0.13057516945010117,"434":0.1046437969428387,"435":0.06423276004088783,"436":0.044761103575777464,"437":0.015222796802601338,"438":0.054431095478461235,"439":0.016483405853546216,"440":0.026555484450482558,"441":0.015632338978858854,"442":0.07651570529519498,"443":0.0060123060058683234,"444":0.12422022172111344,"445":0.035715986700331125,"446":0.03831459608847157,"447":-0.0009761027886350024,"448":0.05393247935699112,"449":-0.036834604654639565,"450":0.0664744494561075,"451":-0.011296615013515835,"452":-0.041488197795160955,"453":-0.032449900597640205,"454":0.0242483188363794,"455":0.03405936558566289,"456":-0.04480289573254651,"457":0.04093605337818611,"458":0.001832923767964012,"459":-0.09322918882084986,"460":0.012913855839449944,"461":-0.030421977516725308,"462":-0.025326625762649872,"463":0.05923632873096688,"464":-0.04858404430056231,"465":0.020761250302734426,"466":0.031857137218227166,"467":0.02190323504117789,"468":-0.000613442789053291,"469":0.01536356708760582,"470":-0.01394444618131514,"471":0.007470059838771513,"472":0.012817419627313606,"473":-0.02525604457233809,"474":-0.0593479446063062,"475":0.06261512361193909,"476":-0.014081838668727685,"477":0.0910471532078118,"478":0.1305716891169383,"479":0.09339018401345114,"480":-0.011099021949330311,"481":-0.03219838169612258,"482":-0.021845544232702557,"483":-0.05409057965012477,"484":0.023966393606463573,"485":0.04417998243145791,"486":0.012627309467704358,"487":0.018912417016263477,"488":0.10781460918479617,"489":0.16100960901653993,"490":0.0402999651740927,"491":0.032179814358462094,"492":0.04004755634845393,"493":-0.0543803356170501,"494":-0.00697340611460881,"495":0.017538567531553664,"496":-0.07531177412560358,"497":-0.011163436336550486,"498":-0.015555462535352425,"499":0.047253911233337595,"500":0.24370285219619742,"501":0.04726330554989365,"502":-0.0356435172639779,"503":-0.00626605955248831,"504":-0.028265714459872283,"505":-0.032274413097357756,"506":-0.01206640654391796,"507":-0.023240943510201187,"508":-0.09420579833559264,"509":-0.051124131940423194,"510":0.13315948291371468,"511":0.1496292111899119,"512":0.04738352196478019,"513":-0.03363437378427292,"514":-0.01145555594196241,"515":0.03486291254440647,"516":-0.010608891388682526,"517":-0.03355420956402423,"518":-0.058833514114817555,"519":0.017944494492136163,"520":0.022104606364889135,"521":0.07542337886749578,"522":-0.010770861119288131,"523":0.03202972582700273,"524":0.008856058704797925,"525":-0.06720575986369826,"526":-0.016405382505699378,"527":-0.010315634529469722,"528":-0.05814372677636373,"529":0.021959834757484233,"530":-0.001632526238767445,"531":-0.012801704000650848,"532":0.05416064421037335,"533":0.06172861602732989,"534":-0.020689575072726167,"535":0.003158150332412696,"536":0.02910782592503981,"537":0.0102358223892922,"538":-0.004014592127287522,"539":0.09301961852102598,"540":-0.03877035544491226,"541":-0.06568422640436408,"542":0.005786809216135726,"543":0.03215904602818852,"544":-0.025438317501096555,"545":0.1264707306611857,"546":0.0610413862192528,"547":-0.025830298852534274,"548":0.0006321908990788102,"549":0.02291318815934528,"550":-0.022871077527586454,"551":-0.00785685267606563,"552":-0.06630715963721315,"553":-0.139698224808285,"554":0.09763412012894668,"555":-0.12433307958743318,"556":0.10625221253656818,"557":-0.024628300402807685,"558":-0.044220604883438146,"559":0.0018274958862324444,"560":0.04847378541650416,"561":0.046516878520413446,"562":-0.007457062590400888,"563":-0.028556832371276722,"564":-0.05810455917836379,"565":0.021619694850056825,"566":-0.09111402058411866,"567":0.037868954676255825,"568":0.04006477975562058,"569":-0.017719878685659423,"570":0.03327020980459355,"571":-0.039689650194640554,"572":0.010980232882846486,"573":-0.017765123797293145,"574":-0.04898512432516379,"575":-0.03391596283409409,"576":-0.050968621519842536,"577":-0.1221191337597356,"578":0.05633915222868005,"579":-0.014745576488082357,"580":-0.0209616570580991,"581":-0.000034043410977970676,"582":-0.06414292633906338,"583":-0.049526787459005385,"584":0.04609462760669953,"585":-0.04107870503692472,"586":-0.06521592161499234,"587":-0.0006831831135008522,"588":-0.11185367732451844,"589":0.08056963652615567,"590":0.00842068417197417,"591":-0.018894645842459055,"592":-0.0004293932881425563,"593":0.009168424248316941,"594":0.013455470782842097,"595":-0.03233531178030877,"596":-0.021296776144099562,"597":-0.057883526273306354,"598":-0.04229296962849832,"599":-0.020987877333814305,"600":0.07373236467301443,"601":0.01623975924620117,"602":-0.06443015802681254,"603":0.04720818602590846,"604":0.02190043443894501,"605":0.006262392793341331,"606":0.00325825048060634,"607":0.010207020331444161,"608":-0.04246670373159389,"609":0.017203009315522756,"610":-0.05047978467693552,"611":0.052809879445674744,"612":0.003382123294618943,"613":0.016844373884984897,"614":-0.07477153308387884,"615":-0.00567567424549363,"616":-0.024310567889372196,"617":-0.022417710819031666,"618":0.005587938372553757,"619":-0.007019697378518032,"620":-0.12235260018615876,"621":-0.02354188905674436,"622":-0.03401322998692588,"623":0.0035190973017325596,"624":0.013960132667355343,"625":-0.021038008440128833,"626":0.04132180542893115,"627":-0.013022257532357447,"628":-0.0451603954846526,"629":0.010086951825339282,"630":-0.02597456162386357,"631":-0.022047719858041843,"632":-0.018306020048659288,"633":0.023103210489223928,"634":0.009895286785513775,"635":-0.04339974101853093,"636":0.006022216043012212,"637":-0.03793521010777947,"638":0.00806071138784081,"639":0.02363918684319216,"640":-0.019179494446242753,"641":-0.015689248801782053,"642":0.02488593588920866,"643":-0.06067667520157866,"644":-0.08047915193730691,"645":-0.04880241162820577,"646":0.04648949631930034,"647":-0.01634721221986732,"648":-0.01076631046926076,"649":-0.06777830761051892,"650":-0.009380053026447665,"651":0.008037666217438151,"652":-0.041951235525859096,"653":-0.01062507088213437,"654":-0.07376163843617925,"655":0.035051506132407824,"656":-0.014314237600561634,"657":-0.060925376233248084,"658":-0.1320517341811501,"659":-0.03372077122708028,"660":0.03067194743992331,"661":0.0508780884797978,"662":-0.014219903483302007,"663":-0.04502393852518815,"664":-0.0351085228496998,"665":-0.10566658882167025,"666":-0.04238765960791949,"667":-0.056165064451809944,"668":0.03605915754788091,"669":0.03354892053045007,"670":0.0451869729501769,"671":0.005130089903610138,"672":-0.007022545573175441,"673":-0.022851796271837123,"674":0.004271960509698604,"675":-0.040599444349164335,"676":0.012820047736093352,"677":-0.012862873300681258,"678":-0.03898622795460186,"679":-0.007617226714504473,"680":-0.024240967946061977,"681":0.006457646086099474,"682":-0.014608237175355079,"683":-0.013830562667708856,"684":-0.020734236964772525,"685":-0.0404678395714745,"686":0.004935803811818269,"687":0.014120766384002725,"688":0.014678549989196937,"689":0.024523808394729313,"690":-0.06883941516607121,"691":-0.014648192558471235,"692":-0.04355294398343606,"693":0.0027121370010570224,"694":0.020844903923011866,"695":-0.012253732476968461,"696":-0.037990058224020073,"697":-0.04402511956047542,"698":-0.015354996308530128,"699":0.013362840431588908,"700":-0.009214623009727798,"701":0.004937854600818563,"702":0.022445834586611525,"703":0.015690534666076873,"704":0.01923301200262895,"705":-0.009451440939741899,"706":0.009119859306137911,"707":0.01898754389499319,"708":-0.018427917486809428,"709":-0.027856404236519413,"710":0.03894261806268535,"711":-0.06969784169442692,"712":0.026812476359774833,"713":0.0136946519571273,"714":0.07244860439082008,"715":-0.005795589649618324,"716":0.06723394928253663,"717":-0.027751929432720306,"718":-0.0206646098344381,"719":-0.03318123543154923,"720":0.06813018102128193,"721":-0.04594796264001876,"722":-0.024866382386264724,"723":-0.04752236984543403,"724":0.04458113911540122,"725":-0.013667808989864262,"726":-0.008948383668584144,"727":0.044818860005980954,"728":0.0071822745426925756,"729":-0.11583139466706784,"730":-0.029922560032343,"731":-0.04909737308287454,"732":0.03784320270304198,"733":-0.036196783621347324,"734":-0.008457079420319098,"735":0.056602239712235505,"736":-0.03245652869524033,"737":-0.08390018396881824,"738":-0.042873963358583414,"739":0.044719668358007954,"740":-0.07259007501775047,"741":-0.07965460080233583,"742":0.06648013674968936,"743":-0.021655810636115543,"744":-0.04141893069073696,"745":-0.04723750607279715,"746":0.030362428774753474,"747":0.020915207704274998,"748":-0.0414004292176434,"749":-0.0007908333968515226,"750":-0.03234894912186401,"751":0.03621147626514988,"752":0.07801763845609615,"753":-0.025565712617730173,"754":-0.06894223600635925,"755":-0.000036372696738276194,"756":-0.05567086494492626,"757":0.012216600537574927,"758":-0.00025418041592309524,"759":-0.0008205320581424548,"760":-0.023129511482856965,"761":-0.06653591737934246,"762":0.0007273170748413687,"763":-0.033560124996855234,"764":-0.028596664015208828,"765":0.0027698048557155503,"766":0.02947638790004925,"767":-0.008862271432514392,"768":-0.011137679012416525,"769":-0.04621506957394809}},{"sx":1,"sy":1,"depth":770,"w":{"0":0.030080012893633917,"1":0.004902325265938584,"2":0.006792860425901887,"3":0.04370274705203743,"4":0.03745430804308087,"5":0.050988273107152135,"6":-0.0066437586697775655,"7":-0.0015809619251169163,"8":0.02673219281091739,"9":0.03620028052525135,"10":0.10285806112459901,"11":0.06609239727665904,"12":0.002371014463809524,"13":0.0026788032645695048,"14":0.005840615606193704,"15":0.038139027861471955,"16":0.02869752529423756,"17":0.007461974781525279,"18":0.024238131512715113,"19":-0.011089617401055414,"20":-0.013561151289962891,"21":0.001595327942855104,"22":-0.08601435706730001,"23":-0.01887470963016208,"24":-0.02681801979674279,"25":0.032477470629611885,"26":0.04640875190414028,"27":-0.006078981706282352,"28":-0.010944993438124695,"29":-0.014915711290481734,"30":-0.04265353661828559,"31":-0.026169507497839473,"32":-0.02313700527699995,"33":0.015276188743524082,"34":-0.0037063751560072367,"35":-0.08184726756578703,"36":0.026612884752400572,"37":-0.06734672839412717,"38":0.017124856547623822,"39":-0.03175174864977524,"40":-0.03039287085385512,"41":-0.023189861549100223,"42":0.021661989764809257,"43":0.019240502070160505,"44":0.025450020776278406,"45":-0.07359248247057035,"46":0.035853871146089525,"47":-0.01691860901962753,"48":0.007584423312775863,"49":-0.01615037966532422,"50":-0.05259377841971942,"51":0.012831659675543247,"52":0.018998406560483946,"53":0.011465756706259234,"54":-0.004563717367009379,"55":-0.01296199809042947,"56":-0.04201105919958121,"57":-0.024960825323082785,"58":-0.03149298949579263,"59":-0.06757954523473521,"60":-0.003693703185934247,"61":0.05525353810514049,"62":-0.01519715262928085,"63":-0.03814038821012829,"64":0.0064487755831849815,"65":0.0051208129364790555,"66":0.006157634160270087,"67":-0.017771472951849446,"68":0.07752097653380678,"69":0.04793582875941533,"70":-0.011293321137253799,"71":-0.00893616101543993,"72":-0.02501501918646235,"73":0.02690382498008703,"74":-0.007925459071100455,"75":-0.03919639858570158,"76":0.08072931744662498,"77":0.028929340656384774,"78":0.014569131716412439,"79":0.013027845126376643,"80":0.01197116763310879,"81":-0.0189170849360402,"82":-0.07273423983439758,"83":0.006089074834886386,"84":0.0004896290390616379,"85":0.042185208337764714,"86":0.047777393960998255,"87":0.019560479526565464,"88":0.02470677706185258,"89":-0.03437338084372994,"90":-0.011481646925053676,"91":0.08096965329476177,"92":-0.03189095462286303,"93":0.008599263655933914,"94":-0.023284386974724357,"95":-0.05869755779883238,"96":-0.016330643221174883,"97":0.058046366592981555,"98":-0.01701661856043818,"99":-0.047972109679277744,"100":0.023489555768274235,"101":0.02901521116965826,"102":-0.01375159661218169,"103":0.008622283654814216,"104":0.01118519482399448,"105":-0.018621107097882377,"106":0.005002548171828093,"107":-0.021007363737947017,"108":-0.01715677583027418,"109":0.019063383761423806,"110":0.03635174248291056,"111":0.00960393299373949,"112":0.02202501290171562,"113":-0.0006725149328094949,"114":-0.03067269522191226,"115":0.0012948663828737535,"116":-0.03503490993236419,"117":-0.005739556903980255,"118":0.0035771711977143883,"119":-0.04456324884436416,"120":0.013760613117254199,"121":0.009994649929051561,"122":-0.0070335053252820676,"123":-0.015264835968852877,"124":-0.06574780006132987,"125":-0.029356615126782164,"126":-0.03858067149834709,"127":-0.033857018205974115,"128":0.05218039688398651,"129":0.03924263100112948,"130":-0.015750239199144037,"131":-0.0316557281391496,"132":-0.02990211559169651,"133":0.0020617171226749893,"134":0.022842423025363292,"135":0.008062686413974826,"136":0.03658433682666174,"137":-0.02358099016048077,"138":-0.02732088332469564,"139":0.02977038537219196,"140":-0.012052974320453881,"141":0.02109448116106321,"142":0.013080018805078407,"143":-0.04504956192415371,"144":0.041696547783276756,"145":-0.042279967825436124,"146":0.03318495907359592,"147":0.030165026138983145,"148":0.024940306620157653,"149":-0.019822777939518487,"150":0.03161433173009074,"151":0.05571770262909157,"152":-0.0008891329287695797,"153":0.049408820309600275,"154":-0.052739542296802895,"155":0.023211163449131218,"156":0.027792818035658265,"157":0.02538659713539109,"158":-0.010406332734332084,"159":-0.008204175584964668,"160":-0.04882089565400005,"161":0.04283474217109598,"162":-0.03475962278948617,"163":0.004252204630050849,"164":0.007293817300268239,"165":0.060244830373707675,"166":-0.005329601495680193,"167":0.017577089331584757,"168":0.007069658346071278,"169":0.08985399340245673,"170":0.003583137840370429,"171":0.04963829979095494,"172":-0.058750801723070775,"173":-0.006863202032695417,"174":-0.006956062306570763,"175":0.0010026527766864074,"176":0.05931587583037168,"177":0.00514273135372268,"178":-0.013586322117771582,"179":-0.025645571732178945,"180":0.019850564173646303,"181":-0.0006785894135769675,"182":-0.006680547381296913,"183":-0.03767102379279195,"184":0.016407246764692796,"185":-0.03497350565708373,"186":0.05569579758315561,"187":-0.04507767433429735,"188":0.0014463945517693868,"189":0.02057046180352376,"190":0.03119946159168199,"191":-0.044326436189941476,"192":0.0019363204716220546,"193":-0.04221873276387144,"194":-0.016245037062242763,"195":-0.004336122578521825,"196":-0.0290680577955325,"197":0.005630078000365812,"198":0.02583720959520656,"199":-0.037642616940012,"200":0.09295635043568767,"201":0.023061056159671595,"202":0.03412694018858095,"203":-0.04544548323045416,"204":0.001867731118716365,"205":0.026542188110011553,"206":0.028175304908251687,"207":0.015225269207118301,"208":0.05650121637330283,"209":-0.06727477001657776,"210":0.003336805610340519,"211":-0.02400234288415543,"212":0.07679950882292748,"213":0.03646917142749098,"214":0.010004615237796886,"215":-0.06395249718011257,"216":-0.0010089835809451995,"217":0.01781573268860509,"218":0.028551632768963862,"219":0.056148137326999005,"220":-0.016721270566790875,"221":-0.01780624298305155,"222":0.10871117737699823,"223":0.02400283292233326,"224":0.014287917844056815,"225":-0.003820856210518453,"226":0.023358322996570854,"227":-0.03061666340008849,"228":-0.055996544286966904,"229":0.038138157230128575,"230":0.03160538653102086,"231":-0.021867773179236143,"232":0.00026057371896509704,"233":0.04089276114868482,"234":0.03565298952538436,"235":0.001535994784831936,"236":0.07708139532418594,"237":-0.03514394921527187,"238":-0.10203379371295365,"239":-0.019757347611718722,"240":0.022112778478928813,"241":0.04371397283944164,"242":-0.011364416275820364,"243":-0.035441545844110724,"244":0.02627467272272991,"245":0.06769062895312902,"246":-0.05424893409667825,"247":-0.01080715536075391,"248":-0.013370121707361085,"249":-0.04006602284221044,"250":-0.050472775481537654,"251":-0.005014582472249847,"252":0.03161571668278615,"253":-0.014137096001251997,"254":0.018329770846777976,"255":-0.03040387568079382,"256":0.0020754678060455295,"257":0.0036403811594580863,"258":0.020579064633716237,"259":0.03399964642543809,"260":-0.046486389861347434,"261":0.0026769554631615113,"262":0.030295094902181043,"263":0.06326611466661287,"264":0.021123578803363876,"265":-0.0362626604699896,"266":-0.019656440140498325,"267":-0.02701469495489013,"268":-0.01920832515568496,"269":0.10430937222684034,"270":-0.04944485861199116,"271":0.03821508544684333,"272":-0.030168008344382692,"273":-0.020736584856965876,"274":0.01343005048154017,"275":-0.023826028105944256,"276":0.003789551607311725,"277":-0.07349873986445778,"278":0.001116944316533071,"279":0.018547177893262323,"280":0.0232946454580231,"281":-0.03791344534001516,"282":0.019811420772275042,"283":-0.0032779386339576765,"284":-0.009171370022744497,"285":0.02190843530007799,"286":-0.023075277200999913,"287":0.006732674778972515,"288":0.03568764535248146,"289":0.011196950590427784,"290":-0.0029575746444841073,"291":0.04946426080388774,"292":0.0004459034084297877,"293":-0.03773148660202747,"294":-0.008995955151806909,"295":0.06310848037946269,"296":-0.015312714021499113,"297":-0.010617692244819623,"298":0.03102705571979609,"299":0.030945043565490795,"300":0.07445209134640056,"301":0.03594487771867833,"302":0.024618377788525565,"303":-0.018383699130989153,"304":-0.025538079540210822,"305":-0.04204139084712877,"306":0.03749103271414875,"307":-0.07791991044491511,"308":-0.04198470265474559,"309":0.007442936578578209,"310":0.017542611411362857,"311":0.002357918210395078,"312":0.06845975523245472,"313":0.01861671509270254,"314":-0.005295514894685859,"315":-0.027419520933487065,"316":0.014612759143954518,"317":-0.04120244818324159,"318":-0.021399446066804353,"319":-0.010746758213152846,"320":0.03743569806186407,"321":-0.02473837968020468,"322":0.019687276307669397,"323":0.056953281910768414,"324":-0.023166434757951902,"325":-0.020136238210478042,"326":0.0027514519014063903,"327":-0.001090081632894011,"328":0.01591997632833059,"329":-0.024292370476789855,"330":-0.02310792977425068,"331":-0.06283330195812982,"332":-0.018318933218366064,"333":0.019768963842711023,"334":-0.007316009543820342,"335":-0.058279200181791564,"336":-0.001352996078356369,"337":-0.01732519099670787,"338":0.01470832933791974,"339":0.014846834108325983,"340":0.005609922048411759,"341":0.0013386752093649187,"342":-0.04997108661511358,"343":-0.0033914587194142872,"344":-0.023501090099250475,"345":-0.013146350719310928,"346":-0.02919976787663262,"347":0.027305959488310563,"348":-0.0861883149989032,"349":0.01113497879587041,"350":0.039946423392596415,"351":0.06529857859641684,"352":-0.04301836949619881,"353":0.022172857496029378,"354":-0.06186873790534478,"355":-0.04209272837956347,"356":0.0829790264831554,"357":-0.045204417613436784,"358":0.008528604779540866,"359":-0.02292460943849706,"360":-0.04367418038750951,"361":0.039945358396733396,"362":0.006439917201322636,"363":0.022076881473561547,"364":0.02223912155468521,"365":0.06056566719425046,"366":0.0659775204824751,"367":0.08031312728250117,"368":0.030039013655064215,"369":-0.03948411739112509,"370":-0.0363113775061937,"371":-0.011287323774450438,"372":0.019536720421506858,"373":-0.011835075763460108,"374":0.030852927861707152,"375":0.05027529754154466,"376":-0.021383368546031154,"377":0.033075668029660596,"378":0.0779787754295618,"379":-0.027250811696628192,"380":-0.01817049700182931,"381":-0.041143305588955285,"382":0.002737814777881087,"383":0.04376603581346008,"384":0.06260595214682046,"385":-0.02454633715910418,"386":0.002478054979836294,"387":-0.022032567858854397,"388":0.02022625007541352,"389":0.08735652606006897,"390":0.06902375324036954,"391":-0.035202684840511936,"392":-0.012460113028642241,"393":0.012659380474737187,"394":-0.01749513466158462,"395":0.020009807507165966,"396":0.046630981726453545,"397":-0.01645616501249488,"398":-0.045389478200846,"399":0.05028525333753256,"400":-0.025950590907610965,"401":-0.09107591181481792,"402":-0.018616788850494254,"403":-0.05673149520660695,"404":0.005191288789310702,"405":-0.0003822105819329851,"406":0.05358394429600097,"407":0.02093638400815729,"408":0.01726628264028881,"409":-0.03811079422220219,"410":0.0022034125489630483,"411":0.04067489743906036,"412":-0.09701774655907694,"413":-0.0019306264269321493,"414":-0.04413476622355924,"415":-0.05371566427344123,"416":-0.01078600385814814,"417":0.03814173384842719,"418":-0.0008919317291996919,"419":0.0005906629409134877,"420":0.024689488838739365,"421":0.019903542191698285,"422":0.1504459900613424,"423":-0.12454519987017747,"424":-0.038676208725331195,"425":-0.10217513244592209,"426":0.025328261686716327,"427":-0.0212221533035063,"428":0.02928678210846056,"429":0.005188621898185635,"430":-0.08759177863832902,"431":-0.011426767563998826,"432":0.04620705072068505,"433":0.07438975991278028,"434":-0.08444243454565667,"435":-0.059301035506427166,"436":-0.005068568985910008,"437":0.014738491987122331,"438":-0.0422341498288265,"439":0.005769786208047596,"440":-0.10139881154288118,"441":-0.04204558502628671,"442":-0.035711760413051255,"443":-0.013092890609727358,"444":0.0681787875659359,"445":0.036115895666725066,"446":-0.09266924939993346,"447":-0.024192506397229793,"448":-0.029887866925888178,"449":-0.013035860678469527,"450":0.0092480991603451,"451":-0.05102711387754929,"452":-0.013647274921240755,"453":-0.01131928075887098,"454":0.09627678256106291,"455":0.1230695396398207,"456":0.061475702340910314,"457":-0.0022239872260530085,"458":0.008105553917919487,"459":0.037272111299301254,"460":0.015025359141061118,"461":-0.045266716137014426,"462":-0.03491399584437915,"463":-0.017338012455750347,"464":-0.01283176451131977,"465":0.0651388657882795,"466":0.06173688136597035,"467":0.11295107235389172,"468":-0.007041136734133133,"469":-0.011070733818755597,"470":-0.0244271673315832,"471":-0.007454758570191115,"472":-0.045290661036058125,"473":0.003989266514247109,"474":-0.03792796823680508,"475":0.03426722930390741,"476":0.047030409071676424,"477":0.029279509451704235,"478":0.18297318990986464,"479":-0.12253155055912689,"480":-0.01235698467626799,"481":0.0305126395831397,"482":-0.011539471324552452,"483":-0.020217377879157346,"484":-0.07177351428224292,"485":0.0671964911005765,"486":0.01395009275353722,"487":0.014354736978911974,"488":0.0330729713279037,"489":0.202060479336175,"490":-0.1356917116144719,"491":-0.010108328815387221,"492":-0.07110138591498279,"493":0.00911130397028995,"494":0.004828750250403634,"495":-0.014362515071612588,"496":-0.016776553844498603,"497":-0.04780138348114985,"498":0.032577246876508474,"499":0.08659696838066488,"500":0.18542093005069085,"501":-0.09043992160315831,"502":0.05498293208535525,"503":0.05418172222427974,"504":-0.0004588726393183918,"505":-0.019857440324330233,"506":-0.015178901240273369,"507":0.029822835268831897,"508":-0.04198739477403489,"509":0.002308588719349559,"510":-0.014083716573851905,"511":-0.03498896781617729,"512":-0.09256603680249348,"513":-0.01685874452163823,"514":0.049854159691297036,"515":-0.041219568287855876,"516":0.06866386178294423,"517":0.02198898801223419,"518":0.03404420510123831,"519":-0.005080747634798261,"520":-0.008234380426916158,"521":0.06315046534063841,"522":-0.041312885090508754,"523":-0.027474061076357584,"524":-0.01575921400241431,"525":-0.04926990129976983,"526":0.07372007553538296,"527":-0.042060333902091906,"528":0.05331283949686309,"529":-0.025247157678500762,"530":0.014337169284232072,"531":0.01717532072060414,"532":0.028277697269557815,"533":-0.00573872737993046,"534":0.03224680953774774,"535":0.0010846319718125284,"536":0.029713542478551076,"537":0.0705389419753861,"538":0.07082925127582959,"539":-0.012031188472364354,"540":0.02184362899053763,"541":0.008568142817628343,"542":-0.04327223868257399,"543":0.02245186799379542,"544":-0.03525662296272016,"545":0.01320134899194574,"546":0.005677053058631797,"547":0.036635739272791984,"548":-0.059929566499338845,"549":-0.025893784181862996,"550":-0.017228863243119077,"551":0.019898007501018257,"552":0.004501872466494581,"553":0.01867598980975583,"554":0.06854784229536821,"555":0.07346299655112756,"556":0.020621008723665925,"557":-0.015178060466680129,"558":0.05161122128832184,"559":0.0073115501646459505,"560":-0.02290910494184823,"561":0.009732914159044228,"562":-0.02764362586115384,"563":0.0420979267386896,"564":0.0044013439600715815,"565":0.03189165478557082,"566":0.011632803863924514,"567":0.0378870753604932,"568":-0.003143454271719873,"569":0.04213345433021759,"570":-0.015200067157139528,"571":-0.022475265078722884,"572":-0.042641100321686554,"573":0.034192887327247054,"574":0.014914326367616665,"575":0.04357105474454039,"576":0.056680926711817,"577":0.1089912469042722,"578":0.019484645811530567,"579":-0.026896986032068106,"580":0.026437859574049188,"581":0.014332058499892166,"582":0.006792080938572855,"583":-0.002794807085187869,"584":-0.0021993818168616268,"585":-0.00810860493864256,"586":0.004047823505726383,"587":0.061251768428892864,"588":0.07399173574276857,"589":0.11758651812373769,"590":-0.06950265335758007,"591":0.03499320668722932,"592":0.06422279340660762,"593":-0.018368426598140076,"594":-0.00010354865193012823,"595":0.03345218422725576,"596":0.006999380720534858,"597":0.017760418814730887,"598":0.14512075527634213,"599":0.03279981979056578,"600":0.055985601614672496,"601":-0.020577924023519118,"602":0.016379777292316024,"603":-0.010237230010572487,"604":-0.01824814627447646,"605":-0.009503651926624133,"606":-0.0011297798226703988,"607":0.039773388207807674,"608":-0.04960677813049754,"609":0.031324235345502105,"610":0.026432105031736985,"611":-0.009627569452685293,"612":-0.05515908229929543,"613":-0.005195902926035642,"614":-0.044089292917578064,"615":0.08482085818479665,"616":-0.03290814679129792,"617":0.05369035477729046,"618":-0.03791362934232462,"619":-0.047327696924454175,"620":0.05196949583055727,"621":0.04423857673439521,"622":0.03321000023007425,"623":-0.06017194151489037,"624":0.09759589370272995,"625":0.00402786157486176,"626":0.07532317553081806,"627":-0.03450347381396273,"628":-0.026760015503897377,"629":-0.06648410698092286,"630":-0.04035753371548582,"631":-0.021008414885187517,"632":0.033410941477020964,"633":0.024721174742795338,"634":-0.011377109524741578,"635":0.0028446275727063213,"636":0.04685048529578683,"637":-0.03229796488928144,"638":0.03541605361708944,"639":-0.02977710082375562,"640":0.0053300794359769765,"641":-0.05604871222959234,"642":-0.10715660959817361,"643":0.008989394531202156,"644":0.05984024809948091,"645":0.0373704317086854,"646":0.025499851800927436,"647":0.009997952401052288,"648":0.020542393767526177,"649":0.03471693339220127,"650":0.04687583339710128,"651":-0.011804267464081907,"652":0.024731082675497604,"653":0.00872748093443748,"654":0.025905455504889423,"655":-0.02238620427996482,"656":0.04083455690664288,"657":-0.04141734488336434,"658":0.045099592828905015,"659":0.0279463528217379,"660":-0.0404547229713424,"661":0.035747371097880974,"662":0.06083653902880489,"663":0.04725274473488592,"664":-0.043104345715463906,"665":-0.013435469191685962,"666":-0.06277538707734427,"667":0.01999790825000634,"668":0.07544779745548252,"669":-0.07080804653708032,"670":0.00901674873381368,"671":0.02947304923357211,"672":-0.061219458106287636,"673":0.014426150081937246,"674":0.09732518049504303,"675":-0.06054339290082032,"676":-0.02848348942228429,"677":0.0205434160828413,"678":0.029784456116161474,"679":0.0021642274174686516,"680":-0.008798570293232227,"681":0.021037424974465053,"682":-0.02858578936173213,"683":-0.07295487612936086,"684":-0.02171917526790893,"685":-0.04177938215802725,"686":-0.09422252637692756,"687":-0.025701696288076562,"688":-0.008783628801812465,"689":-0.02566367055952972,"690":0.015626956676682822,"691":-0.02453215939306373,"692":-0.03181986878292581,"693":0.02849295666913059,"694":0.019436168525885353,"695":0.03471408120544742,"696":0.05067164010331469,"697":-0.015223980861039517,"698":0.03409590055561896,"699":-0.04673602778704223,"700":0.029269022790945544,"701":-0.030870904465965892,"702":0.04630647893822431,"703":-0.04819836495060418,"704":-0.053298022344694364,"705":-0.06096629869856896,"706":0.0011989559902351862,"707":0.001387877598557759,"708":0.050884571331304376,"709":-0.030192634835063042,"710":-0.06042423473842611,"711":-0.020905604336681316,"712":0.04663048060411892,"713":0.01189693320636898,"714":-0.042561065210755054,"715":-0.0055713130275886385,"716":-0.013310950546715385,"717":-0.013674793008099683,"718":0.015986779713672256,"719":-0.016787581917045612,"720":-0.041536629459391405,"721":0.016971499284572023,"722":-0.02256458749788722,"723":-0.03488202081347886,"724":-0.029307756344312954,"725":0.009323499453306775,"726":-0.08060468145323905,"727":-0.018790899438136836,"728":0.05371901669371756,"729":-0.004536297588574895,"730":0.015909304576800287,"731":0.030227157884403198,"732":0.04652961193676305,"733":-0.053532862546341174,"734":0.04262030758466471,"735":-0.03867226068623956,"736":-0.03865833540058558,"737":0.013383842802413193,"738":-0.01438315875309247,"739":0.0396421209382217,"740":0.01765101845284899,"741":-0.04702783655228052,"742":0.03920562735460493,"743":-0.05886014323022005,"744":-0.027882680920468625,"745":-0.01401170740672611,"746":-0.033099259573111287,"747":-0.024007867271147596,"748":0.034434276894604474,"749":-0.018442756948113464,"750":-0.0858433580639659,"751":-0.04207006325005367,"752":0.051290976372987775,"753":0.014154615400790004,"754":0.013804300944092324,"755":-0.02077082985367431,"756":0.04525396903547888,"757":0.0370657717731179,"758":0.02352629290682199,"759":-0.04078114861292005,"760":0.07190038878679887,"761":-0.021501344742078085,"762":-0.05230078001723099,"763":0.012153382204086075,"764":-0.025140442917335012,"765":0.00006174825159269602,"766":0.03269637916574564,"767":0.027807042588391055,"768":-0.14101333886673778,"769":0.01730865400154865}},{"sx":1,"sy":1,"depth":770,"w":{"0":-0.028791739440013432,"1":-0.01622070744702651,"2":0.004681772386398744,"3":-0.015079812093781553,"4":-0.047321962258599,"5":0.0301790510231413,"6":-0.001430816443972203,"7":0.018608811788982042,"8":0.058326302095172075,"9":0.05828816575611339,"10":-0.03311063170028684,"11":0.0038818289603301634,"12":-0.06084779874471036,"13":-0.00514394128688458,"14":-0.03259377747854988,"15":-0.044303102025358525,"16":-0.05068138649136527,"17":-0.020436209573886175,"18":-0.03027257350855558,"19":-0.04670626293728752,"20":0.05932217303531823,"21":-0.04797558865722999,"22":0.005804877677203015,"23":-0.04697915096249185,"24":0.0024268709535202725,"25":0.04754973939472584,"26":-0.017484498582164467,"27":-0.05852632249891114,"28":-0.017467867419097814,"29":0.02055460695204471,"30":0.009164275972950981,"31":0.04648896484248554,"32":-0.013854448534782009,"33":0.02267773386536008,"34":-0.05936731201145257,"35":0.010066787491781847,"36":-0.014987099180748656,"37":0.011028588452683608,"38":-0.021547725396974655,"39":0.051656444544589765,"40":-0.015211144342875389,"41":-0.05157628961707218,"42":0.012992964142210755,"43":0.03064592553744204,"44":0.011465100589750454,"45":-0.03970316145726905,"46":-0.03752707929784736,"47":-0.03380323988662869,"48":0.033407178591107534,"49":0.06885594885699903,"50":0.04876886822141334,"51":-0.02816410577276447,"52":-0.04597534394552523,"53":-0.012142682317459887,"54":-0.043768118265467844,"55":0.020398564945046764,"56":0.008346609418230812,"57":0.05255445904327781,"58":-0.08622928915265678,"59":-0.05790029975219297,"60":0.03258631711837015,"61":-0.0003398333199802698,"62":0.03662891915033943,"63":0.0490428842600009,"64":0.012586591500095246,"65":-0.012985002245041696,"66":-0.050885651234354075,"67":-0.04129800256040552,"68":0.04893774174963823,"69":-0.14119541180882025,"70":-0.1024644527598358,"71":-0.028086551068097702,"72":-0.013016275545734179,"73":0.015378179783500659,"74":0.030573160197224305,"75":-0.01429445421630959,"76":-0.0469003534688761,"77":-0.034117112356832055,"78":0.021870288705245277,"79":-0.02726125820638057,"80":0.012251567518050135,"81":0.037692092130523304,"82":-0.015069544474728405,"83":0.01548732900904553,"84":-0.0033547130082691723,"85":0.056041275642942825,"86":0.018642843619062495,"87":-0.039480103784777926,"88":-0.011687400424471627,"89":0.039541203006029584,"90":-0.03973071972295723,"91":0.00792540120849936,"92":-0.010927528269685212,"93":-0.02049883532551694,"94":0.02451778853585881,"95":0.00141099315233011,"96":0.09551088180322519,"97":0.08346405887342298,"98":0.027625086541748105,"99":0.029383708122842904,"100":0.015492890111035421,"101":0.005437283240614965,"102":-0.06822141096544813,"103":-0.010743190562116601,"104":0.004689591673884517,"105":-0.026916969224830972,"106":-0.0334856234725231,"107":-0.01266360359708317,"108":-0.005406606120540657,"109":0.08687295675606407,"110":0.03902064608515499,"111":-0.012503706221051042,"112":0.07397985381887764,"113":0.02560767837360414,"114":-0.04991234843370286,"115":-0.009286336653805898,"116":0.023329351089711455,"117":-0.020311842988097517,"118":0.01944979458744349,"119":0.047157374184235774,"120":-0.01854475384951453,"121":0.06320753728790687,"122":0.025513027578358445,"123":-0.04094877910354529,"124":0.04413557148911841,"125":0.024844772302858895,"126":-0.10631153312468279,"127":-0.014194382423494249,"128":0.03483085540453107,"129":0.03627920301550228,"130":0.0007397046280886443,"131":-0.07771348000194907,"132":-0.0710624868798624,"133":0.012074985212153347,"134":-0.09604431718135897,"135":0.0457886378306735,"136":-0.05147277393854352,"137":0.01018903509395175,"138":-0.05809847003124541,"139":-0.010304802625259053,"140":0.023799513327516134,"141":0.09320589357368296,"142":-0.03083863845615989,"143":-0.03231965902693301,"144":0.04404934997008904,"145":0.07656678254131727,"146":0.014541433886907302,"147":0.02787318452466169,"148":0.0003828597183474275,"149":0.02057977401755816,"150":0.0033440439294088616,"151":0.023306188445188118,"152":0.011179896399401156,"153":-0.06658783987134723,"154":0.027599216813858105,"155":0.02019237214921174,"156":-0.040154094358405695,"157":0.03223077740863648,"158":0.007508953491308313,"159":-0.08019128066049769,"160":0.05816045948585924,"161":-0.00741097079348679,"162":-0.042549428603583336,"163":0.0298716722975958,"164":-0.04591566586684926,"165":0.007040738192190247,"166":0.03443270780453459,"167":0.012764726414719967,"168":0.018704551433125476,"169":0.02607237124275397,"170":0.010131542064400884,"171":0.058679970879147975,"172":-0.03533946641702061,"173":-0.04429865808007744,"174":-0.04864322618077916,"175":0.0034548688667673157,"176":0.07269802775050749,"177":-0.020598519502986724,"178":0.017313642973498918,"179":0.050164273448402054,"180":0.011732534073753614,"181":0.04909883636659271,"182":0.009975805109651726,"183":-0.04973309326432885,"184":-0.01520367074002542,"185":0.011012551944436271,"186":-0.07101125041866653,"187":-0.0434472051761493,"188":0.01698842783717774,"189":0.008358668451674735,"190":-0.013442604402148542,"191":-0.008406525346411852,"192":0.03595794284487432,"193":0.011466744482195325,"194":0.02399374570271535,"195":0.018742252064588436,"196":0.0007779095803409017,"197":-0.0938395555230226,"198":-0.031503412998815955,"199":-0.06922574423366389,"200":0.002574160739929166,"201":-0.050736458012489306,"202":-0.007242896650860823,"203":-0.03342599797025058,"204":0.061173078901813616,"205":-0.0021845874443800653,"206":0.008458501096666229,"207":-0.04954341562929383,"208":-0.09190534596813996,"209":0.04689591480303707,"210":-0.03438713304838132,"211":0.03522955083783032,"212":-0.0029304129802750815,"213":-0.012818874240402412,"214":-0.011522228957289445,"215":0.025785861200361988,"216":0.006202327663119638,"217":0.01335970091195576,"218":-0.05852975395087096,"219":-0.056445607445688786,"220":-0.04930524764043112,"221":-0.02923603187577068,"222":-0.04413542588835998,"223":-0.0484078267125762,"224":-0.020668914294857458,"225":0.01184789921294015,"226":0.06549132815237409,"227":-0.004794931876604862,"228":-0.008761738869919926,"229":0.047695014179637896,"230":-0.0556269827390161,"231":0.028738942676836746,"232":0.02233289986072698,"233":0.02977383578921385,"234":-0.07112691091884596,"235":-0.004180074601701243,"236":-0.1176241555069321,"237":0.045079478071843655,"238":0.006228466905874696,"239":-0.0138678559262114,"240":0.006555776734115321,"241":-0.030362718275610295,"242":0.01566627132731008,"243":0.007948731723221032,"244":0.11647113867122058,"245":-0.0007738342730382924,"246":0.02209111923015339,"247":-0.014004280128406219,"248":0.03912902551889066,"249":-0.008768536210108754,"250":-0.007858103164189986,"251":0.00985686668219209,"252":-0.06738083318725478,"253":-0.0027626417823174406,"254":-0.02403073621418237,"255":0.02073561186343667,"256":0.0029783477434335236,"257":-0.03709905501493532,"258":0.009811301299751414,"259":0.0031609244644450144,"260":0.054247767640415584,"261":-0.02620417201627843,"262":-0.005783153393899783,"263":0.014899352950843195,"264":-0.046580607985625626,"265":0.0682801375428301,"266":-0.000145672323101196,"267":0.021151899294112774,"268":-0.020668164210461203,"269":-0.09853412012846353,"270":0.048394456032359805,"271":0.050753861637073266,"272":-0.009343889764160916,"273":0.029928491170506197,"274":0.0029178530626826162,"275":0.007958651359474819,"276":-0.047366193234039254,"277":-0.02752018001500421,"278":-0.017727779465416277,"279":-0.01713849104111277,"280":0.010210600108134568,"281":0.014886623834605438,"282":0.046133107142203755,"283":0.03305189651794788,"284":-0.011661772757313704,"285":0.010558770683607773,"286":-0.0042351173264057514,"287":-0.032520483774428045,"288":0.0287526738857817,"289":-0.018695553587594456,"290":-0.05876331811514326,"291":-0.04131091139814805,"292":-0.005872203485808294,"293":0.029743223239386444,"294":0.015865274479273158,"295":-0.004093672848854902,"296":-0.015078318090026634,"297":-0.0153797348074491,"298":-0.035588415708565385,"299":-0.028098670682993432,"300":0.005070070195680436,"301":0.0017098501880325684,"302":0.020318262723452756,"303":0.07669108082165316,"304":0.00969253918166138,"305":0.013882595597343145,"306":0.0029046742073019337,"307":-0.05371126108731358,"308":-0.03312691287190957,"309":0.010865909236319858,"310":-0.029598980919332572,"311":-0.03599164630395018,"312":-0.0666519033254788,"313":0.014497513108756943,"314":0.056507133227894205,"315":0.004402056329841382,"316":-0.029973691851022256,"317":-0.00849630999802802,"318":0.010113504296407972,"319":-0.022400220656835855,"320":0.032702974101038985,"321":-0.01040964804956308,"322":0.0051752951430468555,"323":-0.05492874775354498,"324":-0.039412233024577185,"325":0.03176305952196376,"326":-0.02185286897819453,"327":0.042626794316246934,"328":0.028355294140708497,"329":-0.025761107798523118,"330":-0.04885372954420541,"331":-0.05334463280972982,"332":0.04069170229115404,"333":-0.023782535530247263,"334":0.00002132250304316249,"335":0.004513035827403159,"336":0.06232183064207097,"337":0.008776343442838635,"338":-0.0628489812454039,"339":-0.043742009052764465,"340":-0.007514955453701485,"341":0.026569205995733963,"342":-0.02873553867230742,"343":0.02771418531837901,"344":-0.033223702473378726,"345":-0.05019480419207142,"346":0.012966509754021196,"347":0.045032413494016287,"348":-0.01974292194976944,"349":-0.025544645948466792,"350":-0.03518520109643199,"351":-0.098353551567447,"352":-0.0034892366698397754,"353":0.039952263371734145,"354":-0.04808463970900778,"355":0.008696992037501192,"356":-0.10060525155323374,"357":-0.11560864784421888,"358":0.0869279872720224,"359":0.002868552095156505,"360":-0.0374198627201067,"361":0.0009721424306343303,"362":-0.04836643921622235,"363":0.07950740731533451,"364":-0.047467685421272256,"365":-0.008573948435149375,"366":0.051265778118978686,"367":-0.02758226888350133,"368":0.04496718729634087,"369":0.14847107156688102,"370":0.08374177103918193,"371":-0.032338877616382954,"372":0.03076570568312661,"373":-0.02252894838302507,"374":0.03723557798961759,"375":0.0612796987712792,"376":-0.04291843241120986,"377":0.011844916897347547,"378":-0.04581482872212063,"379":-0.0005016630398796835,"380":0.09614240173165364,"381":0.00016815528431319654,"382":0.00799599147618681,"383":-0.019384293900196532,"384":0.009928087436840203,"385":-0.02790457471721775,"386":-0.00019985972428046203,"387":-0.0003098841256119048,"388":0.027203096309950228,"389":-0.1018144804494326,"390":-0.0489651539201307,"391":0.13847173200182103,"392":0.07475642303210607,"393":0.004791526821561574,"394":0.09583599627952769,"395":0.013480125746215328,"396":-0.03144622758558789,"397":-0.0154858672274926,"398":-0.06322128765588576,"399":-0.040334472278846234,"400":-0.04577193938373192,"401":-0.020826212474827552,"402":0.07879545487817971,"403":-0.019557341389443872,"404":0.024554621335757993,"405":-0.048468543923088435,"406":0.007476706582659461,"407":0.019397638560997833,"408":0.06505641321564212,"409":0.074589674964462,"410":-0.06500210971131067,"411":-0.06895354195687015,"412":-0.06084478182410275,"413":0.11724077053964979,"414":-0.040555331034614193,"415":0.017442313642720964,"416":0.027783583337940336,"417":-0.025067668277049555,"418":-0.02240866588180552,"419":0.010991339744071571,"420":0.014316935802131859,"421":-0.050434526303313854,"422":-0.06294607817791406,"423":-0.08694086118501257,"424":0.047486285288472915,"425":0.008704834325951982,"426":0.02450953211344771,"427":0.032782331046930346,"428":-0.007080294682587275,"429":-0.049774345450977975,"430":0.020801381589224184,"431":0.03768359884192224,"432":0.029894653938562644,"433":-0.15311093584504973,"434":-0.01325236660118876,"435":0.18121223134792044,"436":-0.02826670850229745,"437":0.0016408928655164466,"438":-0.03216599137034597,"439":0.016001184206471064,"440":0.03150576259887323,"441":0.0234976947469865,"442":-0.05112602308607773,"443":-0.0840493384470323,"444":-0.11049844252153718,"445":0.03968318562246522,"446":0.1459905356282012,"447":0.0007328594964052849,"448":0.0020572613998059357,"449":0.05872195392743393,"450":-0.0035523553174773024,"451":0.0445292726817262,"452":0.021323953185804864,"453":0.004985259987296347,"454":-0.04606959063300753,"455":-0.08038800273286749,"456":0.03385627100161627,"457":0.24134578732031747,"458":0.03640650333944481,"459":0.036272897515197945,"460":0.017340400859093653,"461":0.030663622128973226,"462":0.02416772938579615,"463":-0.04646553652098708,"464":0.03052228112285617,"465":0.026355660011941222,"466":-0.07226283768766265,"467":-0.029091226700694275,"468":0.1487957334452989,"469":-0.01880365584629549,"470":-0.0001907570847183963,"471":0.049017085422362966,"472":0.009618954268693412,"473":0.00498811966108563,"474":0.008915589772958183,"475":0.037312231490077306,"476":-0.03232448184799383,"477":-0.08501611204646095,"478":0.009535337347906408,"479":0.149690089175149,"480":-0.011432214974428714,"481":-0.0132020061012136,"482":-0.024794064838609162,"483":-0.07229855067981407,"484":0.0342707182926991,"485":-0.00798433108387161,"486":0.02737156516438321,"487":0.016492642408909117,"488":-0.06666294135094009,"489":-0.025040394984030392,"490":0.1620698715538567,"491":-0.021590498190882268,"492":-0.02943622868730477,"493":0.012879505368247527,"494":-0.016348689206069973,"495":0.007281230664256246,"496":-0.01607739823550823,"497":0.07634498605314707,"498":-0.0011961460365075513,"499":-0.060710506078763084,"500":-0.013817329004027133,"501":0.14501904772122146,"502":-0.0886887365567841,"503":-0.007016979410606179,"504":-0.007853440011532839,"505":-0.006779659377145961,"506":0.008554229838816381,"507":-0.04128383888944226,"508":-0.005989099065072562,"509":-0.015999272293480596,"510":-0.12519397801667195,"511":-0.0036288475242381322,"512":0.17069211959365657,"513":-0.03651711609303305,"514":0.04276286628516583,"515":-0.03463494892710842,"516":-0.01557188061964961,"517":-0.021001390198989667,"518":0.07591238887885872,"519":-0.005900596776002242,"520":0.03125105448004375,"521":-0.05068723551656397,"522":-0.041155100045132925,"523":0.19482327440768973,"524":0.0372632580813236,"525":-0.012938020023914882,"526":-0.058889997634711214,"527":0.008676096650444215,"528":-0.05823375641420108,"529":-0.00690920791793122,"530":-0.0324138544445446,"531":-0.03971559610745379,"532":-0.045915958361903125,"533":-0.0366251401345845,"534":0.13035912155271703,"535":-0.11112737146307235,"536":-0.06407522625549783,"537":0.013591481611697032,"538":0.032740092689664754,"539":0.0007580391243016719,"540":-0.009076624522165748,"541":0.010408678299610383,"542":-0.049415412701162995,"543":-0.1295443201883627,"544":-0.07285820674875898,"545":0.1065023950504636,"546":-0.03671151502301884,"547":-0.039424973915632086,"548":0.04326547464237541,"549":0.018193586680799137,"550":0.043708398555755465,"551":-0.025876366011191056,"552":-0.015947794188673904,"553":-0.02669809470371927,"554":-0.003606749359273314,"555":0.03768925832009486,"556":0.07081085234634454,"557":-0.0730016833624007,"558":-0.05006684778126378,"559":0.027452687168185174,"560":-0.0712451915254432,"561":-0.018566737168465092,"562":0.011886052242707335,"563":-0.006576373755976411,"564":0.03261797323191014,"565":-0.05763305098655285,"566":0.05484266645723101,"567":0.014168465968472625,"568":-0.05538553294534411,"569":0.027181909960936487,"570":-0.0487816833309221,"571":-0.004037390037027471,"572":0.03785105933520754,"573":-0.0013905418554487968,"574":-0.00039396631855986934,"575":0.042364474432353395,"576":-0.021772824335005245,"577":0.02248967176860182,"578":-0.08632011463402128,"579":0.017711686877599064,"580":-0.04035668479774357,"581":-0.0049264705963071405,"582":0.01523951024975252,"583":-0.033132955098781405,"584":-0.052513765069646653,"585":-0.01634971836960101,"586":0.03225319986630149,"587":0.05023315849080416,"588":0.014782952060353278,"589":-0.07242418056459843,"590":-0.040846760160219424,"591":-0.031506854070700925,"592":0.007395063412550995,"593":-0.006063645002971873,"594":0.00024479906628414514,"595":-0.1037521429756911,"596":-0.051876550535794215,"597":0.016435066325089717,"598":0.03285558256392555,"599":-0.02229958476889794,"600":-0.030675998736536068,"601":-0.06612393249326465,"602":0.025771233084242274,"603":-0.0020009227038170407,"604":-0.006633218130013209,"605":-0.014459607640332658,"606":0.011066789413150022,"607":-0.022817332449290496,"608":0.025150253812400283,"609":0.000922226048105156,"610":-0.0873771197240178,"611":-0.06819153903601106,"612":0.0009359237092644479,"613":-0.004331188189196351,"614":-0.020491629507886595,"615":-0.057691285065688214,"616":0.07855930830099453,"617":0.018788183080260326,"618":0.03764820086574617,"619":-0.003724158884348301,"620":0.01526797943908631,"621":-0.053682714529557155,"622":-0.12790813358750602,"623":0.043210352909285384,"624":0.036493684035554724,"625":0.005262806171012802,"626":0.0027815062102323884,"627":0.0480994375882606,"628":0.023353332449439747,"629":-0.05208072230534827,"630":-0.0013454217334379188,"631":-0.012401960996686494,"632":0.008960491601710495,"633":-0.017471985519422133,"634":0.009238461553667358,"635":-0.029479957969729756,"636":0.06522288919399191,"637":0.0183928601743351,"638":-0.03538229849059092,"639":0.009723805194685966,"640":0.06030102767744632,"641":0.03079121909602336,"642":-0.019412597060005102,"643":0.049877291048592856,"644":-0.13721592365523103,"645":-0.002431983694068969,"646":-0.018607137919179544,"647":-0.031544413777956165,"648":-0.009641779155755283,"649":0.02815155135848614,"650":0.07673858030393595,"651":0.07447603232229204,"652":-0.06346209186626497,"653":0.0005479307234915721,"654":0.02676314858645653,"655":-0.018373235362078726,"656":-0.0707291393313236,"657":0.00022689442958017208,"658":0.01028503984209933,"659":0.07478379628595039,"660":-0.029160892251991376,"661":0.0699101024300496,"662":0.02404813906593899,"663":-0.07332259233713559,"664":0.03311349440511033,"665":0.022347550998377364,"666":-0.04499799880675201,"667":-0.05381995755680067,"668":0.0030716938425066776,"669":0.031951911566683255,"670":0.028423315403625825,"671":-0.03685455719801998,"672":0.011874027117801576,"673":0.021762272660799276,"674":-0.008855463926625111,"675":0.055396747023179364,"676":0.0029400374012894686,"677":-0.06960430522825328,"678":0.01657998902978229,"679":-0.03676857650539998,"680":0.00917682737896977,"681":-0.031466318084951844,"682":-0.024737184589998355,"683":0.0017270108802569302,"684":0.03029346265711688,"685":-0.003825450594571772,"686":0.07746550714658704,"687":-0.0026444924519805875,"688":-0.016382785889207347,"689":0.019442394272204393,"690":-0.046639195840771586,"691":0.026692842712237434,"692":-0.011891001003640381,"693":-0.04756059190970556,"694":-0.023945082687409986,"695":0.0733756031249304,"696":0.08458649535139562,"697":0.027088123958749058,"698":-0.06878970715505464,"699":0.008031087947053542,"700":-0.059227056595517885,"701":0.006275829454665477,"702":-0.019293671819493968,"703":0.003923991316552561,"704":-0.023819127385817096,"705":0.046229070085534306,"706":0.03279809213340168,"707":0.010731293853934823,"708":-0.028211173498848552,"709":0.0842756547738214,"710":-0.03675447239677065,"711":0.023228376761760493,"712":0.005634708237230945,"713":-0.007996380223039348,"714":0.004902597613442661,"715":0.022604571124350166,"716":0.04347380167060596,"717":0.01795388493456311,"718":0.0696023980678131,"719":0.09693065355524078,"720":0.017756842492539886,"721":-0.04418596269834916,"722":-0.009334277261840813,"723":0.015065845776401434,"724":-0.01526324050697949,"725":0.05683017887998215,"726":0.089774354240477,"727":-0.10344029265280491,"728":-0.03519711588173682,"729":0.005884092075406483,"730":-0.07415381653117017,"731":-0.01796575491562931,"732":-0.03907707692085157,"733":0.048302326998539445,"734":-0.005904546758916349,"735":0.003160681482893462,"736":0.015532629808360409,"737":0.0074153922856101135,"738":-0.007090398422034461,"739":-0.0156469832757008,"740":-0.06259814468795448,"741":-0.06964159579097368,"742":0.06999745153668062,"743":-0.09202271244114571,"744":0.01627348792478931,"745":0.03976863399563227,"746":-0.03676408654559103,"747":0.035832140403558005,"748":-0.03933701363765496,"749":0.021368036452273295,"750":0.03618749291611672,"751":-0.023393268751410155,"752":-0.012461165346800454,"753":-0.07503570309566004,"754":0.03451083492328759,"755":0.05771895496096059,"756":-0.012523980113219195,"757":0.03179795870459159,"758":0.010081827220566409,"759":-0.009732264044984519,"760":-0.053508283697287926,"761":-0.02941717511241875,"762":0.044748682867470094,"763":-0.05148280443436865,"764":-0.012823531031296239,"765":0.05902830737942963,"766":-0.054731593339662626,"767":-0.01485392889763097,"768":0.005323456411965711,"769":-0.01885428245720382}},{"sx":1,"sy":1,"depth":770,"w":{"0":0.016839728995080745,"1":0.046887400971969,"2":-0.019473833368156883,"3":-0.017935550658370207,"4":-0.01133094110707619,"5":-0.05030932005595901,"6":0.03959605861057782,"7":-0.03133740043507837,"8":-0.03486166798523118,"9":-0.007375852313750822,"10":-0.04934451287885436,"11":0.0021499905785912375,"12":0.08071010904750209,"13":0.0274705834824653,"14":0.14592917958474086,"15":0.059229124452240565,"16":-0.0152787301976448,"17":0.004987860331698445,"18":-0.018890769751474464,"19":0.00979304227201246,"20":-0.020033887295043674,"21":-0.029561602832962768,"22":0.006811333332730611,"23":0.0829087360535932,"24":0.030939692776858648,"25":0.034888336902547695,"26":0.033358762251491515,"27":-0.05882795169862796,"28":0.05605886663201011,"29":0.061763954761201605,"30":-0.006139373609018013,"31":-0.05453633133695697,"32":-0.04933490203314799,"33":0.009245827002000134,"34":0.053921627200935504,"35":0.06389268462607142,"36":0.025229038320837494,"37":0.052244076492888494,"38":-0.03194830679481963,"39":0.03687695947549206,"40":-0.013030039502101338,"41":-0.07833816159827064,"42":-0.028267445965091013,"43":0.00426614002832898,"44":0.07850884160242806,"45":0.06169770711729511,"46":-0.02559053145520408,"47":-0.06312732420304558,"48":-0.00011561812383333931,"49":-0.05868040190576974,"50":-0.029845254070425396,"51":0.0156410507186159,"52":0.025965918132981998,"53":0.027638088885696285,"54":-0.023412532252712927,"55":-0.017048038165690352,"56":-0.0012711629437034435,"57":-0.00538812350160515,"58":-0.1338979693228479,"59":0.04684865454316654,"60":-0.021206842730475427,"61":-0.06176369275651454,"62":-0.016082336656317253,"63":-0.04138729958436867,"64":-0.024867998910857773,"65":-0.003936534325038345,"66":-0.0019207340806915861,"67":0.034107671000069034,"68":0.04223722224579129,"69":0.02722373659008155,"70":0.020976138378716317,"71":0.0003323386693149411,"72":0.039799744940372896,"73":0.0325217989583152,"74":-0.04188589665163899,"75":0.010252942578658216,"76":0.046240716913341286,"77":0.010264155878730476,"78":0.004014784660247943,"79":-0.0034701006483389557,"80":0.0031907079284624025,"81":-0.05132896256470932,"82":-0.001525616359544806,"83":0.010484077599595425,"84":-0.0187320566681506,"85":-0.005598062471756202,"86":0.009699126434549272,"87":-0.007878050378243627,"88":-0.02882762125050474,"89":0.07977447426898264,"90":0.04373663213787069,"91":0.14278574314183912,"92":0.015501608777694173,"93":0.0061187588808574375,"94":0.005993273256479747,"95":0.01462897856921753,"96":-0.048253765079654676,"97":0.04446375212014798,"98":-0.07847465639118685,"99":0.04134250473359772,"100":0.07216124157410717,"101":0.05581873088149429,"102":0.05949144636842289,"103":0.06308192120233322,"104":-0.04337609641160683,"105":-0.10936852101162371,"106":-0.05898781269268817,"107":0.00983148208077832,"108":-0.018747865394817157,"109":0.034941631086629725,"110":0.07559623014866756,"111":0.06765695810583484,"112":0.016702259429762778,"113":0.09648093306629503,"114":-0.019048615527861985,"115":0.05316808839119532,"116":0.006634308570623324,"117":0.032558334970180854,"118":-0.03542646888004133,"119":-0.005061395837063162,"120":-0.025053864028517565,"121":0.11535232933407583,"122":0.04512930704932627,"123":0.047821745576674214,"124":0.043736265404578055,"125":0.06407841716584782,"126":0.02586089226317281,"127":-0.011112310525956447,"128":0.01307013932459587,"129":-0.03114152365468701,"130":0.017308293184716012,"131":-0.007622909599560511,"132":0.10175188903219064,"133":0.0910346298350192,"134":0.06224724082242379,"135":0.05429696514609983,"136":0.008804296814815992,"137":0.08623087526248861,"138":-0.05728453446224232,"139":-0.028182994689056766,"140":0.0717269855245394,"141":-0.04567070181679679,"142":-0.008099166338400798,"143":0.012400846809779141,"144":0.02359493014639102,"145":0.0186987107414892,"146":0.07721780547414932,"147":-0.001774803812824303,"148":0.04125917959047469,"149":0.035747758162338474,"150":-0.006154556587990531,"151":0.006862387604193509,"152":0.0387593808447176,"153":-0.06426777693612326,"154":0.020891062445384235,"155":0.036432195979409755,"156":0.030852467330080204,"157":0.03413298516671724,"158":0.003005894863813963,"159":0.10272425142819265,"160":0.07526611443711508,"161":-0.023777950753540746,"162":0.020606182000530354,"163":0.07878792818647695,"164":-0.028335951219924823,"165":0.0031042175343826226,"166":0.037802679052421344,"167":0.04496848190403615,"168":0.11852019990282557,"169":0.01454857688194267,"170":0.006461826318010881,"171":0.046989151483629935,"172":-0.02683554550987363,"173":0.011785722991794256,"174":0.01772404096179728,"175":0.014976277094316747,"176":-0.010120317094811296,"177":-0.07240084055980192,"178":-0.04250845803988586,"179":0.07833327784709189,"180":-0.02397450907893664,"181":0.04026408117823891,"182":0.01191888390435996,"183":0.0014660532966602692,"184":-0.028231894517072836,"185":0.05354597164490324,"186":0.012681105069266813,"187":0.03784954098993407,"188":-0.022955966352939245,"189":0.037144114717186726,"190":0.007790660928306794,"191":-0.07195579394524278,"192":0.032720000177378465,"193":0.029640997247465904,"194":-0.018979685535137684,"195":0.02726174094676233,"196":0.06216202902017436,"197":-0.049367434848103464,"198":0.10230250107071566,"199":-0.08195316295808058,"200":0.08223535401882695,"201":0.021879692439079983,"202":0.052070700911747876,"203":-0.06634303653874325,"204":-0.06524915809234504,"205":0.01074911691664791,"206":-0.008826565261152806,"207":-0.03896740267384552,"208":-0.05007684691799333,"209":0.1149055065997813,"210":0.045573605562978445,"211":-0.02132286204785601,"212":-0.007345507617192586,"213":0.0615300403639561,"214":0.05457948442393094,"215":0.04004421245288759,"216":-0.008717386905313512,"217":0.02666908549916015,"218":-0.009799259254044132,"219":-0.013650075035471523,"220":0.010587117075912198,"221":0.11352438553612391,"222":-0.011247267123314262,"223":0.04589889295482176,"224":0.005312165275762387,"225":0.026952159213366786,"226":0.028309394482574912,"227":0.0088805323628874,"228":0.00038914742509561497,"229":0.000027296793432607228,"230":-0.0028447535495332013,"231":0.026843023430750294,"232":-0.008336387674319698,"233":-0.01688451235162625,"234":-0.011423137073108273,"235":0.04862847531983362,"236":-0.017359039742989517,"237":0.006377271929433441,"238":0.060596944286435125,"239":-0.03849233182879905,"240":-0.0177885150182624,"241":-0.01597196006303961,"242":0.026807284617259543,"243":0.04332536918671116,"244":-0.08431755817460192,"245":-0.029085167499860773,"246":0.0182483583654271,"247":-0.08128865173871692,"248":0.0386122500757195,"249":-0.024295337971061478,"250":-0.07581298381837837,"251":0.003054637458692945,"252":-0.005486237368408589,"253":0.058757506693751425,"254":0.028111792965145224,"255":-0.057946888916955284,"256":-0.06550056265551892,"257":-0.08196782159395521,"258":-0.07151942332622677,"259":0.02864004485785663,"260":-0.01029273821501411,"261":-0.021972519135225806,"262":0.004229507595486947,"263":0.021501708901907814,"264":-0.019698398108839815,"265":0.061146792554532994,"266":-0.06261960266814806,"267":-0.0075538856055037415,"268":-0.09589084938221384,"269":-0.035276186579872346,"270":0.017164113886407765,"271":-0.04162140617245661,"272":-0.015104350967432277,"273":0.04199056064254406,"274":0.02130314924659366,"275":0.08057555475303242,"276":0.07655887194993188,"277":-0.06722378554392157,"278":-0.06688918833467969,"279":-0.040114876933820494,"280":-0.026370637045131443,"281":-0.03948801147514764,"282":0.07400785574957063,"283":-0.0021694870547194723,"284":-0.017119514282121284,"285":-0.04198944569498734,"286":0.03469654290024465,"287":0.0881948091262855,"288":-0.007707204259382475,"289":-0.08936083415604164,"290":-0.014474098857748386,"291":-0.04167985882806297,"292":-0.028617964566578887,"293":0.053315304919692295,"294":0.023140481969701126,"295":-0.03373276404903395,"296":0.047707109577310884,"297":0.00993711744520252,"298":0.06393149358859945,"299":0.015199037959816494,"300":-0.12739847034776508,"301":-0.03857940846432915,"302":-0.08191708326290369,"303":-0.000028041781967006004,"304":-0.004934358663468026,"305":0.012154842873676871,"306":0.01871033646382245,"307":-0.050904005938592796,"308":0.005292803637493802,"309":0.04024864278807561,"310":-0.0027792660094137426,"311":-0.07652626977376073,"312":-0.0032451078841447666,"313":-0.06472070796660621,"314":-0.011377031083161331,"315":-0.04206609268075387,"316":-0.021551614902673096,"317":0.02775431027086526,"318":0.026822136861975758,"319":0.06384238341671784,"320":0.01905060597983702,"321":0.03596847193645939,"322":0.026401100230984277,"323":-0.03144559319478421,"324":-0.009574928141138394,"325":-0.03084925792834045,"326":0.030000419417439462,"327":-0.0637539634157238,"328":-0.07256436668375185,"329":0.02376225788115765,"330":-0.08617697279619267,"331":0.025065994427032456,"332":-0.007633352426340829,"333":-0.02123858644971305,"334":-0.07269886368135015,"335":-0.05207341883139514,"336":-0.024891581374965874,"337":0.029777366361921964,"338":-0.03476762805898934,"339":0.02150146809330403,"340":0.03775817180274779,"341":0.018208602576294794,"342":0.04365439568561432,"343":0.047144677869486055,"344":-0.01835109082324797,"345":-0.059114915289904896,"346":-0.07528883226887913,"347":-0.13903827596431434,"348":0.019547949309043505,"349":-0.02286530617151016,"350":0.06701878896502775,"351":-0.05910780036329385,"352":0.05718300399601884,"353":0.029291567726375926,"354":-0.06017110246634067,"355":-0.05019101005742057,"356":-0.06339150848353743,"357":-0.13551297120946418,"358":-0.0992478197680168,"359":0.0588458250888094,"360":-0.07148870116089723,"361":0.009042931004434547,"362":0.007715437763970673,"363":0.0025498327605572996,"364":0.04477513964930368,"365":-0.01971294843618859,"366":0.03814770685499863,"367":-0.09220356721764279,"368":-0.19263759237324996,"369":-0.18213297677056556,"370":0.012887647531276384,"371":0.04201058502709759,"372":0.01353609077228603,"373":-0.008444692975746598,"374":0.016206212825479335,"375":0.005112223804828485,"376":-0.0075106290613849835,"377":-0.008472696278790603,"378":-0.0658511678244549,"379":-0.14139264895103015,"380":-0.080203068384804,"381":0.07012550055494735,"382":-0.061108010823675105,"383":-0.036815690120800944,"384":-0.022900728438657515,"385":0.0400799879183347,"386":-0.001490454378860248,"387":-0.01607652700482453,"388":-0.004352093502345224,"389":-0.05917731234601772,"390":-0.1383930692627651,"391":-0.08789317953291469,"392":-0.020491553531736328,"393":-0.02530160788081854,"394":0.018254515926521983,"395":-0.03408044896301941,"396":0.01957635665479857,"397":-0.0368649241401806,"398":0.003891674648191861,"399":0.010734315830214381,"400":-0.09924970906691503,"401":-0.17045141696190177,"402":-0.023215571360937794,"403":0.03308162393549951,"404":0.017649832883872292,"405":-0.023167964352470736,"406":-0.03650744389755994,"407":-0.009166058715025143,"408":0.02640631989103768,"409":-0.016792744366779938,"410":-0.0503830208240231,"411":-0.12405088039433029,"412":-0.06513288413318316,"413":-0.011903831065122572,"414":0.015730368549124032,"415":-0.0510198297447612,"416":-0.02315317231382163,"417":-0.010227077767267816,"418":0.05540266567471617,"419":0.05298168620420463,"420":-0.07754625113582973,"421":-0.0058734096869470275,"422":-0.09029962331739011,"423":-0.0607170054259827,"424":-0.04400516139876557,"425":-0.02871071525717809,"426":0.029095004535296093,"427":0.0045851050453817365,"428":0.020192890079251628,"429":-0.03276885109840483,"430":0.012894954769980175,"431":0.0012304804883060893,"432":-0.029152010167829784,"433":-0.03414420014974609,"434":-0.009854677994795736,"435":-0.05763952803123484,"436":-0.01652034142470866,"437":0.027523313429346035,"438":-0.023197553984086464,"439":-0.008933984954147723,"440":-0.055100972350403274,"441":0.05700268612472908,"442":-0.05613933715381749,"443":-0.005442805940295574,"444":-0.1347935523906036,"445":-0.12588489643586745,"446":-0.0412512739519118,"447":0.017992332909471432,"448":0.027337167333843327,"449":-0.018140835728850807,"450":-0.020673784059690118,"451":0.016387667695974606,"452":0.04236404382869685,"453":-0.05020361676492349,"454":-0.08258120784245984,"455":-0.14048673391572555,"456":-0.03738911247899591,"457":-0.08739230503060463,"458":-0.008319683918330984,"459":0.02661484932377484,"460":-0.04781342243457988,"461":-0.01628378550435029,"462":0.07294687040984726,"463":0.03393756049613565,"464":-0.030563945263932475,"465":-0.006868203842008213,"466":-0.046056642859285596,"467":0.08713574964547392,"468":-0.0524850611527876,"469":0.05446620350517274,"470":-0.02817543868558854,"471":-0.032807843953422546,"472":0.012474115524608139,"473":-0.010469781591414404,"474":-0.014045476241666332,"475":0.019552856060996514,"476":0.0031669806095895943,"477":-0.07675952778445985,"478":-0.03554925882659352,"479":-0.024235593683764194,"480":-0.03329982153951729,"481":-0.014678611438855415,"482":-0.07563603631805223,"483":-0.04113941641817585,"484":-0.03883770085452564,"485":0.008091122559132354,"486":-0.021066158532293138,"487":-0.019253309841609865,"488":-0.07327947568104913,"489":-0.05351923438074906,"490":-0.024269716264769783,"491":0.03561613153440373,"492":-0.04919259037454556,"493":0.058596410498166704,"494":0.004406616909216174,"495":-0.0193320440236806,"496":0.08790856778435391,"497":-0.004228514264783585,"498":0.007384048582888906,"499":-0.12761680758569668,"500":-0.0367611430675412,"501":0.02876184094233521,"502":-0.031491085448218194,"503":0.00858937922863269,"504":0.004216613874518098,"505":-0.008229875069844291,"506":-0.032183230230921595,"507":0.010431307811327808,"508":-0.026820163052563413,"509":0.015371701180311361,"510":-0.07443420696131449,"511":-0.06420074646081475,"512":0.05045951105557877,"513":-0.031255313736854244,"514":-0.0006009211700077271,"515":-0.026435843582749727,"516":-0.011707574110458674,"517":-0.06678564726066226,"518":0.041672371877830586,"519":0.03305478470292634,"520":0.04140401482805383,"521":-0.01544266256957514,"522":0.08172143124600813,"523":0.11236307206397861,"524":0.005582848988330903,"525":0.00669795914758478,"526":0.013363311409496634,"527":0.005172091343280484,"528":-0.02281811882800569,"529":-0.02459166504793608,"530":-0.06319204908349481,"531":0.05198048314736462,"532":-0.03984370461315937,"533":0.051607811457872715,"534":0.13209271375458634,"535":0.030977203312194848,"536":-0.005400971078153598,"537":-0.03429501857358561,"538":0.0309206516935924,"539":-0.04908341574904644,"540":-0.02915924629353829,"541":-0.08105933092949334,"542":-0.06317559922055709,"543":-0.07428642790032862,"544":-0.06252983099153515,"545":0.07300422998074686,"546":-0.03704943156564699,"547":0.026542966205859726,"548":0.030101574241936886,"549":0.02665523822495378,"550":0.02095809450496437,"551":0.004044209815141439,"552":0.0029786488717810492,"553":0.002216971248671701,"554":-0.061536475486452046,"555":0.0036734398856235885,"556":0.10897821479904969,"557":-0.020462777765619937,"558":0.02592467638419325,"559":0.03835928981734655,"560":-0.044415357673943286,"561":-0.022040567432957587,"562":-0.04922970334504459,"563":-0.005265812927978992,"564":-0.11247488813619351,"565":-0.09402000977917847,"566":0.025530666432102188,"567":-0.0020522937536763862,"568":0.03539807106883727,"569":0.016781638696236594,"570":0.016441655179961347,"571":0.030773815585850503,"572":-0.008250833197997166,"573":-0.013789853433773366,"574":0.05264232197608356,"575":-0.11975201261639888,"576":-0.09970881021964965,"577":-0.04167972062419008,"578":0.05250175331847278,"579":0.02397366094185406,"580":-0.056218106509684146,"581":-0.006237688278972714,"582":-0.006011321354297646,"583":0.04135615902833265,"584":0.0848554735524221,"585":0.01001212519080282,"586":-0.03601222587101087,"587":0.0033493910386564302,"588":0.0038955219252102945,"589":0.01090773671853282,"590":-0.09233932500403193,"591":-0.023717976581284175,"592":0.011893403373124542,"593":0.0069484897787747395,"594":-0.02548623368822106,"595":0.015728339087836204,"596":0.07972163602317905,"597":-0.05761889555611448,"598":0.006180597369400364,"599":-0.04536237556806149,"600":0.030264755995031877,"601":-0.009670721762111985,"602":0.050454025073082796,"603":-0.05260163296708055,"604":-0.04905015678395947,"605":0.021459338107886413,"606":0.006423023117394025,"607":-0.02115071346464606,"608":0.004274909039908703,"609":0.014453512790932785,"610":0.05247785488220786,"611":0.025305457571092104,"612":0.01922472629528617,"613":-0.0012129502828014606,"614":0.007814523783481927,"615":-0.02130794711944289,"616":0.029439069930653063,"617":0.013974234121096657,"618":0.044952132317898845,"619":0.01639626112271667,"620":0.014742733933454521,"621":-0.07107033282621773,"622":-0.009948768727098085,"623":-0.03160442220115417,"624":0.04523863038270487,"625":-0.003139360571109593,"626":-0.0047416311225425755,"627":0.04594224239113842,"628":0.04006316106268347,"629":0.00006850421506891077,"630":-0.0716070490586354,"631":-0.0009740375417093002,"632":-0.02439872225394138,"633":0.0072644529853069595,"634":0.0277363436471006,"635":0.06980367472005022,"636":0.022871009329775635,"637":-0.024150246060480794,"638":0.099028364820389,"639":-0.042144863116853365,"640":0.06474778798615355,"641":-0.005048014847234488,"642":0.0454678623600558,"643":0.004870075902598721,"644":-0.04501039710269936,"645":0.0021161596782559872,"646":0.05197761101280588,"647":0.016819902829271115,"648":0.017475762503682688,"649":-0.0049057911528165915,"650":0.06267572634392625,"651":0.013372879590213015,"652":0.010523965450976221,"653":-0.022772475595948506,"654":0.035809793584108685,"655":-0.021759373017433185,"656":0.08266109441420888,"657":0.0463032027379961,"658":-0.00712754925859755,"659":-0.008846012448593062,"660":0.023098220070854294,"661":0.02295366797101103,"662":0.013184899469248876,"663":-0.08924467842454602,"664":0.09179827061847769,"665":-0.02622920176054124,"666":-0.03960245726483225,"667":-0.07259180132400225,"668":0.023012758240601023,"669":-0.098755679252767,"670":0.02042491505854169,"671":0.029184904046198248,"672":0.053652062706616585,"673":0.022729471987962522,"674":-0.12152550819126297,"675":0.07547894494249355,"676":-0.024326898146045148,"677":-0.08030814488222666,"678":0.00991881918904279,"679":0.010054053233215359,"680":0.017799525786737724,"681":0.05341148839210342,"682":0.003976764110742802,"683":0.006312243489748843,"684":0.035917358946781774,"685":0.028174843988143645,"686":0.08239458614491904,"687":0.05920600406579208,"688":0.02762199268273994,"689":0.012265241534425646,"690":-0.04935609904383333,"691":0.048898696651273915,"692":0.014609088200706818,"693":0.023713341832864113,"694":-0.017682083784922125,"695":0.031443660099991576,"696":-0.03991729890177701,"697":0.13084255579977308,"698":0.0013184034952765226,"699":-0.05343926503719206,"700":0.05799656431787913,"701":-0.02899882981541149,"702":-0.0120466319187597,"703":-0.013173136756008242,"704":-0.019481314409617024,"705":-0.01764392526469868,"706":0.0646707546699593,"707":-0.06721615742497576,"708":-0.04401503117849793,"709":-0.0394045555798027,"710":-0.000029598061312194186,"711":0.019316402660182055,"712":0.032116701355186975,"713":0.008828366963023934,"714":-0.03609881073600493,"715":0.031331885095483576,"716":0.01729049583859304,"717":0.03366510810509218,"718":0.003374277833921325,"719":0.04763684593244796,"720":0.03880499001654292,"721":0.07956293623111735,"722":-0.04098653074845897,"723":0.0423821573926158,"724":0.018682445522828762,"725":-0.043878326358410956,"726":0.030620596774297886,"727":0.02140677046756035,"728":-0.014114628755859778,"729":0.06833604145631349,"730":0.030918673890375552,"731":-0.0879740486105316,"732":-0.0301628019443964,"733":-0.007984583894761688,"734":0.04274192026084958,"735":-0.006009509388789284,"736":0.028069994969246045,"737":-0.018573331812542143,"738":0.02886038302756083,"739":0.0008418712378587174,"740":0.06057718530172262,"741":0.012723725638664252,"742":-0.06336423195133098,"743":0.010972355027054894,"744":0.00016695185357312883,"745":-0.02200562637125038,"746":0.008481526449381391,"747":-0.003338657509639551,"748":-0.025735015879194384,"749":0.05226596765869839,"750":-0.08226917497912649,"751":-0.010784208463233158,"752":0.002710422567888742,"753":-0.007107427343177995,"754":-0.050498869993288134,"755":-0.04645818149867564,"756":-0.025632469727477188,"757":0.027082114794321904,"758":-0.01196768596220396,"759":-0.04070897168037931,"760":0.01601531888771072,"761":0.004652710963790472,"762":-0.0628619073654384,"763":0.007821952707760121,"764":-0.053385274849839404,"765":-0.011511940971570812,"766":0.0467088439098459,"767":0.05085328454187894,"768":0.015582518055077833,"769":-0.008466240651974575}},{"sx":1,"sy":1,"depth":770,"w":{"0":0.029211758713400635,"1":0.015791029969428397,"2":0.009000169494089858,"3":0.02112053189863169,"4":-0.04853741747923175,"5":0.07193177772936069,"6":0.029950333281120692,"7":0.05416225437634997,"8":-0.002180764384175081,"9":0.06727503585613057,"10":0.06276469282138697,"11":0.02805400220689399,"12":-0.04930535690034489,"13":-0.04566748116926528,"14":0.012289872569734486,"15":0.0028365208564422916,"16":0.08724487559435161,"17":0.061112670327395806,"18":0.032113451894428345,"19":0.041786805583720714,"20":-0.02266372973578039,"21":-0.004579812500939184,"22":0.018384809501805537,"23":-0.011269234508243778,"24":-0.05196778814280143,"25":0.08810633150122654,"26":-0.02706638866690412,"27":0.030566175174888945,"28":0.05249195258726169,"29":0.07065655507646514,"30":-0.030982653126041662,"31":0.03138383011975195,"32":0.019571437924211028,"33":0.023123033732960523,"34":-0.02961608472209815,"35":-0.01095478470359957,"36":0.01625853124394454,"37":-0.03018949454389275,"38":0.0752691997028732,"39":0.11778525061288421,"40":-0.03891054968285505,"41":-0.03486791975954377,"42":0.01108417942365365,"43":-0.011775948959898877,"44":-0.028337718582560015,"45":-0.00889724248859685,"46":-0.01819572642502027,"47":0.0062615902981321275,"48":0.02937803967801438,"49":0.0868266252657434,"50":0.050443982761458575,"51":0.07569620202206334,"52":0.01652682652082594,"53":0.009465942966098631,"54":0.025677050362934883,"55":0.04890625643388511,"56":-0.08756592034568488,"57":0.020233808029635127,"58":0.07123133468727218,"59":-0.03719281368379613,"60":0.08959822216534305,"61":0.05721575287026768,"62":-0.06960772513455062,"63":0.04114954974582405,"64":0.08226490293803808,"65":0.044277944558555486,"66":-0.023542615699862903,"67":0.03441320634904186,"68":-0.053800776870597374,"69":0.01590194260444176,"70":-0.0217100808505685,"71":0.06987577577463742,"72":0.00974838613060919,"73":0.011663860748644044,"74":-0.04085831980270093,"75":0.026943067347797965,"76":-0.005659804322549275,"77":0.010189464442430865,"78":-0.07410590808455352,"79":-0.03439354853525838,"80":-0.0465651140592984,"81":-0.08042583499923367,"82":-0.05830025694334114,"83":0.03148786875632531,"84":-0.06525727894521471,"85":-0.0033999273221477183,"86":0.03500131825873824,"87":-0.05562911943675814,"88":0.03919543789923563,"89":0.11663615411606518,"90":-0.0425506619893293,"91":-0.025099837312752536,"92":-0.03596091766950201,"93":0.005519924669006221,"94":0.007209959545791444,"95":0.01675550920107839,"96":-0.04998096354248195,"97":0.04281274150386556,"98":0.013238044003512294,"99":-0.0027454096117546537,"100":0.011895932113067003,"101":0.029419632646540517,"102":-0.043411811923755296,"103":-0.03648540054722346,"104":0.042741848567903626,"105":-0.022758935241621116,"106":-0.05455750404702997,"107":-0.09120729814784549,"108":0.010409615740175935,"109":0.09013256279860024,"110":-0.006822441484955825,"111":0.009303923105897578,"112":0.020445944702760125,"113":0.0009601550777383489,"114":0.03248593005618888,"115":0.01739575253463748,"116":0.0010646504552140816,"117":-0.020336486251809584,"118":-0.04583409388274146,"119":-0.007574827115462178,"120":0.044501242464986136,"121":0.03795761694429805,"122":-0.006926939468826075,"123":0.028932765795754104,"124":-0.07223323843946788,"125":-0.0736553157356905,"126":-0.0019691501609566354,"127":0.00798694640296304,"128":-0.0381084935637505,"129":-0.06257677069579039,"130":-0.01281062849403786,"131":0.009051911857976628,"132":-0.03745552719267256,"133":0.0008941539677909068,"134":-0.03832710854586754,"135":-0.027360157716612012,"136":-0.07243812200705799,"137":0.03860924706495144,"138":0.013980451858827358,"139":-0.03173681847787076,"140":-0.042402446150005914,"141":-0.007515457149923012,"142":0.0027163683751689227,"143":-0.028804123998222422,"144":-0.014121840014519778,"145":-0.09575444908091926,"146":-0.03279112920810902,"147":-0.13162180073290985,"148":-0.028304946830303507,"149":-0.04074013751909392,"150":-0.041674762183712195,"151":0.029778339996467913,"152":0.04458631108092155,"153":-0.0019386021038139108,"154":-0.03317881512278199,"155":-0.03260494277418755,"156":-0.08327115592167462,"157":-0.052811490621268324,"158":-0.083461161149014,"159":0.011307305435288092,"160":-0.0038107976703518056,"161":0.043952013128633026,"162":-0.03580204271595561,"163":-0.019602498835040963,"164":-0.043801044890252036,"165":0.024342790462891808,"166":-0.09720372222182268,"167":0.015504202741771845,"168":-0.08214977038936133,"169":-0.03938919944027305,"170":0.07461246040689141,"171":-0.026259716291971893,"172":-0.003917675197627699,"173":0.027695133209394915,"174":-0.01794453432323935,"175":0.009027472421637796,"176":0.014914709406314215,"177":-0.01541252147969382,"178":-0.013911667996536604,"179":-0.08916961800415486,"180":0.03251270923831219,"181":-0.01866497213372055,"182":-0.06670295391375265,"183":-0.0010297022967585257,"184":-0.03926045400663476,"185":-0.01633486583248881,"186":0.09550866655558554,"187":-0.0008384999859581255,"188":0.011654475861545287,"189":0.00896476439161896,"190":-0.02557835608183131,"191":-0.0840767251488794,"192":0.031517452893418646,"193":0.06063940224162322,"194":0.032423719239816434,"195":-0.052364020605944465,"196":0.03590460816410083,"197":0.04559811979599456,"198":0.018313184632343854,"199":-0.0014844643752299155,"200":-0.008099148156026114,"201":0.04125339360016365,"202":-0.05327303151733168,"203":0.05587241804770154,"204":-0.022097808801610445,"205":0.07238905877141445,"206":0.008638109446536202,"207":-0.04949945192800194,"208":-0.040931876798151315,"209":0.05149420449374358,"210":0.035083430611689725,"211":-0.028434143020046397,"212":-0.004943058410105664,"213":0.027629394295242558,"214":0.04086509307449337,"215":0.006370109614642562,"216":-0.004821841245778096,"217":-0.026881638400753874,"218":-0.0037606636480289135,"219":0.039095261050593764,"220":-0.05232670783569906,"221":-0.05056256593557519,"222":0.07206699617331262,"223":-0.0105858062240722,"224":-0.01359302356466167,"225":0.01696994357494281,"226":-0.014477737438795817,"227":-0.0004169174399281336,"228":-0.03769228200443756,"229":0.039584011291513434,"230":0.05998689019084153,"231":-0.0321782134620842,"232":0.027794903109904782,"233":-0.07325456033514954,"234":0.021885933359901025,"235":-0.009733146378933688,"236":0.12621505447531287,"237":-0.011444782557689617,"238":0.007977580265691567,"239":-0.0327761891555821,"240":0.060916556641451916,"241":-0.024027956767516505,"242":-0.022007331725991296,"243":-0.06895574976560605,"244":-0.014844217275496962,"245":0.0755889249176833,"246":-0.04262752539375363,"247":0.0005061060010616422,"248":-0.01061816061835947,"249":-0.008182052302716177,"250":-0.043210830671598914,"251":0.03371899900611132,"252":0.15855693486772776,"253":-0.005598303316899652,"254":0.009989254917012351,"255":-0.05973910555836039,"256":0.051317917276129,"257":-0.06900275279845057,"258":0.08001745218970174,"259":0.01687391261166966,"260":0.012509225767783301,"261":-0.11057510312173756,"262":0.0006820632577458454,"263":0.10507774611644227,"264":0.016021542058344725,"265":-0.02069298885075895,"266":-0.030338337331361556,"267":-0.04121145373948758,"268":-0.05127664309486327,"269":0.0558255069195761,"270":0.07301224568332891,"271":0.02406476822448592,"272":-0.037902090439054785,"273":0.034274567591107453,"274":0.015264395992300422,"275":-0.05095346926638612,"276":-0.014120937568778089,"277":-0.0013243967883249427,"278":-0.014017880194171177,"279":-0.054231611629822755,"280":0.0356576210067143,"281":0.016047146949775545,"282":-0.05924158744388146,"283":-0.02370279120466846,"284":0.0138655711510943,"285":0.02457725223157101,"286":0.013642057152373028,"287":0.03421715647282135,"288":-0.05587557497526214,"289":0.09637315172821295,"290":-0.047702633931522784,"291":0.023314565682411317,"292":0.05795813899166107,"293":0.019834770343337756,"294":0.009495391573128885,"295":0.0006875701277107454,"296":0.03784109883760023,"297":-0.03635703147432303,"298":-0.0028794400395292154,"299":-0.0006936012896590694,"300":0.03752379285794679,"301":-0.040901392131132336,"302":0.05160694075917026,"303":0.05005500826166222,"304":0.03456952787483654,"305":0.029379754033779484,"306":0.017921022768902818,"307":0.039258254952655704,"308":0.031342035040509315,"309":-0.04535913066015189,"310":-0.009921182314984138,"311":0.07307742136251526,"312":-0.0799383317987699,"313":0.010025351336519191,"314":0.04416324197456515,"315":0.0970191755372135,"316":-0.009098377501385414,"317":-0.040596157463654775,"318":0.03740249782952214,"319":-0.05136260182340464,"320":0.020851331866838158,"321":-0.002483920563348959,"322":0.05876073930946839,"323":-0.012297639789641707,"324":-0.028763762929974325,"325":0.08184838531100166,"326":0.05854494395740949,"327":0.02621799469980831,"328":-0.0141843805822519,"329":0.056636258150229254,"330":0.00926912674286176,"331":-0.03205162708188753,"332":-0.036562997255199785,"333":0.063081029798712,"334":0.016129645593911904,"335":0.009420170972066759,"336":-0.018779404211500463,"337":0.04843204210734475,"338":0.03918260709805831,"339":-0.045389615604154686,"340":-0.056521617786880585,"341":0.01722800307531506,"342":0.0020661325149168392,"343":-0.059355796532837464,"344":0.018124350773581276,"345":-0.05458394946781435,"346":0.007129564097261485,"347":-0.018934467233156258,"348":0.0515956172389377,"349":0.04546370845857709,"350":0.02811619107425444,"351":0.08530809992291384,"352":0.050182610898247125,"353":-0.016530398093944184,"354":-0.008273702276163511,"355":0.047425030380523654,"356":-0.06458793087038883,"357":0.03190096674640552,"358":0.1065530023497781,"359":0.026756379895016877,"360":0.029585075978274405,"361":-0.002249135008810841,"362":0.09957274611021276,"363":0.012903291517814466,"364":-0.05035161966813205,"365":0.053200361395611705,"366":0.026031327851897133,"367":-0.17575624057476194,"368":-0.013758226904171746,"369":0.05576604285974892,"370":0.06580185826765379,"371":0.06740659169981054,"372":0.026498757782558537,"373":0.06287485341367147,"374":0.01885900411633182,"375":0.0465895526041234,"376":-0.017968714593844224,"377":-0.014035173159274243,"378":-0.09542846296976965,"379":0.008837450795565003,"380":0.05152587076214562,"381":-0.050522999317883316,"382":0.025507868355653555,"383":0.04314910195996456,"384":0.015203036128630663,"385":-0.022742962059462725,"386":-0.004761810991832718,"387":0.014742290537365909,"388":-0.05850355393837854,"389":0.011897634288802018,"390":-0.03175942878460718,"391":0.1015760242339507,"392":-0.01501428927417182,"393":0.03270192106443729,"394":-0.025163454878069494,"395":0.039955972515300746,"396":-0.05442707696133381,"397":0.01165350089663525,"398":-0.03158686923622691,"399":-0.009540716693680984,"400":-0.017620750137577558,"401":-0.1433818153663747,"402":0.08833198833442268,"403":0.011750461239052962,"404":-0.014220215718270826,"405":0.03475509321747443,"406":0.03470832707000309,"407":-0.07166381166404245,"408":-0.03589884070127947,"409":-0.03340298464821798,"410":-0.08595803869089134,"411":-0.04039110400807211,"412":-0.09702905066010996,"413":-0.022912604099196758,"414":0.009457384966838863,"415":0.046265417901867716,"416":0.0741400718492007,"417":-0.013347925335668545,"418":-0.024231704089996624,"419":0.05400599166193428,"420":-0.01819445959796657,"421":-0.07168392438082506,"422":0.0012526086801350421,"423":-0.1068306549350579,"424":-0.1253141999818599,"425":-0.020530134793248223,"426":0.0005448594088304023,"427":0.034463147861769496,"428":0.04474075180721329,"429":0.00446453238542706,"430":-0.050869254632055494,"431":-0.022987856133723263,"432":-0.010652108457491268,"433":0.0038002388244717583,"434":-0.10429612671051933,"435":0.00584140774679984,"436":-0.02946892793181903,"437":0.01665435955923551,"438":-0.031441849891040874,"439":-0.00006983577099784942,"440":-0.008139874773708313,"441":0.006296861661659706,"442":-0.016981197637429557,"443":-0.016968080289006593,"444":-0.08403743170812444,"445":-0.06141707331448029,"446":0.037058453874026155,"447":-0.031495802477502964,"448":0.05849088290657547,"449":-0.01729834268885759,"450":-0.021491157161189788,"451":-0.011425993389196401,"452":-0.06551512082705777,"453":-0.04194699241256955,"454":0.05790979689183506,"455":-0.03810555655969427,"456":-0.036077499671532814,"457":-0.04366488559257773,"458":0.011820127106937315,"459":-0.06782914746712494,"460":-0.035138999186340426,"461":0.040474288707795236,"462":0.06201973194359653,"463":-0.00803252250872533,"464":-0.009246907583590334,"465":0.004852993223478444,"466":-0.08521226178978733,"467":-0.03369775802070544,"468":0.019584401320549154,"469":-0.04715411758760541,"470":0.05926821217010396,"471":0.017792680412933547,"472":0.03485451588199829,"473":-0.0075445088400577145,"474":0.005570530773493839,"475":-0.007283259481947421,"476":0.06800495461082207,"477":0.06347297074057978,"478":-0.08575267268087039,"479":-0.19120095602110332,"480":-0.08297817278529013,"481":0.06922501476329519,"482":-0.029209737075163143,"483":-0.025161363685437574,"484":-0.01348511243698474,"485":-0.039950326778742565,"486":-0.020248939441053493,"487":0.04258786914169354,"488":0.052290363480206624,"489":-0.11423867259770193,"490":-0.238676587918043,"491":-0.029501753303029662,"492":-0.05739874891189162,"493":-0.004769715245608726,"494":0.0838689547707742,"495":-0.059645593050705686,"496":0.012899960669488076,"497":-0.030419693988882706,"498":0.05359547148349314,"499":0.08624180766250174,"500":-0.12686882770833788,"501":-0.22871981614002496,"502":-0.0900111516126071,"503":0.06852759653544294,"504":0.05128266929299528,"505":0.07977340560241039,"506":0.03510080381524095,"507":0.02596999991019112,"508":-0.05616036098540639,"509":0.1052606589627629,"510":0.11677234178017445,"511":-0.011606029424810444,"512":-0.23238919946867853,"513":-0.0329900487123386,"514":0.02592052598901701,"515":0.007287524072199721,"516":-0.011597927922082188,"517":-0.03044751612740804,"518":-0.01691306297620959,"519":-0.00006931636944850048,"520":-0.025479890184570825,"521":0.16368475622992856,"522":-0.007381029205411881,"523":-0.1903921230054544,"524":-0.04734493413000234,"525":-0.00715288766671341,"526":0.03160222886181165,"527":0.011327387614241792,"528":-0.07764670224984303,"529":-0.07772624709298923,"530":-0.022293423648013056,"531":0.03609578534965359,"532":0.06205508554380279,"533":0.09526601288359107,"534":-0.19645577751430843,"535":-0.025751033129460504,"536":-0.015277665252638122,"537":0.05171474180409632,"538":0.02080830046265397,"539":0.008051979958353534,"540":0.030634753107850805,"541":0.022214261787268673,"542":-0.0678356896621081,"543":0.05124465997446933,"544":0.0461261915753109,"545":-0.2894110162548537,"546":-0.03795177299262665,"547":-0.06777209425884241,"548":0.01579331613535579,"549":0.11935389968993133,"550":-0.1142134407966404,"551":0.03160231479162693,"552":-0.017553188471061024,"553":-0.0434836259708882,"554":0.10270330345551931,"555":0.01754706577243565,"556":-0.2227238029200693,"557":0.05379715201681029,"558":-0.009317592536384978,"559":-0.006608465662785928,"560":-0.04426957108077825,"561":-0.029373362221019005,"562":0.00963411180275249,"563":-0.018519123091420262,"564":0.05185020704118667,"565":-0.00597606239766006,"566":0.03559620941787472,"567":-0.1761557080313686,